[196, 150, 10]
[[-0.13006928872759818, -0.0047259094802150755, -0.08805370234974307, -0.07575326530357268, 0.05462762456573617, 0.05523902924870442, 0.10650314079000418, -0.043733648618566455, -0.045447279580055816, -0.020203876511940846, -0.07315563033139341, 0.024020856955359857, -0.03586903470089683, 0.00030344892204087675, 0.019616293232629377, 0.004718428518082493, -0.08379898287479251, -0.06870295236985091, 0.002349795975700971, -0.11723959058248982, -0.06699348103292052, 0.09414827642025334, 0.04477683146315296, 0.05528145155461051, 0.005096241804028158, -0.08117697418513306, 0.05627126832106407, -0.04952020608122406, 0.13375387092201593, -0.006685033767897922, -0.01921767403737214, -0.12428724910918443, -0.0624259980422622, -0.03647592900918291, 0.09978761419101054, 0.13356718746489243, 0.016072068667711655, -0.06770864240475122, -0.04066830468076188, 0.09125777548993753, 0.08147044269372056, 0.012990584514856464, -0.16622020941975763, -0.0670465394796756, 0.10801382047776154, -0.07137748408851802, -0.050684588204073594, -0.08869547323975253, 0.11560399304133415, 0.029895873388565607, -0.010956404221544107, 0.017267648344407683, 0.06753479065016582, 0.019389159802640277, -0.0042602603306310695, -0.039186306397469665, 0.016044450316855842, 0.023519896502171848, 0.05401284782330009, 0.012115149769737328, 0.023623785112497495, 0.04619194526429057, 0.14673701336975356, -0.03142070278988639, -0.08468456040994575, -0.08579799154055838, -0.017213216652033635, -0.0840945265653247, 0.05412636219161046, 0.05293088224623622, 0.02778574882354702, -0.07750014031034236, -0.156885464168217, -0.04123771625609721, 0.047854993983521645, 0.009333966638573393, -0.06012569900691461, 0.07612904780564149, 0.10415244039525708, 0.015019616452372044, -0.013167057593132211, 0.027958624812297425, -0.06370192945549932, 0.016557980560785335, -0.007910505756794724, -0.11437578588265143, -0.11284206693767088, 0.15769341686649213, -0.1696307583386927, -0.09191641214353927, -0.06612839019900625, 0.02333287168668691, -0.00016495610311976683, 0.0002690092459190351, -0.04987759717578181, 0.04299845191413152, 0.0029790041384398004, -0.07362221013814506, -0.05560345226587378, 0.06980542648750095, -0.050475597679367885, 0.06651321603502537, 0.04934692932786635, -0.0401305259403719, 0.1643735778505151, -0.012675040985027213, 0.009861306781080346, -0.09902750932939675, 0.0018300081726656287, 0.10457318505514616, 0.016677538567833355, -0.07201882316449067, -0.14328479995868, -0.00444279647750572, 0.0881644602472139, 0.04177260615843795, 0.06899731096521136, 0.04174340853241368, 0.02944468550215324, 0.029777258230594118, 0.08851161153891232, -0.05202434480678432, 0.07243177859555386, 0.060473760189546324, -0.10988594638606941, -0.035798098403358965, -0.06208422792902515, 0.03961546289270312, -0.016988047288610204, -0.06265529220468026, 0.057369807569254534, 0.01002486549053373, -0.09872552777791299, 0.007837655047256052, 0.011842920798627825, -0.01731095951302642, 0.0944244333308595, 0.0884868801483908, -0.10318368469779196, -0.06421440453309533, 0.06137904233871052, 0.010477589476223736, -0.10015224553004083, 0.013572708902964928, -3.0234537030104835e-06, 0.08163271113679449, -0.05025734132307315, -0.051396745989567644, 0.06027431666999279, 0.018603059344920184, -0.04098670115885137, 0.002144093313118538, -0.00026816159119384366, 0.051798743190092846, 0.016827912700083544, 0.18630454846722105, 0.09940493269431402, 0.041866553322693435, 0.035159919829012225, -0.04290646633852347, 0.07531070004926034, 0.11700672463989065, 0.07580280995689039, -0.12934045008818038, 0.1216246609800843, 0.01747757147143694, -0.049800722595327425, 0.07399221245860842, 0.08228095661108331, 0.09605382569425021, -0.13305675001459474, 0.16925620528285493, -0.002310130697026659, 0.008354193830179275, -0.0019195442153951661, -0.03564050661999294, 0.00835226843994567, -0.08283154529664465, 0.003853423312523046, 0.027429341216556113, 0.0695285021533308, -0.07505839475997327, 0.03539477976805127, -0.05116956424688554, 0.0027230921724500008, -0.02655018862577717, -0.03571464234858486, -0.009875446757120652, -0.04070096213748347, -0.003116281500246198, -0.015964736667314672, -0.05734796112109879, 0.05102835183184302, -0.1525742698601886, -0.06664389030173552, 0.0009697384230431452], [0.18283432890353696, 0.05827659905492629, -0.21113293139593803, -0.10027116759725185, 0.013660927636524937, 0.18676681589331262, 0.025997921089350062, 0.008848229688145564, 0.0038998747280141973, -0.030893261615292635, -0.12869404163206596, 0.09578258006631443, -0.053252214113646945, 0.0949193940703404, -0.04702685994746984, -0.0008731539364329055, 0.03890872211933206, -0.025501511202085363, 0.024771543490830973, -0.11515795959892562, -0.06979760117523418, -0.013378360703457198, -0.17618876415412446, 0.14972403807331625, -0.00010789629673531716, -0.017990293219508905, 0.023748460434259988, 0.11398243832688243, 0.061399514414044204, -0.12118329942948732, 0.033838928495566134, -0.07639681616269084, 0.02522741932071333, 0.12115463217486237, 0.040462936901415426, 0.029652018580569955, 0.06156099274426149, 0.012828692903010025, 0.014952233058474276, 0.01786188571334933, 0.07991044797002024, -0.06413820935214448, 0.005336940906996146, 0.06730841129621515, 0.08563450358937068, -0.02497480037274292, 0.07484263372332141, -0.07663765126976443, -0.005254361847724472, 0.03039154722377208, -0.03779982869856637, -0.022697518634345024, 0.07087188061120106, 0.09245176084178443, -0.03297447097874778, 0.023240723623813166, -0.0403461853189657, -0.05521668189142938, -0.008149795475307881, -0.09107330135222687, 0.003282058743171546, -0.003365883323712544, 0.06463100309800426, -0.088201669199296, 0.05181129514142772, -0.016763707800331228, -0.13440730422729882, -0.03489570099953914, -0.06548157027963827, -0.04337599707033524, -0.039894551211473304, -0.012481306268530315, -0.027220837133813448, -0.017965855240230907, 0.026590556731270424, -0.10710669756800363, -0.09904559872953897, -0.03674814582261415, -0.05422075002498679, 0.09042403491382267, -0.01696591960358652, -0.11100523407863762, 0.06592277019562838, 0.0502514446356715, -0.048758142983580305, 0.017172461549359266, -0.01915934306277638, -0.04725262694845952, 0.0006053391536688732, -0.08373593344518403, 0.014696345590808613, -0.0007027854953151515, 0.0022076428587781004, 0.04258027945778318, -0.0015528909611666494, 0.016048451412203835, 0.011403434878966024, -0.0467628668740112, 0.02446440347244654, -0.0840349758572988, 0.02030582317911947, -0.044371247325645576, 0.09895474068032581, -0.015658845949087126, -0.21065423473995765, 0.017536666817286335, 0.03338675509557915, -0.03675640282616685, 0.014988598265960544, 0.09326441362231716, -0.056955073707717005, 0.07339923158046441, 0.0490664868549239, -0.053971358983379535, -0.003337573689510988, 0.016724308203402292, 0.14918995405700566, 0.02081980254964674, -0.04714625491509811, 0.02567099186059303, 0.040094022990541205, 0.02155995166569871, -0.04589622604147825, 0.01688721979440638, -0.04273506196822755, 0.04381549173935743, 0.08204266542647908, -0.020226209928772398, -0.027997242911497067, -0.05568444342950121, 0.016235594325315635, 0.07644481866453649, -0.1940086598101528, -0.04369817640606912, 0.1638175130008901, -0.06858746506361406, -0.07639445500270091, 0.06544548025432369, -0.020724601411368355, -0.05636971715487745, 0.0700178950030656, 0.050390841474570264, -0.056637494761134055, 0.09549831771603197, 0.05024020647130516, 0.024598208608085193, 0.009291390720438992, 0.013653400358380943, 0.0571187006596138, 0.09966726065408545, 0.08749018405938894, 0.12592643868503195, -0.12462570979203481, -0.009117106724776478, 0.1085318595481683, 0.0798390333685715, -0.09419344943506541, -0.028391239365148733, -0.009183050892529958, 0.07371106161178359, 0.02004461655969367, -0.09304327952218687, -0.08570725564874569, -0.025621724565672237, 0.04431910637356909, -0.034393640226856, -0.08181177637908482, -0.11165337272424139, 0.15353766261050192, 0.061338713512863324, -0.015009208912121576, -0.07987519969354429, 0.09293621984054501, -0.09298625355626519, -0.029440228032227338, 0.02139657444751237, -0.049903006874092826, -0.10509524327806441, 0.0019044068392956952, 0.014439422991557621, -0.007263847385390504, -0.06675451257936642, 0.10071355945551304, -0.041536775163956166, 0.03985713393798132, -0.06851177846666412, -0.10238627361501215, 0.013204750072136147, -0.05491211084966286, 0.02953216911750073, -0.14303240782611995, -0.00922401313495712, -0.05719489976460685, 0.11388375834115819, 0.08235534289006381, 0.055689078446414644], [-0.0054326382399635595, -0.02553254061274395, -0.03414912762312318, -0.07753351697492666, 0.010162361899423392, 0.03662652995391659, 0.11839034558831807, -0.05988722579161879, -0.012211366522090063, 0.07992046323739783, 0.08213493151522011, 0.037673552741104364, -0.027795857306561467, 0.09396072780852707, 0.11431838097282193, 0.05562433987279617, 0.07682755066118307, -0.028617581148408743, -0.051358927400396194, 0.03934508354764491, 0.03426604464599677, -0.0731975481698346, -0.07579681362054456, -0.026830085389841146, -0.033241818318243625, -0.04048634590295385, 0.08349343528189657, -0.005016779189013104, 0.08531135479451406, 0.04204001157926631, 0.043898313253366794, 0.0005464728984832363, 0.01739929866532407, 0.007139555503028774, 0.1778754714409206, 0.0012516779073969287, 0.029006901738507267, -0.05252549345787001, 0.02877658207182517, -0.0746452400301008, -0.09263432832386725, -0.08410390561689456, -0.048198416753276276, 0.09727344974475728, 0.02183530243266019, 0.05738987035226312, -0.06600594588474304, 0.02219199614087562, 0.07480466728099558, 0.0254056581881791, 0.057230113140750286, 0.03548447168371659, -0.01914988973875428, 0.19134687671731093, -0.029403057975386022, 0.043533538599421176, 0.016344046303350027, 0.08392292662533962, 0.006124444292945386, 0.006865182505299752, 0.11104869314198998, -0.1994461283173102, -0.012176546226269139, 0.2121650014118608, 0.1977881259271029, -0.06937144753418484, -0.021961045951296155, -0.09195085829106595, 0.06745958046365222, 0.04806888753688093, -0.0034780032694406095, -0.0836035176890281, 0.04705088120976261, -0.10017131498920953, 0.10691560226136192, -0.03960734264787239, -0.007268599426850218, -0.07574762538271287, 0.04869289836536863, 0.08057071486475224, -0.01889318650266114, 0.18361971226342017, 0.0898519974388085, 0.16555548999090766, 0.03725506139278351, -0.0279634024571539, -0.18656332700860068, -0.057353043890773635, 0.03058413298703102, -0.020325650288531828, -0.02387794314428442, -0.048313431335796554, -0.025379172082092, 0.04357235354288883, 0.04633255734061418, -0.01585238400082363, 0.17464654745563032, -0.04842046173239273, 0.07697306221659321, 0.008051517852438222, -0.11147049218183587, 0.0201728903116126, -0.011637221425255561, -0.0015096176218186083, 0.01757449674568148, -0.026219443810681673, -0.16076582568614048, -0.019246359156466848, 0.10558642092146403, 0.018671296083381264, 0.08444109327216001, -0.0037608974209835115, -0.07566527767404657, 0.11062972221780588, -0.055867396792327884, 0.0050122947439140446, -0.14162452522271105, 0.09970910847159309, 0.0011961544427346435, -0.04406099667073828, 0.0346949361752355, 0.03610531511886688, -0.06354485217456608, -0.04287459373861192, 0.05437483502405073, -0.05420241412347971, -0.007815843007995718, -0.033739196450403956, -0.03930465732036861, 0.09136351948649125, -0.05474466293772373, -0.0637723557785126, -0.03251366100565883, 0.00240157082753764, 0.12066557745658604, 0.2056943850801701, -0.001918359111427217, 0.013591300134971307, -0.021918868946087584, 0.05445012053834673, 0.07596897421339613, -0.010739925794934829, -0.061812178693703215, -0.025723058143381727, 0.09498898146058858, 0.006924586889687688, 0.02707033979168342, -0.008857771650352586, -0.0097938130339829, -0.04401905575584459, 0.037415229947077015, -0.09193848908762803, 0.1191959183416228, -0.05349117292765972, -0.04921222630827408, 0.007761504557581502, 0.04107040214326547, 0.0069351717875451736, -0.019183447590409082, 0.037716175380756334, 0.011076090726534637, 0.025013937927031143, -0.01128387443444174, -0.0012855506205417379, -0.0050605207695101325, 0.10798288287526532, 0.07068948452242103, -0.03445458050383577, 0.09645535330240004, -0.0352361384049975, -0.10177781108280093, -0.03840253502235049, -0.16783113588094437, -0.020664559563332765, 0.07433518066530799, 0.04467464448508335, -0.009260153986080773, -0.015534059219365487, -0.025681894995577593, -0.052609824010013, -0.0044725149842178916, 0.06449577108925807, 0.031686724760037185, 0.0332116496985598, 0.02926192313173794, -0.1700390227419396, 0.012978337344584106, -0.04257115595932527, -0.011325276635680783, -0.015511899094541638, -0.16159786670617504, 0.12004646413567734, 0.1877106131801676, -0.02854766589925529, 0.03157610376840465, 0.053106901695525684], [-0.0012742084524351492, 0.021818431022545156, 0.12450530255094022, -0.006542225673027445, 0.031146168815680678, 0.056226372059170436, 0.0025401732483486283, -0.021627011444440517, -0.02856797578043848, -0.019650907508730473, -0.03876901881760465, 0.03301554559110689, 0.14018086691274362, 0.14331889434174233, -0.029762268174583346, 0.031566999288448895, -0.10149533487275612, 0.11463321025369107, -0.008256340154554457, 0.03259350914839463, -0.021027746064366783, 0.05057493545496637, -0.048000677196153974, 0.03186797883099118, 0.032891547177122345, 0.026949234237272378, 0.07468176628610547, -0.0011087009841755267, -0.07284273749221354, 0.03753146190207279, 0.06933064452538656, -0.10609525068218252, 0.02982471441935944, -0.04913683398074582, 0.07084934017513078, -0.06465213751274133, -0.014291685805855363, -0.04752305176635755, 0.07078904325674444, 0.08476535620503602, -0.013859890566197542, -0.07373577301306103, 0.031623528955405905, -0.06656268511740594, -0.022574498568555954, -0.042829160071278204, -0.1024845404127814, 0.06602920256239847, 0.01829068185838646, 0.12335685511360017, -0.06330312086045335, 0.05765744591469614, -0.04290234529776626, 0.12809187817844944, 0.04332610140668471, -0.04729767579407862, -0.06900138319172598, 0.0024857700835712415, -0.03315963531488236, 0.030077963718160378, 0.06328214102547446, -0.0652625087367878, 0.0016469608876415634, -0.04537796332503006, 0.09999938887230014, 0.11903413725457901, 0.1677405667332286, -0.06532489642844862, 0.04279794430546974, -0.04595338221284074, 0.07924217156276284, 0.05450413737088569, 0.021361510480314035, 0.07263325033154973, -0.03150965001275801, 0.04574341029249307, -0.12257159420320277, 0.07747633629817278, -0.07481031818124739, -0.09558220938419722, -0.07858721807986885, 0.13889654824366904, -0.01282534254253608, 0.019485167851596017, 0.0822796345731867, -0.07045543572824413, -0.0010682465707533013, 0.062328024674854335, 0.12780983431611043, -0.032061929907036886, -0.0724927350599844, -0.030974338407155196, -0.09905200547289135, 0.039656047357991754, -0.014336087342411319, 0.08533687239812153, -0.0933759026181255, 0.020172479992219373, -0.029446811977030047, -0.06036432119934744, 0.01560884921713459, 0.014040489712700088, 0.04895336564025133, -0.052984853725837444, -0.045833276948137124, -0.12528139323262896, 0.041379457605593695, -0.010717534724535878, -0.07129970337024887, -0.017987140048414823, -0.026242065911835092, 0.0893372410583716, 0.035957645690781685, -0.027449956223802197, 0.11541540273669246, 0.05082951480025603, -0.015278630918812274, -0.05083805513052266, -0.08008760471275882, 0.10750873110661646, -0.013652528683871111, -0.033076161124647833, -0.04593971292936415, 0.09570393410333479, 0.06937136078702226, 0.027208852805870227, -0.1203772058716489, -0.013117632929710799, -0.07685000159177006, -0.07517169685983774, 0.14600175949849234, -0.10969616998243265, -0.05590350456878693, 0.033346082205255936, -0.08553141716053697, -0.018475654081674182, -0.019148278641269032, 0.022432880667330887, 0.025421051881796664, -0.08232494759512124, 0.08717190386686027, 0.023269789864326967, -0.027221707084025187, -0.005726494336288348, 0.015859434616134854, 0.12000267314216972, 0.06806493613895795, 0.0404790633593671, -0.04246074021747427, -0.017567348823899834, -0.042382531146841276, -0.008173249982206969, -0.08934530308482021, 0.16990617517120749, 0.03663917363262877, 0.08632657952651786, -0.00844203716697027, 0.061985208568494495, 0.07161363774729385, 0.04553219846645064, -0.012357892334477344, 0.07814910264719144, 0.0936452465688111, -0.0236849653105149, -0.0561038654930773, 0.0597569276954133, -0.014300774245521456, 0.03860532134293445, -0.005945347943738068, 0.008488715296129204, -0.04313731872663252, -0.07693413262752895, 0.0116044017094257, -0.07419907069084443, -0.08832754540190067, -0.020065228231837696, 0.03784598118534578, -0.053318116303013564, -0.08661481231516698, -0.07879884046829026, 0.1498213485847098, 0.005712539127044362, 0.0016164536104778626, -0.11034606806688149, -0.021535191845781357, -0.07035203860135741, -0.053624229166123374, -0.11061127216978278, -0.06148221363831956, -0.1051308713242427, 0.025715039438456894, 0.00464646477501847, 0.06852971957066946, 0.013358440356522625, -0.009462730669288792, 0.04159031272971761], [0.12226406290915116, 0.10143175376988459, -0.049983589322288614, -0.08642542684453351, -0.10618685940215362, -0.006691763048743356, -0.02110750462023341, -0.051657306625287974, -0.07568812515598605, -0.08751407524512002, -0.04807851160304229, -0.06244403092656601, -0.010673501072934348, 0.05308265252779196, -0.09205953105872049, -0.05519228781528657, -0.02671816588007482, -0.050774401252856635, -0.01225236019105734, 0.0408049804449002, 0.016109147431977434, 0.08582344824453457, 0.15403313247935826, -0.07854973106883843, 0.16986030398507557, 0.15563974911075332, -0.11202470647367052, 0.03544445489737376, 0.1068293861379453, -0.058319864808624416, -0.0938796301852682, 0.034237385580282775, -5.038695841552619e-05, -0.0377514744391944, 0.027405252176110523, 0.11257662268391536, -0.017077957484398054, -0.09351782587257826, -0.008316225761972287, -0.10876694499526068, 0.15644432522786597, -0.10679519090522172, 0.005706854121424637, -0.1021067191833906, 0.0025548342889659768, -0.04406158636106906, -0.035113042003723616, -0.010448292971624657, 0.015000684578330476, 0.11716271138490127, 0.17016805736267812, -0.018736798493686726, 0.03479587280533494, 0.1048070309616418, -0.028328796493874014, -0.008457152092066829, 0.10496014510141322, -0.0005753463996867683, 0.07507289266303374, -0.06722646205041766, 0.01863803040642423, -0.04630211422232875, 0.06492170264665255, 0.04267115504698051, -0.0072809328410885134, 0.0690078096192362, -0.06778808519039356, 0.05406466962610924, 0.058205803678897106, 0.1685304463449752, 0.013044002072486776, -0.007408291620249915, 0.034071892120608155, 0.044024573827040815, 0.11421215742108239, -0.053120285327447433, 0.05735753130363429, 0.03471098121274351, -0.00035472780698800555, -0.09157171949407901, 0.020919750427914968, 0.01955219271400871, 0.13287165238134216, 0.02818357179904273, -0.036793822436605735, 0.0867880210077226, 0.11207528882306472, 0.12199063455116124, -0.04751044378297706, 0.01904884487895637, 0.057740559412383936, 0.01886608595292586, 0.0901991434967859, 0.07308105409429407, -0.03605744669697019, -0.07168649264047157, 0.020137788084556883, -0.0036290879723835452, -0.06025485323469318, 0.10661105434431717, 0.03688448216476378, -0.14552087894787766, -0.020385495918946353, 0.055651083105017506, -0.026376403954178455, 0.06934434816418814, 0.050366800911934864, 0.08944378428838486, -0.04057732272933349, -0.029047047344779066, -0.08837947473396734, 0.11056547731993545, 0.12553155607733266, 0.08428187769929968, -0.05463534313254875, 0.09540901208558278, 0.0446497100760941, 0.06168790986734841, 0.1570338424152776, 0.06399445604744644, 0.09111537093700983, 0.1169268016339589, 0.10370025245168984, 0.10526992272803572, -0.03618582412504786, 0.01703548686741695, -0.0662250071580016, 0.10433937781398421, 0.012483115714262555, 0.031131977409828697, -0.06298357898394231, -0.0450427529795284, 0.08907033760287486, 0.1437664814602477, -0.06925990131679192, 0.012298006936103724, 0.04067884075736933, -0.06370913930089092, -0.0584167572637604, -0.05575799833235608, -0.06095060458430193, -0.0011293386394205004, -0.02603090493182085, 0.006346983856327919, -0.14121395932880598, 0.045178819827688205, 0.00783785856333683, -0.042283298829882, 0.019568655390085427, 0.1596906028676671, 0.11373556867668459, -0.006199747846301577, 0.03485272408692477, -0.054366386992874105, -0.01144621374883488, -0.015868570698034854, 0.13293774373166847, 0.1328251952501129, 0.09512628504087994, 0.025218970582415352, -0.16827326743709192, 0.053969585696821365, 0.0133441060636904, -0.15602187779299018, -0.10311597371840645, -0.014341523356154, 0.09237489856086437, -0.05394752153122495, -0.14655983743005116, -0.04751723201320674, 0.044893407530895005, 0.03479227213134774, -0.0029084944064372326, -0.12717470970481534, 0.11597858548189868, -0.14151461021840336, 0.06172446326527496, -0.08760448563592936, -0.07629739013504143, -0.022826486799160856, 0.04206314880886495, -0.05241091895679246, -0.05466017848101416, -0.08071731165620287, 0.00547425400644538, 0.021809538159011984, 0.11100107777371018, 0.10222416781728143, 0.13047608879847394, 0.058431870606102346, -0.012281781475175892, -0.049426271462770524, -0.1096356774251796, -0.020081235830303464, -0.0024038903930100313, 0.11732524260704758], [-0.08025108827436357, 0.003962499872909038, -0.021672472087113107, 0.02568428618274779, 0.023992774153654337, 0.008874175564168077, -0.04049258659223229, 0.08570328522522719, -0.1436530279104592, -0.07803522138854128, 0.012073874465342084, -0.12245393441612998, 0.09041501349888008, -0.04588838114023791, -0.020756425370775624, -0.059349980475725005, -0.0552489858211481, 0.04576589834951797, -0.025792079664907513, -0.06556200006853766, 0.06489289458254666, -0.02836608238354502, -0.011030651443207508, -0.053110685398578515, -0.05954213387303044, 0.019642297863931797, 0.00880567597146232, -0.05082284317568114, 0.06724483568268079, 0.03299891801275354, 0.05863507496347657, -0.10737628137384393, 0.048637780684322306, 0.04979069249048017, -0.12468029226316486, 0.022904619101622746, -0.0063107746851739244, -0.07289715680815259, -0.07728814129721923, 0.04275712574611631, -0.020602526106046782, 0.06790359818075835, 0.0206431532108505, -0.11926661375210261, -0.10343292493764214, -0.1124472817475956, 0.06910203550772313, -0.0196472348810622, -0.02221833046430721, 0.06560284896979844, -0.030752257211304236, -0.033161932570747045, 0.04930578116813592, 0.044178503827143105, -0.05259838449401378, 0.066973353512567, -0.005645705365112422, 0.10495093024316518, 0.07274316721795836, 0.05297558680906923, 0.06532437592802881, -0.08141016800984148, 0.00628270593803681, -0.042886806049413, 0.05516756565205275, -0.02603548699167896, -0.0009939440337899351, 0.04340984993277627, 0.004712812513913055, 0.13898693024893757, 0.003867470246819318, 0.057399112795270456, 0.024779101204006844, -0.006529177415415033, -0.09099376502968262, -0.006140867762342382, -0.03687622744256721, 0.061970301976540555, -0.05740862339511228, 0.005419849837842608, -0.02462850577660221, 0.03436860070859867, -0.007977793293246268, 0.09010628865169135, 0.00040598178466041924, 0.0646618523933843, 0.002471355423898074, 0.027290886181347375, -0.03418875793181094, 0.052531207015869455, 0.07906916150300776, -0.012707217426379591, 0.043548768009119686, -0.005140046436227072, -0.03877634428675027, -0.01521495900298306, -0.08259238765209667, -0.043968880212786755, 0.04219030898210194, 0.00880253260148204, 1.4818721946154982e-05, 0.0016578710433755798, -0.05024857787916826, -0.12595254676533352, 0.043626127177193254, 0.0826173496514259, 0.05998338547700223, -0.07171218422709304, -0.039993331572575, -0.07170128555674671, -0.04066823842192046, 0.005828424712981701, -0.038381768451552445, 0.019554309615207096, 0.021823181533843355, -0.014751548817655285, -0.050926354281552386, 0.07839174966669742, -0.08126320493752177, 0.03423540592910893, 0.09122795904052353, -0.033082714296343824, 0.04306582929691588, 0.03186358768281471, -0.034686105550454024, -0.005181246083725072, 0.08155497974766307, 0.015398344263760248, 0.09334593806580949, 0.003304237569221377, -0.019335806785238118, -0.041086429968427755, -0.06492866722520133, 0.004220895710172119, -0.021659612089703545, -0.030996604093712816, -0.0364090168446304, 0.0798612820707525, 0.08963748328260263, 0.08243690456330412, -0.024407193786687056, 0.042839796946831744, -0.040560945894737535, -0.013268529765164372, -0.0725565929410416, -0.01616395535380943, -0.07923127056387085, -0.0782747271265134, -0.0813152154152838, -0.19059917406900073, 0.011758207311823301, -0.012355919659934352, -0.027006032019576395, -0.12569522505932895, -0.08535685741236433, -0.01465570574455801, 0.006312763006442652, -0.029530936424585586, -0.1359222462918603, 0.02643447747244441, -0.00991340148099473, -0.07364415507834933, 0.01867762707858557, 0.03348028650564053, 0.07488467612794002, -0.14576843646352564, 0.043138520781953626, 0.050554319231723384, 0.07075499981783444, -0.026210255962628503, 0.02946624422247544, -0.12162117417499463, -0.12261132024096015, 0.08515006000907728, 0.03668214156115985, -0.1596217295718343, 0.027947015817597416, -0.045212580281684935, 0.10398634801994874, -0.007451100972103668, 0.08215629153361631, -0.142290437197339, 0.0794532543153921, 0.0022549485712707986, 0.048314775043958494, -0.09664163736677148, 0.07958165088938844, -0.09464066304040687, 0.10220582078907721, -0.15087930554929482, 0.02978519072673726, 0.1131592123664821, -0.07104912628869162, -0.06418910837659315, -0.021226291431072665, -0.11252265694856561], [0.10595151293783926, 0.004448005786780959, 0.10238365573715799, 0.061252637681942515, 0.05743434266912145, 0.044439390140901674, 0.008594462492381523, -0.06713865563154625, 0.14246040031222215, -0.1625393174474944, 0.10765002791659344, -0.12316136963365444, -0.10378033836256817, -0.019244574286532038, -0.153103538550504, -0.02595477447180747, -0.003768850548895952, 0.05657167876011898, 0.009952289078270655, -0.08438484861198113, 0.029711843239632173, -0.016167165494561625, 0.018241822635641825, -0.0864651913527049, 0.005216245309426936, -0.04873683949277098, 0.005025376968615423, 0.041103381260640344, -0.07647284108984047, 0.015661221461794737, 0.11876601880609687, -0.0282619883041209, 0.057115988621953086, -0.09365680425115244, 0.045471852969929186, -0.04563154349408066, -0.06182529238187471, 0.16780069751667995, -0.01918632423789128, 0.007052961984460582, 0.017483444744518465, -0.08172059257839608, -0.05520305141195479, 0.06744539747134058, -0.049582444735599564, -0.06959846375009551, -0.08164913024111514, -0.027205818179266983, -0.09165060941258431, 0.04258042439306107, -0.01823319498008212, 0.01935152189967221, 0.05274361958487042, 0.004451079223372478, 0.0517899647369934, -0.06801270335257857, -0.08234787612902011, -0.0738441575554312, -0.004456857544521173, 0.12448183252328604, -0.09637480193852116, 0.03204912602774133, 0.06287616332481859, -0.12870140512127604, 0.0076849044867804165, -0.0005070985484259486, 0.035086187794363496, -0.13423258948349992, 0.07344266432571869, -0.05310142905555773, -0.10854838206395245, -0.046242713901806475, -0.03466397591945739, 0.028488077024201742, 0.04852501804681121, 0.010342418179978075, -0.04130403150092469, -0.05675548637560979, -0.025338194937214044, -0.02421338080009908, -0.0066183245364770035, -0.0008402842449553773, -0.14952038693003208, 0.2095544426211805, -0.05118484055111109, -0.10054207331640008, -0.06685204968745923, 0.10494340339079829, 0.04936672180875568, -0.06011755283001008, 0.0619539492557238, 0.03552821601099346, -0.04892983112137584, 0.031587635320360574, -0.0562310087273271, -0.037073395502478255, -0.10328787520779104, 0.03226191840722442, 0.12341351669533798, 0.14698309784264585, 0.0783366987268319, -0.07713515735558275, 0.09065573686462476, 0.04730829309651693, -0.029368974634442845, 0.03985350940025636, 0.0720205184668771, -0.11224706508817235, -0.0280053152569505, -0.021368929506665208, 0.05095300445339439, -0.09337553024022864, 0.0377673586888754, 0.036381105737501314, -0.11263632526815981, 0.03043687381324675, 0.05226739105443385, 0.042933279407856795, -0.0006717127346523207, -0.08377725242976446, -0.01838853809187903, 0.09357108658446131, 0.0033821740995815808, 0.03679021276248613, 0.00044133159575325694, -0.11409044609342853, -0.10758648022488973, -0.0037395938575310026, -0.08876124875400095, -0.032788549351483766, -0.005405708419839815, 0.04763613688019248, 0.018858236122116, -0.056935257100339205, -0.00456913399792961, 0.05660088566042196, 0.12789973266767546, 0.047335242674517074, 0.03837468841016958, -0.10422576238522951, 0.043445057330809146, -0.12706341245590727, 0.06875415832023958, -0.05044467785311735, -0.0399239757818616, 0.03151435866350813, -0.028138990812723644, 0.06541546583173778, -0.004598770640649412, -0.0748817696110846, -0.011477664721932054, 0.039830491653547025, -0.0990742284794818, 0.0756418185405464, 0.1276320738388893, -0.04284757206458673, 0.0621304870387109, 0.07236050387377163, 0.01676845115910657, -0.04162267098103841, -0.15753198914209035, -0.04284167125727623, -0.06528511690932644, -0.16383600283381863, 0.011838954566800598, 0.023607694561559846, -0.09931101743354827, -0.06854006944068315, -0.005343806895880011, -0.017659138687197654, 0.004006826368657599, -0.12160227029082782, -0.14719595109521105, 0.12958800350887625, -0.12292756906346293, 0.04284586390851739, -0.04282449818243802, -0.0073747140982028635, -0.04852408829801429, 0.06159902988666224, 0.04415211233861219, -0.045076047976406804, -0.03312617061050954, -0.039730564535918854, -0.014502607160947648, 0.09466660028376954, 0.05531041049979048, -0.04186247733292136, 0.043405881163134874, 0.03506160280131412, 0.0003616702230247548, -0.07100596842309413, -0.023233746056654746, 0.0031307709613946928, 0.1012209295664975, 0.02158842812332074], [-0.016814750321235916, -0.09948186009509359, -0.026365428588381434, -0.010141717591775158, 0.14618273461433598, 0.037289595560070804, 0.004248655922657327, -0.03648492001363979, 0.06612808655526037, 0.06954151766745872, -0.07674054166342166, -0.0798571141044573, -0.05499770578979951, 0.006547029269203759, -0.041470299761420255, -0.026482944457960605, -0.0393393218217957, 0.008629658298986286, -0.002865792634185922, -0.02846453054999914, -0.09606351652109492, 0.014697565198407831, -0.11819951850085589, -0.11720198002781068, 0.06649442882785611, 0.0794748444789203, 0.04533990143756052, -0.029727469841042218, -0.005531216842830882, 0.12137314357776799, -0.03687523017390745, 0.017426885855215398, 0.0075263876534893415, -0.04826249445663891, -0.0711830469981032, -0.0072069633895057396, -0.08756532628331691, 0.10613625221945042, 0.07679338480923208, -0.04272609932616848, 0.02103700434121103, 0.1249307338456494, -0.05602854844847567, -0.04135045150511685, -0.08096687907668686, 0.05497479524775964, 0.09098985082034408, 0.04842689188759378, 0.0327757744701967, 0.14327850201545012, 0.02113091439805415, -0.07275666693369227, 0.07754513972154133, 0.10356420387603797, 0.007452769028536595, 0.008348125696706725, 0.04416654559933642, -0.04528481902829311, 0.016011147610123216, -0.04739225257228194, -0.08293543098619904, -0.025705823853357745, -0.011032022983930821, -0.06607452689519407, 0.045440329747883444, -0.01952234627645363, 0.11541791392343438, -0.12818147590981502, 0.028955891176374444, 0.03686577485913092, 0.0906528483518694, -0.09165480003486305, 0.029480110327539433, -0.02958799779839493, 0.004213293070481542, -0.038806685366542415, 0.08620601389530863, 0.06505898373827966, 0.05694561915233198, -0.04226301938589202, -0.08241543793282623, -0.07574960604479829, -0.06932933606544124, 0.059078051113622895, -0.00785269937527584, -0.012327598067082017, 0.08985413263239511, 0.10798067070630057, 0.04262019932845349, 0.12330389393920035, 0.08984763802924549, 0.07927536269714645, -0.10719785434650828, 0.00027204436019520514, 0.0654208716642137, 0.08842967652354088, 0.0039153562834285775, -0.02068978222296181, -0.011212493704443426, -0.04134965014503181, 0.05855608375087282, 0.036166065909552216, -0.034648078507506654, 0.021032933497042692, -0.027973211003680748, 0.04492052285988764, -0.10324654868260197, 0.0009348518803324085, 0.0035439394141342857, 0.07195161294842466, -0.0015143892733045234, 0.106338024402457, 0.11850596576119894, -0.09903482239316856, -0.01464210344509174, 0.0024995333122247313, 0.0016509099825820159, 0.005314157274260351, 0.12607618926488676, 0.04491473128030299, 0.011579254408156672, -0.11792990207437144, 0.020450284009416377, 0.09678880242612789, -0.040722572727692766, 0.016911312589186673, -0.05381953821659536, 0.06300335781165688, -0.11736129534043535, 0.09337241460990149, 0.07409642438859197, 0.034124144360595805, 0.004664921078432543, -0.03613642571263925, 0.04308749186387079, -0.004073641744600138, -0.013705641585012602, -0.11243695132316002, 0.05082224121904345, 0.09591905533879563, -0.044959364996306275, 0.06851694848103757, 0.05875679650039981, 0.10883303927949643, 0.12990089622997042, 0.05432159784470383, 0.03277507209952706, 0.15213119001554917, -0.048656314329190826, -0.04554233989398016, -0.005851707118709028, -0.03918210255875795, 0.0700118194485353, -0.10313932538146872, -0.02791989535461816, -0.0789536359279557, 0.005925473139744092, -0.07411962052996168, 0.12063630150806566, 0.04781585384169298, -0.058159610530609494, -0.006604660490122233, -0.02545562796794394, -0.10129906222664212, -0.12030900255616235, 0.050346285670680675, 0.06436776924824311, 0.011168411450092454, 0.09628798971671383, 0.05676183741377201, -0.14313968503645072, -0.10624652894671752, -0.05088111557627218, -0.08745038199707982, -0.05885686795162726, 0.06038821569736284, -0.08209389264108014, 0.08360368427153769, -0.14729788098623597, 0.13435323081237274, -0.032222169116247035, 0.03733686856311638, 0.01893408200345385, -0.009523257178090874, -0.0897638255076732, 0.025369100865752624, 0.028186304677585088, -0.01781865522751307, -0.022282306165375552, 0.1292754721487917, -0.02282943869038012, -0.11256842921162931, -0.09076599812576353, -0.0008118797911841197, -0.07471543952620768, 0.0663866454964232], [0.06638865083639066, -0.18963427144917616, 0.015097262230921935, 0.14404805592079362, 0.06806642228923367, 0.11550826824886543, -0.005342087359347116, 0.0036244250245663304, 0.004152122205503609, -0.07101113497164464, 0.07149721522023834, 0.06438716238485002, 0.00019695657922210277, -0.031246659473720774, 0.042939593543274396, -0.04691147766070923, -0.007265810941317273, -0.043470419610162805, -0.11764457202145254, -0.047022834766523754, 0.004902083446112909, -0.11437496808212662, -0.039351524589383846, -0.0021533075266584067, -0.012362267601391102, 0.0014674233726436668, 0.06216024328594159, 0.004823065261381868, 0.12086903103827429, -0.13424353448879678, 0.11857795495937073, 0.10724868488383146, 0.038905851788358495, 0.0361913472993784, -0.045291788676837676, 0.038883205575278544, -0.005429633943559326, -0.008108677827678363, -0.026803441712909954, -0.03229101732107382, 0.082943223755157, 0.13497344750497142, -0.008888605546672083, 0.040885683634503955, 0.14859360140586536, 0.024860894203477153, -0.06457569380452899, 0.043390596780717695, 0.004569530793759652, 0.026544574412759203, 0.008754074049671063, 0.012596855403497136, 0.027228766038425355, 0.09456413403703726, -0.0062366602716590735, -0.06169508134769053, -0.16063889340376478, 0.04516504633377877, -0.07058442104587237, 0.13737331851980084, 0.014454311908271004, 0.09007688439559042, -0.00473927029871937, 0.06097245002118444, -0.09942024309988336, 0.16117768074025413, -0.0934206027368803, -0.04650905356402024, -0.06523140844938498, 0.01831049295339014, 0.08724024551313538, 0.06577378092829318, 0.028599586994505276, -0.1303568563239382, 0.020233551158372443, -0.026122406328035086, -0.10377589862543658, 0.03149972315238723, 0.04233863973252298, 0.003407092277928682, -0.14698958082899696, -0.08749373661383063, -0.1900796918255864, 0.005417807156376232, 0.08170723386076899, -0.044963735846146394, -0.005407702430673925, 0.039301446449069646, -0.0648207448751716, 0.06644764330123758, -0.008938321654604023, 0.053401765401819075, -0.04643485649179521, -0.15973615952309453, 0.10755261355305261, -0.05674796268646521, -0.0485882626170876, -0.08250484424630812, 0.14143813948834508, -0.025693002468867503, -0.13343435151026897, 0.02595791199230877, -0.07527163764870809, -0.03747024554595249, 0.0037904642332770447, -0.0530077205758932, -0.035927238882598724, -0.05729357705099778, 0.006264422246755609, -0.05799272547922826, -0.10964104661075391, -0.10528128960811071, 0.06583589026737319, 0.10598821061060584, 0.00393952333968003, 0.0033350970159282296, -0.04851576643741008, -0.06099642577944865, 0.062286483945930934, -0.016343746204973003, 0.08503831854542777, 0.052221300191321283, -0.007664424195946989, 0.03975468421609877, -0.051033519634960695, -0.1272089061351793, 0.17703255902058987, 0.03818718197081871, -0.015315686723338884, -0.10351795772314412, 0.0698842039741357, -0.01685863096292201, -0.010063703358383745, -0.03408301275098337, 0.09688914405978818, -0.021894394536152346, -0.069165430644196, -0.010951203498388726, 0.015506579845281218, 0.006959847033383812, 0.13809564090540263, 0.06233258192001003, 0.0375194581738927, -0.06168372609390841, -0.009178521623851011, 0.01509583171243899, -0.003045549933392577, -0.14281723571816748, 0.04467658820486242, -0.1157180049204571, 0.09545370919742696, -0.1078688365973507, -0.022610203718264974, -0.03547398680924656, -0.0676700856951477, 0.03189023148708968, 0.044231591976132016, 0.13266191912894973, -0.0055217080280415476, 0.05843342962023903, 0.03616486921436475, 0.010630421453687675, 0.037748490564644833, 0.02625228391112184, 0.004381684875723613, -0.048603414457813715, 0.15279769887168268, -0.004023015274407334, 0.07284463173632882, -0.035023633899021404, 0.014891642448711395, -0.012853035972321732, 0.045878169578648056, -0.015118485020141355, 0.03601646262610722, -0.019558168517139735, 0.011760444888628117, -0.050647884222351225, -0.10149253427177685, 0.003977548861775473, 0.041318462417579964, 0.06807841421624627, 0.1310607081175983, -0.02117690299718164, -0.09393512222389781, 0.033022959641742046, 0.16847957799440647, -0.04001193808136007, 0.046077795632896046, -0.03175399360273462, 0.03565958610159145, -0.04790788352401538, -0.04078086135531091, -0.11924200289958331, -0.060028569200359636, -0.029555480958572036], [-0.046280105178392004, 0.045846221656784814, 0.06837188528407978, 0.003634984670837876, -0.0728967128899758, -0.045297680299660865, 0.03523106592422106, 0.00950928666760304, 0.022063334214386405, -0.07451346980425813, -5.949940835018683e-05, -0.05751336872559202, 0.1438528204108053, -0.1365477246768718, -0.1268273095885975, -0.1654168416888854, 0.10386203434356069, -0.0641951726623071, -0.11741617667117406, -0.01686765242934403, 0.01883928274148544, -0.0127400097017638, -0.02458664953999801, 0.0363163978365536, 0.07976980932638174, -0.0640264795131492, -0.05114524216541752, -0.04475047423850628, 0.08023125814535582, -0.15077938946426914, -0.08958697286008367, -0.04478977314937618, -0.037706735193107854, 0.06546929783432591, -0.04272468190916673, 0.04248824772323579, 0.02721814312308977, -0.04656523395087098, -0.09210384064731414, 0.0890150859656822, -0.11512554530104546, 0.1050329726686019, -0.04729454779604206, 0.13688882940781205, 0.03980874374512572, 0.020797175798985, -0.004222935908980254, -0.0362215776637722, 0.03659775960965727, -0.0698017891498315, -0.07486015498941122, 0.035965301819500486, -0.03503414187612367, 0.04379367489081754, -0.02424489215084362, 0.023821449330945557, -0.03058247172099298, -0.06665808062872568, -0.0006986276055874853, -0.012900323110636389, 0.030107101750639863, 0.021046635394152607, 0.027828961948915137, -0.19097775761689254, -0.05654234852461184, 0.044251324255791084, -0.06519912378245378, 0.07478871335326422, -0.17014379418316916, -0.14021921916535798, -0.08607539336695127, 0.00698070432666196, -0.0738436893081617, 0.15607709798011699, -0.12524783597599137, -0.08290421723896424, 0.10738280606050289, 0.06774276950589685, 0.00315572264673304, 0.008733754743736407, -0.0023918866638028943, -0.08723128790982872, 0.10477599226713535, -0.037961039989269786, 0.08409433137284467, 0.028569647906335153, -0.09303747554859274, 0.10610189511289121, -0.04984154020052757, -0.05276123940112021, 0.001384788184281592, -0.09584115102008703, -0.04615483374953428, -0.07522562688555816, -0.042739664844501674, 0.04797551416297536, -0.03878872217707014, -0.035766239572049885, 0.009739684311384502, 0.11181977022116923, -0.03354606549895306, -0.11859053331296418, -0.12819615517278096, -0.037556112617932645, 0.06480898561189738, -0.08676442125560864, 0.0481427189724022, 0.12307982415875256, 0.026930030710740186, -0.007526063971483449, -0.03064157042872635, 0.03675766411886019, 0.07100133188387331, -0.020518905702351327, -0.07084938888164953, -0.11500348745819583, 0.161723562481652, 0.036428199627162594, -0.1695129035235983, 0.03934883224899706, 0.03018217302503421, -0.05274327549258738, 0.027100481780937047, 0.09152898633664741, 0.04174649194907379, -0.08733279556969485, 0.0170924974811601, 0.0969970100742406, 0.0940626665056337, -0.0363504739649932, 0.07226414435815591, -0.033936579584059635, 0.006045653987942811, -0.03172106393599281, -0.0018051222311485063, -0.02319443277186978, -0.003979106825444423, -0.044770022397639886, -0.08603376438959766, 0.1123586224281964, -0.09530858091473204, -0.005048023171146686, -0.19510521927038693, -0.026412667971209676, 0.0844314280623762, 0.03883461273831253, 0.15580486775203944, 0.09850933791194146, 0.05050817375761468, 0.03184639869468223, 0.05876281384504354, -0.06577439227265694, 0.08584761716210924, 0.04587912672512586, 0.039498876934752514, 0.052487386362913016, 0.04110297121706158, 0.007005630310830353, 0.046094965473805004, 0.033267946941371786, 0.08820755561028058, 0.0031376067423903036, 0.05042359652152645, 0.09623193323410856, -0.12967039945929848, -0.23258980977882876, 0.0033970133042453957, -0.08323705935987259, -0.03002766569632751, -0.17725810201306974, 0.0292763990722328, -0.024520532105315313, -0.03344580622655804, 0.043724757405132375, -0.07408618532533895, -0.06946571387382716, 0.025810593045618273, 0.1272092024792223, 0.21855035966368228, -0.01136732179303895, -0.01253404123489288, 0.07856861107901637, -0.05002783322506318, 0.036526172829695676, 0.02831807082232556, 0.06999719472633213, -0.11269283546940001, 0.11992733244439849, 0.08494873450330916, 0.018327250284210846, 0.045614632066103535, 0.04825267804227546, 0.006787499792632549, -0.010539137658299681, 0.036678056675749936, 0.08572701653088527], [0.08842713032380052, 0.052414110918520516, -0.148441807562396, 0.02744781949821401, -0.00870648022611098, 0.14238848048601951, -0.1385854968607141, 0.03877284988941805, -0.11624261096444052, -0.01850775258041071, 0.08602427606975885, 0.040546283755771566, 0.03237280839400499, -0.08006763181219921, -0.03182453967181626, -0.09337523375707935, 0.08454683542736391, 0.10283291191736581, 0.013292182412404846, 0.0372506129953189, 0.08079329078060561, 0.046284264592538656, -0.039560889824135644, 0.05996337567739046, 0.10406252142013661, 0.03345844382020175, -0.08424197155341333, 0.039893154611607876, -0.007336036149035377, -0.09761741592503227, 0.14706959291532762, 0.004415233998925305, 0.026062057491619387, 0.014913482518176072, -0.11684681437386124, -0.07668012401867473, 0.060043086793721834, 0.04690117174120384, -0.09191182183533726, -0.01991193264666266, 0.04179394600930086, 0.1738829689797257, -0.05795881936886522, -0.061941662176562225, -0.20616149593565689, -0.06702035505943184, -0.06825491366458485, -0.04752291147679484, 0.01113602509925495, -0.07364477616406567, -0.04781288661460589, 0.045676822048431584, -0.0390657351888078, 0.10919483231615996, 0.024913632419351933, 0.05020555305716801, 0.06376106603443325, -0.11700891903280475, 0.10603929115794335, 0.046271027140887544, 0.07583383584564961, 0.05182087592713629, -0.08042818396667938, -0.09630347470998919, 0.07237698481891269, -0.03405015948428095, 0.08903573494658604, -0.00489050891752534, 0.0025774295895686825, 0.02656340631767214, 0.08929375665184543, 0.15796985114397605, -0.005693482489763794, 0.10489575935606558, -0.03065033608818908, -0.007635160239479508, 0.030315295441867268, 0.046842426472874045, -0.04613711726554305, -0.14145663122406008, -0.23793711388416489, 0.09388928430223327, -0.013205122190439358, -0.024857492708384266, -0.03739750559768041, 0.004290150181259382, 0.0030065869155012697, -0.015247933534757544, -0.017282987313989157, -0.07686717268072624, -0.011230448877614202, -0.06128586819928, -0.02490707401915143, -0.05538371018719056, 0.07357421518418993, 0.015466301422335908, -0.08294651783718117, 0.08252258633917621, 0.037777270361236154, -0.03896217719337428, 0.1271520198416417, -0.01311774029922444, -0.07973677848210968, -0.029218300156741865, -0.0024938342378147543, 0.0798800531432561, 0.09820088174031538, 0.07649231877880357, 0.05492272213766594, 0.059675811290369404, -0.046239475216431805, -0.1358428661369842, 0.05094847208287216, -0.08252514918761933, 0.0621070139321891, 0.041462861172713764, 0.03321354709168931, -0.07804030977916476, -0.06651834496913549, -0.016720204893793708, 0.07963130023801673, 0.1279283656112264, -0.009313277061057255, -0.06579179419210114, -0.0015033505949513847, 0.012474026413370186, 0.012225948067040015, 0.002148361027313512, -0.04112547155482951, -0.05707008975239159, 0.11552019567829126, -0.01952455246742408, 0.07138425222141852, -0.052821011436145614, 0.010592228624184286, 0.008982596415116161, 0.04605394768477257, -0.034724878021490484, 0.059884002555608065, -0.07968415152798507, 0.06771434099242557, -0.06888816474623233, -0.011780948673339488, 0.0809605477042136, 0.13932899364796814, -0.09804123850370942, 0.024543639086348948, -0.08135617469903512, -0.05715853510215052, 0.12118961917766104, -0.1813613777878014, 0.02500263236403281, 0.015929830189565432, 0.04687956277059132, 0.05514141962008981, -0.07440859269312526, 0.05763127185634882, -0.02307022515713785, 0.0022202418818948384, 0.13684690731699545, 0.14925045938299764, 0.013595617178477343, -0.06010844525188763, 0.008266190610369869, 0.09101528757135485, -0.07338800607508691, 0.009534719474318352, -0.06974092457436087, 0.09259454627252524, 0.03824412031568467, 0.03373118809526219, 0.043316813478775106, -0.09563158413952914, -0.06277628014856784, 0.04976045085054813, 0.10412049324671593, -0.009619093428276377, -0.07035769335698257, -0.029465982300578262, -0.008073378778106837, -0.012344668651278392, -0.005243595195255566, 0.06102669815770048, 0.08857663673617915, -0.06935593787982991, -0.05488068228617688, -0.1480307131016401, -0.088276143886073, 0.02503858120215209, 0.08550845481246834, -0.21047956560929743, 0.028996112297110372, -0.04141990440674625, 0.047356125689958374, 0.004012746329228319, 0.021471247881483357], [-0.14433853711251476, -0.08313879537034166, 0.04683181060332645, -0.03138625972194888, -0.025376677152379054, -0.07378876166752538, 0.17371409882712927, 0.0009004375013404832, -0.009849702932788477, 0.08225543070336272, 0.049103950874866936, 0.08494610521638872, 0.08289171480736508, 0.1656784221813602, -0.013468360900267581, 0.04347109877260974, 0.05665252202366474, 0.04831118987229913, 0.0036239154280025914, 0.08270589879915578, -0.01700274244839604, -0.10370605424155838, -0.05260451882846985, -0.058463319359632414, 0.10435359461364568, -0.046893833927158485, 0.08544450034302548, -0.13863156713007244, -0.04473251370954707, -0.08418427168960775, -0.12890289149010087, -0.08550552558648601, 0.03333388438911416, -0.09815499135266736, -0.10339403922558049, -0.017376190211717754, 0.047415114885967946, -0.020574829307339924, -0.01575556321740984, 0.01631401904725957, 0.04328457377105414, 0.07958092830156774, -0.04551435459510223, 0.05871938026490004, -0.002038855231374689, -0.0874665460690274, -0.052261266236846605, -0.1828766763386375, 0.06447105570684922, -0.0183171796151562, -0.07495422045831861, 0.10181514216494426, -0.050375487359308, 0.06336485356238704, -0.13491527692854702, -0.0606760083001451, -0.0968422534910168, -0.030714415799354588, 0.01812853040762383, -0.05099070111509547, 0.04962277967502439, -0.08163644906741162, 0.008447694687230134, -0.03671013271005045, -0.02354607006421407, 0.018471819507614992, -0.08836615270293516, -0.048223099095728986, -0.02202582816151176, 0.04640513020189604, 0.02036351750641114, -0.02759641397888339, 0.03316294454493305, 0.04101349085155075, -0.04550937630214876, 0.00096751473533862, -0.05472975910849537, -0.04632702815334129, -0.05290260959954733, -0.11114206654064775, 0.11221535924933672, 0.014714439586346096, -0.0189053400722131, 0.1627144584494206, 0.017038505928654506, -0.02970051454592368, 0.03449819534182527, -0.03801540112726762, 0.0072183001552938095, -0.12582352803972108, -0.008272112185016412, 0.015066029518005623, -0.077400787068869, -0.030649155849145605, -0.031159987325291093, -0.15260833618251546, 0.04646413353058258, 0.003388369163451935, -0.014480824831404091, 0.09222711757921194, 0.010618943117285218, -0.03650429817669605, -0.012745904754881946, 0.09700100454084107, 0.0404051515488278, 0.021530670478538017, -0.03112294662835697, -0.05917997804172001, 0.021955545873244223, 0.03446564152742794, -0.0005820521196825664, -0.13414017729758346, -0.011320666982084265, 0.07757226254996469, -0.10610193649022875, -0.13856625530452604, -0.018173306894645892, 0.0963684278066389, -0.0208317371859025, 0.0756426058770017, 0.035394340468009884, -0.10447548923497729, 0.08061937305384366, -0.21832094264802848, -0.010359986547531877, -0.044649910157326125, 0.09356513934423558, 0.06376888544160243, 0.10942711594865881, -0.07827297447615628, -0.037516806678153936, -0.015286198440405865, 0.01012061019833087, -0.04236102745428508, 0.12427889580069042, 0.04421672986618061, 0.013351376160457035, 0.028774764256667217, -0.08982877176554971, -0.0705643259525522, -0.003200441099329798, -0.06014079757897221, 0.024920692593000494, 0.09802071771585003, 0.008773439621766528, 0.09975856138613708, -0.041490203058415935, 0.0710813562459551, -0.09621278873026344, 0.005091404056841234, 0.05522987747649301, 0.06618504899863344, -0.02358037208942792, -0.15691314415563398, 0.09521747386583514, -0.05134825301270405, 0.06275112182453288, -0.11954823733834558, 0.07111565049488146, -0.10035108304783832, -0.0010641789764957224, 0.00750770107109749, -0.05057037129905173, -0.02801391155914441, -0.027659896887650186, -0.03665543070043847, -0.0059323713182887075, 0.04342406180657412, 0.033582498256373106, 0.14719493292305344, -0.0005859961087726936, 0.06731705655664227, 0.06683861554405146, 0.02182184069192134, 0.03419744486337461, -0.03769476917137929, 0.10283430710415749, 0.22767540693035557, -0.12678845013231985, -0.10460950068927005, 0.060202247669545725, -0.03813291460812773, -0.07832911566624974, -0.00820211799651521, 0.028819572785084475, 0.02630416361129196, 0.04468987002199458, 0.030850892491007285, -0.11492419614056024, -0.028048167972382923, -0.12707673792992888, 0.005676021570123599, -0.08214574283968495, 0.12093590387586066, 0.017517436929870327, -0.03829152592753607], [-0.06133155673415772, 0.04208308450066647, -0.033720949607375435, 0.12538017769702509, -0.06589560273472063, -0.07635574687549566, 0.02464439357394083, 0.14386448233205137, -0.04442900888792613, -0.002152049333866149, -0.08205273316983014, 0.01679850798288438, 0.09921843645459157, -0.009057398685536627, -0.004501432474169032, -0.02108573991498507, -0.09168926283822323, -0.13290098672036157, -0.03276824833754815, -0.08475644567627362, -0.08080155705576697, 0.02271231303924951, 0.011206051563160555, 0.05555941818573915, -0.03335901698093311, 0.05969225054327712, 0.10512373302309756, 0.05079153601142961, 0.015181743045761425, -0.06860065538750296, 0.07767914127526433, 0.04811033493534329, 0.09888698550727916, -0.026356242540997478, 0.024447374209487893, -0.006264578930967911, -0.1438695737761607, -0.0340297802511341, 0.0733596363539259, -0.026171963412064524, -0.001651284381047057, 0.026252465208317498, 0.017456437254461936, -0.08888724242187439, -0.06935179698585398, 0.0027934198389150413, 0.15596806984522793, -0.1152216743653466, 0.07486795058180387, -0.020673841272239826, 0.054717290719980737, -0.05563083701550263, 0.029800485452972463, 0.008750835467110443, -0.0979714676786482, 0.002053720205211712, -0.003801024608733981, 0.019649273870351414, -0.023848072172164596, -0.06214943747766278, 0.026933700227672518, -0.008734309014822573, 0.036220251814834896, 0.06787104574953422, -0.10443615732411993, -0.018716049276537496, -0.002076337005918628, 0.10782460303263348, -0.1336996025510339, -0.04677081525437962, 0.07463340976166787, -0.0807345672957462, -0.012465708434539171, 0.05597601074580001, -0.0872793585974189, 0.06936279629413417, 0.010419381003682662, -0.051120725252716936, -0.11674646720332289, 0.051954098516581934, -0.02151604343178371, 0.0399749934767256, 0.11412455673582181, -0.0053379471662120615, 0.04120810547568073, -0.016435453558317673, -0.08193822943283167, -0.004165277554202867, -0.07432279890490162, -0.09282406329517132, -0.09204702337768739, -0.004080484718329932, 0.014275684620703957, 0.0854125660118152, 0.055996645852662494, -0.03444513756181374, -0.02189196913073986, -0.05820918462446809, 0.01598905451296916, 0.11142733334642654, -0.044420610865733214, -0.1092240573941082, 0.018377658421594324, -0.02207334446542716, -0.06151535408272898, -0.006514777810342912, 0.05879939280162368, -0.022844426769922634, -0.006141348968430411, -0.0006359014328378452, -0.015039179197314668, 0.037981631480668826, 0.026533072609547473, -0.051805063656304995, -0.03151653377528997, -0.021448597000702712, 0.014197914577269002, -0.001383374110833298, -0.07088355197439813, 0.011820703786076641, -0.04155077787912201, 0.025002094703294158, -0.03754474259813701, -0.041491031942513246, -0.10648848747231113, 0.03338371747069833, 0.006725038013163962, 0.14828037347806763, -0.05810016360115074, -0.05817016394754673, 0.037958138858215765, 0.1268906278183142, -0.05341076985819487, 0.06090572271606416, -0.03308554479854962, 0.01619685757097264, 0.05081002773968008, 0.03035290020257128, 0.08634934120754359, 0.03293625238528008, -0.019422413786745536, -0.07560597122729212, -0.029034252081915637, 0.03424933219315078, -0.07622041946020996, -0.07279518940816192, 0.02444816982387507, 0.022158129786183922, 0.019531176731958696, 0.011000678198416632, -0.022834265806455624, 0.004479039636232163, 0.07330777205356087, 0.07987160008703521, 0.06428911038776111, 0.04566162609199096, 0.022154647149205543, -0.004405918938809935, -0.03218089730941935, -0.02294881566314582, 0.05349413214312499, -0.02488016006762365, -0.10418680556135637, -0.010012299029386008, -0.0315562068848433, -0.10384507528731257, -0.07116997796864405, -0.12463477267502693, -0.06358020418696438, -0.02598482758708523, 0.12229423883300106, -0.03462583895552714, 0.1985355825425641, -0.03833501500040311, -0.02306105430314074, 0.13163169192028648, 0.0022690265474944573, -0.12893585913502373, 0.056119811252172976, 0.03043029768011585, -0.049007288136230766, 0.10294624166901505, -0.02542633515537589, -0.10255604954430635, 0.00956533561537088, -0.010947891535064645, 0.09248276894440928, 0.11733042437497233, 0.01871002554531168, 0.09984033203465001, 0.06235264306811332, -0.08267115703493833, 0.057532124425987846, 0.1666326214751817, 0.00959232463004346, -0.020289954624580303], [-0.04477328577850745, -0.08699927597422881, -0.024285182463802138, -0.12106757983186059, -0.03492500790946723, -0.005936272524946454, 0.03780465021932208, -0.14832241301481686, 0.013933478282929304, 0.09617478695097259, -0.03337982723641298, 0.12146050093016687, 0.04436169333470492, -0.08635381771343575, 0.02715641048520501, -0.01215288242680021, 0.02480638640154196, -0.0914823274038222, 0.0005057867071473714, -0.07354601886426843, 0.1302816754866274, 0.1012113011438209, 0.1416038407509969, 0.02618883676626152, 0.08238812610675261, 0.0616350939022888, -0.09481638257054964, 0.03829306292592606, 0.03026775667130835, -2.4091864380617186e-05, 0.06374218727837137, 0.055559146732946624, -0.23226814831975975, 0.1250008200829747, -0.0017491683990816325, -0.12630682369553947, -0.02053429825200684, -0.03183194729831419, -0.02711858124789321, 0.046114557127340694, 0.001160691773968084, 0.02514830819396924, -0.02013326713460938, 0.07488958232187527, 0.08724856242485968, 0.1777312574328914, -0.10302422010000864, -0.021104359362862608, -0.010842643617922927, -0.17613759357889133, 0.01770315948937827, -0.05864353618321949, -0.08108376864331535, -0.06934453385182528, 0.13038010659884997, 0.06444186748232064, 0.03837278322915566, -0.08379016966888224, -0.0036631137918980575, -0.036442380162093106, 0.018944927947951815, -0.059328891526285794, -0.01274406257742346, 0.1876715183788964, 0.024513095065289835, -0.029741920924627227, -0.0821736272792638, -0.07851267115880757, 0.14332709507730093, 0.10403204364490266, 0.020071600914736514, -0.11545880656293653, -0.10380885769595156, 0.08472673391694374, 0.0175501640487735, 0.09639328497279304, -0.07534825469265972, -0.12661281401870272, -0.07832994447897057, -0.07416241115392797, -0.047195345959746025, 0.04370212480073023, -0.02353594948116815, 0.12400501459176046, 0.11781659318588618, 0.05559041785791886, -0.00688352667874142, -0.05841614472349962, -0.030989002620804028, -0.10444427222523249, 0.12805350530161305, -0.09592532460100153, -0.07222653782371663, 0.009035427625332403, -0.04453103738696945, -0.011239267461850319, -0.1966963215932698, -0.08200698304135848, 0.0764888780915471, 0.013256845002841083, 0.000987550376698308, 0.051764776935583665, 0.06405398253919278, 0.022443896605661748, 0.02154505947508661, -0.2058297966979467, -0.06441055769382961, 0.04254510306757614, -0.001774036387001102, 0.11892630246815598, -0.05366148394532224, -0.011779602953801392, -0.02584353155633172, -0.03218845071868506, 0.02943218232272138, 0.02623003571044584, -0.015437508601776718, -0.036428555967181524, -0.07038552373314871, 0.038363966597164574, 0.1882429613972344, -0.09916571945599692, -0.20935142244024368, -0.014386574081277836, 0.04821171324901471, 0.03730757885897437, -0.04871800574174788, -0.07458319990666988, -0.01836051101168074, 0.13975231480732464, -0.05275712520538029, 0.1258166906787398, -0.025421744174912584, 0.05606766814264379, -0.11485429802899966, 0.13532979789450486, -0.08821260344754162, 0.027101372646200064, -0.08182471082833943, 0.0221474177470942, -0.0006990863209275662, 0.1193606275605175, 0.014469607387215207, -0.03626242135449475, -0.06995825933839095, -0.10671793211883154, 0.07442932974065322, -0.13340374251693798, 0.01995529001428091, 0.06888749312143742, 0.0871754522033953, 0.06081682883322489, 0.11354056785314398, -0.0341911863272559, -0.014798724260941656, 0.08840520642854015, 0.030631886154509305, 0.04004820994966168, -0.08206796763906697, 0.07020046340682197, -0.09667090562280196, 0.07611812553203334, 0.015232801386749862, 0.06827916820697544, 0.03597122499199543, -0.04148706079965663, -0.03796408367960626, 0.012273737019622104, -0.015257180658768934, 0.05151956350127837, -0.006068650540080468, -0.17654156722034187, -0.018883646512902214, -0.08494155686178499, -0.1417476033212894, 0.05132790162708265, 0.03383355621397029, -0.019249282393913547, 0.08439438776886268, -0.0902782642126122, -0.08813994178895468, -0.010855881855993135, 0.08240601233932439, 0.09360339504101961, -0.04179910199979425, 0.025829264568350153, -0.03836784591368914, -0.04431761764483938, 0.20631488965895894, -0.08924420218105818, 0.0406799515797503, 0.036437913555274974, 0.007156443777228981, -0.009449571728958318, 0.05444389983030068, -0.0382743275112707], [-0.01240141296848555, -0.030173743070059537, 0.12697666006678507, -0.007227158323765086, -0.016207493952300086, 0.008662649865669378, -0.01244204099398675, 0.0008465841004568276, -0.14095901225613916, -0.04002194239663903, -0.07843287306782666, -0.09073238123343502, 0.05575264771888134, 0.047221296427624945, 0.01240331792776523, -0.03551227645346263, -0.028174064226022536, 0.09645002032803258, -0.07503246471303245, -0.025331326765643186, -0.03171183811852517, 0.021733330518596713, 0.013860285019302249, 0.07503286297122118, -0.0716265674203423, 0.07784565099480228, -0.10387468092366678, 0.009882253730729878, 0.05310665744738265, -0.05222349047127958, 0.02704491580181968, -0.11696685181677209, 0.0036393318971405845, -0.0936894033453248, 0.008000688621881923, -0.02758729059878228, -0.04232383844186766, -0.030187146404275188, 0.02096317566830716, -0.03865898356413236, -0.0029495895778783917, -0.05490121667876298, 0.0052655255995793125, -0.02972016939780809, 0.00149265014113113, 0.09186593800440057, 0.041312160690521044, 0.12940748129902258, 0.03974314649942878, 0.017736586290051606, -0.011553860489765675, -0.06712575721368925, 0.053376934481476575, 0.169834619557349, -0.04559588763911513, -0.05459565043490214, -0.041926416923780074, -0.12639656789989728, 0.0063166968989092406, 0.08052595831320791, 0.06817970162935695, 0.022904223263776936, -0.18133577734095083, 0.10571384413590108, -0.03743667284848488, 0.12202953473481773, -0.117589699054134, -0.027185965819217943, -0.07436667876932729, 0.019870592127820923, 0.01074004298810604, 0.10539208306300563, 0.16409218148548085, 0.12380467643333878, -0.07099960540376164, 0.09685659559657515, -0.008343578378861554, -0.014766806440897265, -0.04858984980713729, -0.0753102364148689, 0.03799897093926996, 0.12888440368089069, 0.10011065706598202, -0.2211012280560141, -0.047197041455138374, 0.01419046112026466, -0.031063502003835494, -0.10333761074492988, -0.06076611029092886, -0.0007322537723736759, 0.01245412815968717, -0.13789475979680604, 0.0927875920004756, 0.01375550290543088, -0.007887745302092568, -0.059807953798229306, 0.053311842369856824, 0.04482295219717184, 0.11085699438567587, -0.1624054563390124, -0.08031484983276253, -0.0858068671469308, -0.0444682984442888, 0.09983090387713238, -0.06071944168544069, 0.0028822188794408185, -0.026395962840260627, -0.09072671164509591, 0.058326917819057994, 0.0953274773978103, 0.040905554966555575, -0.10723741156671014, 0.06791439178174803, 0.01031156298239419, -0.026297072083592332, -0.029526290351918498, -0.07314202463377634, 0.005944533240521047, 0.08833011199189537, 0.002257584236863109, -0.03925895549882236, -0.08061527082722797, -0.05741162348021154, -0.044100978800571296, -0.06079187519261205, 0.041489811137589684, 0.0741487063096822, 0.11777345323229693, 0.03451472465740614, 0.0033537672626528917, -0.014591655538002925, 0.07946973021185276, 0.028194569703669778, 0.015624722896847354, 0.06230375132043123, 0.021219469545080624, 0.09777194007117378, 0.03709757011872072, 0.0487950465697919, 0.03663962577256982, -0.09028407398839991, -0.1172596966051222, -0.02189419705280053, 0.04873883778972963, 0.029886685381775684, 0.059807944699488524, 0.12515927419787887, 0.07803455614068182, 0.07582398698142563, 0.01470480486414937, 0.07207091314625626, 0.08459974919178687, -0.009219967657446693, -0.00851368379944896, -0.007608849272274471, 0.06276383550227183, -0.048683770324584506, 0.07168446735362145, -0.0471608393745508, -0.1196712007579647, 0.021293291089325816, -0.08538274820101573, -0.12115218553408098, 0.0514386014444766, 0.13571765461587978, -0.021795428603661335, -0.05962927629051652, -0.08560063425162355, -0.03316246874825313, 0.0034433600118764806, -0.06711258685239424, -0.0408519449739673, 0.006927379930054807, -0.014905256837218685, -0.059964889573173766, -0.08915429758986242, -0.12394275959751373, -0.057746696211880735, 0.024355913857687334, 0.033166828516917685, 0.014879610206440705, -0.07685509918814573, -0.004240061615040811, 0.05070517033019259, -0.04764015679431159, -0.04354092640257267, -0.008821390307960949, -0.049731361520623664, 0.06400461451476334, 0.1223993538260663, 0.07863471799285474, 0.05211376284980679, -0.01865519351653676, -0.11534215815047437, -0.03715145823147129, -0.07695371990446409], [0.0022872376495503646, 0.19348980701048613, -0.04417565754536377, 0.10274868963291262, 0.09224305914147339, -0.052574049450164105, 0.06738608444611964, 0.07146773827139635, 0.05065308704650395, 0.0033485751799850042, -0.021518894781837817, 0.07238789878117746, -0.014444133242624786, -0.06486270604158245, 0.03178017976682138, 0.1537289014873431, -0.02513289350476063, 0.05975196531431382, 0.081989119543771, 0.034191582788650955, 0.10570250333265147, 0.006957955755182247, 0.05323142447412777, -0.02986593501841918, 0.0016249331430005988, -0.01113506528283554, -0.052873521057893946, 0.10415577313033572, 0.028005955910306794, 0.074666124012635, -0.02604486154389725, 0.019586503212719163, -0.04614041064528185, -0.0488605838582015, -0.03747718479152858, 0.04971609053668373, -0.02417108850645604, -0.06278109136781317, -0.08007919426441641, 0.05603062780648249, -0.11458153270149207, 0.09734363337831028, -0.17049950025831787, -0.029239872663521467, 0.02498597112513588, 0.0818778807931921, 0.03957996967491657, 0.036315603497864536, 0.05730457093697626, 0.0041798603415741, -0.04882243178402396, -0.03513384887512475, 0.0004913764390403099, -0.10600023555618839, 0.14822727796444313, 0.1043949552105641, 0.009038038486314763, 0.013086737810176654, -0.014376736273422166, -0.04132417009316287, 0.035462199976741646, 0.045902904788431814, 0.0024669527362503594, 0.11063495051896094, 0.13690600904106556, -0.015215623663301044, 0.009107299516891437, -0.032145353309562634, -0.09292269623698597, 0.028729164894449884, 0.07431205966252835, -0.05620960362306988, -0.039037184336328135, 0.003077676185031585, -0.057269921695419314, -0.09603420516844188, 0.03783565538562287, 0.025518385939827623, 0.05198146737245822, -0.09274671818269915, 0.014139738938255994, 0.13311983519459483, -0.039672306227722776, -0.005225730821683568, 0.029612263196432446, 0.04614593099032203, -0.008540570517279413, -0.10166028977589829, -0.14063694332403934, 0.09601945053283008, -0.03142950706549521, -0.11669748935995831, 0.11895565166625725, 0.07616720503683982, 0.016652055981818476, 0.03964344788451037, 0.015854634224068933, 0.007473111979178838, -0.104716184287762, -0.012124265810161822, -0.08209989754096031, 0.08655636889691287, -0.03795978581929029, -0.06028882106128965, 0.05104232132043499, 0.13120617745947427, 0.042927822261599365, -0.030416255339451574, -0.041772039831097965, -0.0392232739850235, 0.0683745384069857, -0.07615874418542479, 0.0021188724612358233, -0.006735601358605292, -0.037235938792012736, -0.02307988981532552, -0.1934621053512543, -0.02159904772571733, -0.040816872708655985, -0.11304161007267846, -0.0019069291030244318, -0.009194996785768135, -0.07542387285346595, -0.02010184767046268, -0.06272667066713844, -0.05533659141336141, -0.006209553333599552, -0.10381740238945737, 0.06720899589422132, -0.014895764104084308, -0.009047475021959697, 0.0464410532781291, -0.09640092152442963, 0.06309080961091228, 0.03179825248420815, -0.15187777467744282, 0.01569108432523751, 0.09145779902832478, -0.024251688435769414, -0.05609597606106933, 0.06699590992426781, 0.09420885410534427, 0.06905431709248798, -0.0278453939235987, 0.0031132921014881045, 0.0852734188629244, -0.02185640478435777, -0.004597530032042873, 0.05666416988419305, -0.021434140906728356, 0.0896881655988158, 0.024145029603924194, 0.09955189393859566, 0.04900473098067926, -0.08798679251400249, 0.05158075366375048, -0.060961654464911065, -0.10482937853871112, -0.08283197943615528, 0.012761602331627389, 0.06938814392064352, -0.0052461026981638105, 0.008401735962702422, -0.010761486366558682, 0.057319419872223144, 0.007079308033633219, -0.014996503132996131, -0.057331796987166596, -0.07029824425639468, -0.08453512196778208, -0.034836735231935784, -0.028612056668327255, -0.05056123617964243, 0.002957489941165895, -0.038742318314615, 0.09250212627245662, -0.011179935982042168, -0.17436060137716114, 0.09861091564339547, -0.014603915149581597, -0.0477613974921486, -0.011367993536977355, -0.02652407233576569, 0.02267732867008271, -0.024678512922200763, -0.04670701346954717, 0.24547284432347974, -0.021433816979476824, 0.09437756979975861, 0.09143510308451112, 0.18934472718667864, 0.041387916839260804, -0.04540451485754085, -0.1476277100364182, -0.05266713987623442, -0.005676919713781113], [0.05926914266238979, 0.06321853289725798, -0.09115751724152826, 0.0657078798490788, 0.01615267121811348, 0.0024919434067834506, 0.034162580770218325, -0.04098792517327866, 0.07149609468717938, 0.10191379482032938, 0.07394006203651023, 0.022280711474316112, 0.02214831113058522, -0.010378867489858097, 0.050175442451975825, 0.030495169674827377, -0.025268635337741225, -0.10116960910400967, 0.03075635841503098, 0.03228486512833655, -0.08297797851768612, -0.025389406617789496, 0.07052098047845612, 0.06709617746581181, -0.013025065971908861, -0.06701355103687673, 0.12813971313255007, 0.08974514891422536, -0.13589619392631264, 0.08746659554710493, -0.14582402053263652, 0.027274638410083357, -0.022391690880464415, -0.11922552835932879, 0.013290211696309968, -0.06193670961937605, 0.05430725733838867, -0.1994514613233626, -0.04730804169750372, 0.06030526702887313, 0.027879199847169554, 0.0072539011150347405, 0.04742178326315947, 0.1277857304386716, -0.01600102256124128, -0.025456913114964248, -0.04447544694067853, -0.1475948900008294, 0.02116874038199779, 0.055935635422663055, 0.05939269993352166, -0.05411913419126297, 0.006785138272133064, 0.13017622652012498, 0.02521505757271231, 0.1745423810846687, -0.012649590704045914, -0.043199262249529316, 0.11994273444808361, -0.012776763909763341, 0.06712810973956838, -0.028129759736013508, 0.028831939012468926, 0.11164423193854292, -0.054191350221117957, -0.14110160309362943, -0.14361584971247013, 0.007096531703991577, 0.02722990284004124, -0.09197185496871481, 0.07638172676980648, 0.19132571072194543, 0.03665641076590264, 0.012874267665093662, 0.052058579211172136, -0.0510252333652851, -0.004107928576449131, -0.08339896040470086, 0.035465330791284104, -0.014694396520713734, -0.0350823994691308, 0.008396207534189319, -0.04608842966575403, -0.13926970247826687, 0.02454838238676694, -0.01405978951977234, 0.010857048993002997, -0.029114386804767124, 0.08537729135424821, 0.017343505831893837, -0.027210300938866547, -0.053455608369363826, 0.08902497494336592, -0.02884175479632406, -0.05651342170206178, 0.019153830416482543, -0.006415196103592072, 0.0036172397696254688, -0.017247194415001936, -0.015215031920412802, -0.07700629033813294, 0.02170790633279512, -0.015437606893814397, 0.064356634747075, -0.06321008582262788, 0.008362026205298754, -0.027545392488504804, 0.009395656875883044, -0.01561045210335832, -0.006370654023157044, -0.028200157434650774, -0.02964094261106563, 0.01636564654434504, 0.012313116058190993, 0.07303112591805459, -0.08347334234998012, -0.0009502858400434914, -0.05655545917161438, 0.063193174498062, 0.035345519107531455, -0.027208027320914627, -0.03559668446829204, 0.05974793895196393, 0.10205429409195296, 0.09233625832432173, 0.05779524219757602, 0.06066396181333784, -0.020800808537726423, -0.06907259436375773, 0.06416563311230745, -0.08336551233692438, 0.02684404955344477, -0.005910833743712683, -0.07094648635800758, 0.07699515553051701, -0.026602033953210934, 0.0901418832338841, 0.11019780687915239, -0.020720187521396833, 0.0077403243577640005, 0.009864390324746238, -0.005767208592803335, -0.021675378798398568, 0.05587746544186338, -0.11972074487445647, -0.011383919918017744, 0.0881797023907393, -0.11815730237706686, 0.14394438204381374, -0.03294271918035756, 0.11019144382133708, -0.06467274507984953, 0.06011875006286772, -0.0021290924122313094, -0.012174814550131146, 0.016774366891517317, -0.004789776314085171, 0.012506729210712214, 0.07016700263162744, -0.020986109467690393, -0.02184666034475319, 0.08369487528942393, 0.014443943278022127, 0.002700034000637152, 0.07878530780374937, -0.008192780944408099, -0.0011774685337256395, -0.09534872349639312, -0.017925941128107827, -0.056791320216656976, 0.08249691128691765, -0.16211915227935642, 0.07292306101189895, -0.002700348981843397, 0.0026056248412692153, 0.02728726322289764, 0.002811655591472147, -0.03282635873226986, 0.11893210075557428, 0.04102166621958433, -0.06473109178614261, 0.047324309587134794, 0.03377161884712156, 0.030564853424435063, 0.058521728453074205, 0.050081333273615615, -0.07637707133791705, 0.08704418896621981, -0.04198665761723655, -0.02554287409290014, 0.09892173211847201, 0.11161396691693497, -0.016182999071635774, 0.10030780190141333, 0.046852321137521205, -0.08583130923606287], [-0.03095735185728288, -0.09499379022907406, -0.06935717047081515, 0.05287454648701793, 0.0075650300730171795, -0.04808267599959269, 0.12503819131503638, 0.01563368613709613, -0.08203513525634389, -0.002799480032862027, 0.04046274965803969, -0.08847801625068002, -0.0046951193229652, -0.016421904505238512, 0.08961133542361406, -0.10316957633739512, 0.0032170866576131793, 0.060930290656564946, 0.05406492414693812, -0.025207144618563347, 0.06986273334280259, 0.09695921667551838, -0.06167775218283979, -0.1517645323184423, 0.027577340864749018, -0.054760222748854115, 0.042687809510518905, -0.005273563776542618, -0.03108175712451161, -0.0007964013067944865, -0.12027131450268548, -0.05935205821281292, -0.05068470718364129, 0.052292626940360715, 0.05347247126144618, 0.09747577172175206, 0.0197751285064016, -0.011203889409907524, -0.060532394520536346, -0.03012909050839238, 0.06912323823854995, 0.032878418843913994, 0.12031358613619605, -0.06928403707702158, 0.06156462488639517, 0.04476273888386874, -0.05696543327516607, 0.15300344075524056, -0.04405132805919961, -0.004668627805487199, 0.07978532806181088, 0.07824628783992815, 0.11652302760629471, -0.051422155977217894, 0.11634468442512262, 0.14739735891173789, -0.010220936963492409, 0.04594880715202484, 0.0474936314194542, 0.046444288623796855, 0.0252065171981448, -0.020072647217521222, -0.03805050130791106, -0.2174851802658735, 0.06379131217474222, 0.010780204248636505, -0.05432378250567955, 0.15562918493688646, -0.01816752088272529, -0.05719873430994843, 0.04027314142222629, 0.0877874809794131, 0.015543994746880627, -0.04275115560713825, -0.061113888845760675, 0.02504233534207817, 0.07370271300258124, 0.07655316165719729, -0.0882669714684987, -0.059256484760740864, 0.038696301690950057, -0.1370007094318075, 0.020864950286729928, 0.016228045869836772, -0.11827964091218714, -5.383749589245929e-05, 0.07119632137366234, -0.038662116242860714, 0.008560818494588967, -0.04005957117752702, -0.16491346616634814, 0.054458198310858776, 0.04852796930409781, -0.02047904618177075, 0.04144137906061774, -0.04472056556503866, 0.12509871909262038, 0.006482566655936454, -0.05823522114722344, 0.005039801433313361, 0.017210279355227277, 0.021271472150758204, 0.05308382785404825, -0.08172551516756023, -0.0487488852788133, -0.032940696476326664, 0.01762281062478896, 0.016836644446608, 0.06348797055651524, -0.032388932324449254, 0.00012714757298554557, -0.1832626229141115, -0.08150882928031099, -0.0873113369668916, -0.011114388316059418, 0.18974889398928538, -0.009350752853021796, 0.045981375066981564, 0.06021584356332145, 0.01215069003561289, 0.03486187718860637, 0.01760686984482498, -0.0020985404554432928, -0.06510471336810777, 0.17977387491582722, -0.08496121400103468, 0.0623281362664853, -0.008813752255621332, 0.060473701889585674, -0.0992240212652444, 0.0910337894709138, 0.11418767695651391, 0.06146484738965816, -0.07297772758661616, 0.14626393529546633, 0.023097606384349337, -0.0855365538555394, 0.11160699704249423, -0.04369771861170749, 0.016874833755464707, -0.0003041366585257415, -0.09561346968232032, 0.014270194774182893, 0.15136857728529451, -0.018970942372490487, 0.080082469089908, 0.03586184012654215, 0.1551511424360541, -0.051808821301205024, -0.023371846756181824, 0.06502578095695803, 0.010738877118982455, 0.08502283134711751, -0.007746707322179756, -0.12629949323042577, -0.07193762071802906, -0.03172650784216937, -0.07108600188647238, -0.07414738647599131, 0.07971508050927877, 0.061865285192391616, -0.12381925601083338, 0.05169364844698937, 0.054431283141375277, -0.017254956602687055, -0.05034852980288343, 0.08492944548271232, -0.05625265816821977, -0.06657287678416748, 0.0839067757301407, -0.04286389910248478, 0.0050808967100372205, 0.043716819235790384, 0.02255187806416595, -0.006341809320950986, 0.06884689805303679, 0.06877058868414454, -0.03170184246743212, -0.01786335736846242, -0.1408525481062588, 0.05057512579987228, 0.10116933599036006, 0.06246026507188148, 0.06129508547606073, 0.018280174276748513, -0.008480340680663044, -0.051031172087390136, 0.0022693859620065804, -0.05965784790039806, 0.11490437102415002, 0.08617020063576634, 0.001357078337028509, 0.027262684698162454, 0.017279826749149838, -0.00021879083983888226, -0.09903694261256693], [0.03271577537374703, 0.05808769507543708, 0.06631164465724167, 0.02584767609053499, 0.008746683928934662, -0.1378221539322703, -0.05179494407054741, -0.023686238632884753, 0.03197614164978671, -0.00042431363852992983, -0.12325830165227204, 0.0413814920134348, 0.09514899626534208, 0.013663303943927037, 0.03911175433511965, 0.010413229317237097, 0.03842661575557718, 0.09508957417243431, 0.21914588037418534, -0.035224984738240345, 0.1320340308369068, 0.018912334916368786, -0.02876841845068722, -0.013549822927600565, 0.04073299259287253, 0.02315298078393861, -0.048572712893334244, 0.05027579999861162, 0.10112201964260607, 0.007429325967092604, -0.08025735924142162, 0.020026127604468234, 0.0554221543186246, -0.10931704490132108, 0.06559281433161959, 0.1014451885653449, -0.018560289024445845, 0.058116860723364194, -0.009094491643689534, -0.03813379939386692, -0.07724198476017843, 0.11899804650693592, 0.03154592369942101, 0.0020736513295979593, 0.01946954656848961, -0.057875088544523584, 0.021167268322506247, -0.10874687803201037, 0.03840112655923451, -0.05231570795481422, 0.11354355890016436, 0.06783586189683286, -0.14692437229771257, -0.06948007577863624, 0.046029132267415195, 0.023728628960756348, -0.1343942187964513, -0.013151047927785662, 0.054760569815447385, 0.07257723156141595, -0.024767775775730805, 0.006311753142549848, -0.03511033096075213, 0.050678306674515436, -0.08601781424578936, -0.04810843280305101, -0.01864892430202631, 0.07498463210010699, 0.002420940954618777, 0.04873917088992108, 0.023390884992381414, -0.05842290986109267, 0.061218937441975235, -0.04175489015340659, 0.08788562071632101, -0.0230526683031394, 0.026847513293110352, -0.06017323122983183, 0.09769960491924456, -0.04676346403218938, -0.014112820270501212, -0.08720467992290082, -0.026773429074756515, 0.034842893303045165, 0.028359299817061423, 0.011764976801947859, 0.07660380261029466, -0.046088376762813, -0.03510048012774956, -0.019505690245044612, 0.18962957213432374, 0.05562270260003422, 0.023642673912631397, 0.061304483965247035, 0.015924517032928784, -0.1352367052613317, -0.01255136149999129, -0.1036045631674773, 0.0690477158113255, 0.1376187096986895, 0.023237456620556478, -0.04350356767861718, 0.00011883586558095934, 0.13847418507606027, -0.005882898109901107, 0.06882051758950997, 0.04820410640868537, -0.02066402844925143, -0.09684287804418164, -0.005265834206755012, -0.013146512870726159, -0.06931452443794199, 0.028317142973447937, -0.009198011200644866, 0.03193702340418955, -0.03746685218333719, 0.06472218519290979, -0.00847577221353612, 0.012835782555281845, 0.04290776168110923, -0.0785425070895505, -0.14939755363267126, 0.1510053082422143, -0.05932792081693845, -0.07902934166157512, 0.06899951879515362, 0.0794206854702295, 0.12116796778412355, 0.13099988099384258, -0.0256898502406738, -0.12228308165843117, 0.0011978263526327975, 0.07811654540998902, 0.03114445271161538, -0.26499616849788293, 0.0030198486777983204, 0.026476432427018387, 0.050315063142882976, 0.07241450711400482, 0.07634137893777984, 0.004667061646464913, -0.11795925094148835, 0.0021815820171553818, -0.07994773450028764, -0.016077152113948, 0.0032970428877732044, 0.08471895555901535, -0.013362199045505938, 0.023325170695435875, -0.13816518125475769, -0.0017763578259858705, 0.020443271321900724, -0.16514100248998612, -0.04129677993318201, -0.02265247881209585, 0.1222865260355887, 0.07008796682109235, -0.14770501915757805, -0.0428020381641527, 0.0012958165013298283, 0.043372146848447625, 0.0076629755926227484, -0.05196677197800224, 0.02639259704822957, -0.11100664773736868, -0.014840891735424001, 0.16639946911819994, -0.08459667734494303, -0.05990683669356271, 0.03143410996938776, -0.04051198586056417, 0.0013271218767540221, 0.04889223382444861, -0.017899070827500547, -0.046380900737981824, 0.009405642093858933, -0.040874044693509866, -0.04351262842887821, 0.039926007544328235, 0.03582519407919205, -0.02507571577032839, 0.10015087213558185, -0.056152430725100524, -0.047637182977139106, -0.017499153139373638, 0.007040821455329877, 0.02981783118009799, -0.02107011372612649, 0.0327522489662948, 0.07462576869298511, 0.028125708412509116, 0.021093248346848288, 0.06864426453801, -0.02578255124887365, -0.026944439897523008, -0.0018299796978163882], [0.04241325879009602, 0.030357821338818425, 0.04960209652202931, 0.09695810042859859, -0.035651355960665605, 0.04551010290066678, 0.07962688321133078, 0.013138841907770472, 0.009423519762889014, 0.03768101599430651, 0.19727534982043077, -0.1768576860861458, 0.08587777580398515, 0.017325610538451757, -0.05430397691080251, 0.054192303704587705, -0.05715370544531675, -0.035507527521016165, 0.08737623666385744, 0.051520226634298255, 0.028393566975398975, -0.030909693671916715, 0.003633279755708107, -0.06648866360378897, 0.06384705305475832, 0.06249808460597967, -0.07522511259144704, -0.0847074380295877, -0.0342488363683269, -0.042459983095571495, -0.10194922811641384, -0.029330269104220142, 0.07193956406316848, -0.04584407440940953, 0.002098188141185991, 0.052582952505001626, 0.08980481952614007, -0.06146729040148453, -0.01134470137107752, 0.061146048017184824, -0.08890627613198221, -0.06911417183184054, 0.08948991629635865, 0.08764865209725321, -0.1255780953029205, 0.00954452279339956, 0.021771564769209408, 0.04595026860471242, -0.07482561446997926, 0.08729279584975369, -0.0019903612329555892, 0.054019963156506326, -0.08679746376882098, -0.08387996006429994, 0.015923914804740175, 0.09943217800506488, -0.037099737369807054, 0.014522977051797201, -0.0329281370133375, -0.1323614439558627, 0.0951469805246711, -0.057899930322965365, -0.044738219615322074, 0.13475864506551508, -0.045432410715477545, 0.07631997102056108, -0.009756276876669521, -0.05991030070671701, -0.05609686517210012, 0.008303824719024092, 0.09017866006569589, -0.040826086205581695, -0.031607883303241005, -0.028788198270456984, -0.1346516821417275, -0.012834117827294838, 0.06345935824728971, 0.1385986794940431, -0.030527444887393302, -0.0448491371442349, -0.1257502212799525, -0.02012006064273906, 0.05696028046075832, -0.04802902771483819, 0.023697938021105286, -0.0863336411130828, 0.046475375803251624, -0.049675659191961964, 0.03151887389225925, -0.08014847112506569, -0.007191362876237278, -0.0459394699456186, -0.012798783246293586, -0.06567778582528418, 0.1685687143615557, 0.004709447717290025, -0.07328878429125242, -0.05445599836093875, -0.05498205133895182, -0.07132067156729414, 0.06415398776443487, -0.1118419232127408, 0.0065034190320838025, 0.12778734918602597, -0.20489696153043283, 0.08693291411165872, 0.0397594102498878, -0.0516447230240272, -0.07768985642886263, -0.05071628821054855, 0.021129470697099258, -0.003829458013605711, -0.058899500200277156, 0.06891281228918972, 0.0015213853595877958, 0.025911095818793018, -0.08034425990877916, -0.09202462689313864, -0.025951206561972483, -0.0918191718503506, -0.10716312515880978, 0.14603630859038316, -0.1183477847655077, -0.01623886809210443, -0.0051191538494252415, -0.07045817660764596, -0.10812927340593474, -0.006758299976361419, 0.03770093793802102, 0.05173647177785662, 0.016596665145350527, 0.06471963484969362, -0.043577865128314096, -0.045528251239050375, -0.009620085790979192, 0.12116874445161335, -0.08339602379214409, -0.025084545818570683, 0.1309017737954201, 0.003943094428908717, 0.0008582564111929067, -0.13852598940923544, 0.0473067259010814, 0.017957476739709457, -0.012805724123067646, -0.04665236796059334, 0.11717110147972389, 0.12813262933315075, -0.03220500481503295, 0.056908008398843773, 0.03671361006861527, 0.055132674755400804, 0.020563806664452622, -0.04901766672177803, 0.09996022108611888, 0.15075611530461044, -0.03867702458519203, -0.022042555759724507, -0.06104840623284172, 0.13424187838961632, 0.04811617131059763, -0.10958102023391744, 0.07386219892045881, 7.902703544030507e-05, -0.11153780313414449, 0.015363736880810112, 0.014951750076414807, -0.04915380519034629, 0.03152851094439154, -0.11085240707929908, 0.09192408872343394, 0.029248500110541868, 0.009266553665171722, 0.045245326363608715, 0.045435552818860254, 0.0024084579169811127, 0.07541485045951937, -0.027451868764897726, 0.06863245599362942, -0.0835373497966375, 0.06410079010583111, 0.05361682211136345, -0.0907026665577734, 0.00464705160453631, 0.061030184869583955, 0.03715905767394608, 0.0005899526282805494, -0.017059676883612106, -0.011195673431816839, -0.01222645319687756, 0.06767191365448628, 0.11325856959489415, 0.07058760499729075, 0.006001302024911955, 0.06573602041190309, 0.03948359338952531], [-0.06268611744745306, 0.05809378178987305, 8.86816623019636e-05, 0.05355656356901007, 0.041255729707594904, 0.0784873432318543, 0.13353142742914023, 0.04966498911746205, -0.12112924005324355, 0.001695803947686029, -0.07080385799728674, 0.03517720390062382, -0.030000271013509616, 0.048942182926740664, 0.07083786878844588, 0.03410372632464845, -0.02918563044685795, 0.011453547702605364, -0.06559638550064471, 0.014761026137387829, 0.08192209721162387, -0.021400385647903253, -0.044128883597411024, 0.006682582724784859, -0.08830743539505803, -0.07168289997363769, 0.10529897645294244, 0.022919787957829195, 0.0391388695751189, 0.019319889682391622, -0.05155692702587528, -0.017351161179090396, 0.018555342822328597, -0.007849458125565626, 0.06087935196689903, 0.05038770849930846, 0.09861495926140497, 0.03394806706268514, 0.07593901038165336, 0.04870815119745728, 0.04590455119936683, 0.03788716188877279, 0.0592658842203153, 0.0415716093851071, -0.016017252982824307, -0.014620245555160134, 0.21772946834302767, -0.04371917119155766, -0.061258296685251054, 0.029950199734304288, -0.00044203956158050093, 0.0049912414314508555, -0.026479055380681866, 0.046941539493177364, -0.04600043840843723, -0.03338056617640027, 0.07630181719134282, -0.07335922710888133, -0.03617385438455193, -0.09966161646920262, 0.05505925872230855, 0.1264816148090818, 0.04996708715909593, 0.019878543800607253, -0.09927111122352386, -0.014105580016436298, -0.06692309774199669, -0.044674673309202904, -0.0852460145695934, 0.0028101309030884583, -0.04805380440055246, -0.008359068810417047, -0.04387044574812117, 0.020898889425797155, 0.03225209800950565, -0.026409964126886388, -0.057733248243869995, -0.007309322314876008, -0.012197297837075387, 0.051903259171116475, -0.08968457144140178, 0.10711824287764087, 0.08462582657269226, -0.08332118930505612, -0.018283791135616092, -0.1132701524278854, 0.1480857904808981, 0.06185037120552821, 0.051008888870851164, 0.12256014584035015, -0.06057017217099625, -0.17463573472995053, 0.08927882156661543, -0.059073648119752104, -0.022574314906966413, -0.026921079634373124, 0.10254328024019693, -0.13162815045915463, -0.015794986702171956, 0.0009594027990815192, 0.03374329242577237, 0.12448797597690467, 0.04276155563526154, -0.07033769684712432, 0.025299213774800523, 0.07789861777265318, -0.052657983646727864, -0.04135144475228841, 0.055347493470362566, 0.015532961418598251, -0.21124208395576585, 0.003934917557255038, -0.03542668887566252, 0.07099661287505013, -0.05229476438223863, 0.0341522606229625, -0.02624922552422918, 0.1323653585148998, -0.01429438204654281, 0.016968630180141754, 0.03639307723098195, -0.01164860926275422, -0.006653907480077375, 0.15398181916252823, 0.04592991633272093, 0.015023179746009809, 0.10094976718344731, -0.0012398873925735857, 0.05473912063823583, -0.03455650813967842, 0.021486804254196332, -0.013475137858208091, 0.008945623219612541, 0.0867785825000047, -0.004373444755359595, -0.07930332739391137, -0.21104923926712293, -0.013477446865624857, -0.08871646572087478, -0.0032507086241451723, 0.10927414095339655, -0.09620614193120608, -0.06313737744689761, -0.004481213124013377, 0.15193715206611114, -0.12442879981075533, 0.04455828061850875, -0.0032543899110751883, -0.045949415548296464, -0.04041613915060144, 0.0842695770846373, -0.069153862392395, 0.07621743464662929, 0.046225596814409076, 0.024664997978013997, -0.04723996734596242, -0.04784952645284561, -0.007534215305070965, 0.03582852307931114, 0.048874097843945606, 0.015480121335019298, 0.0019090104102698394, 0.10955563702357977, 0.019094517255375896, 0.06428859163256029, -0.09626198424967161, 0.04815797804485918, -0.04963036295041092, -0.02275452793485769, 0.112194429759173, 0.05194007280397906, -0.06842628874592784, -0.007065533520273068, 0.14378486340802787, -0.11893430381461649, 0.004413279721624741, 0.07473441499747727, 0.029496077914307285, -0.16940067905517095, -0.02502628802479763, -0.0289730104894413, 0.1462066715104167, -0.0031655478237537214, -0.0058079790430353466, 0.027221765073689636, -0.05456943474748714, 0.0972020542317252, 0.02266285752425858, -0.08895278068500641, -0.06771046410860916, 0.01982421030905201, -0.0662350306340676, 0.09541650241207253, -0.14147493496033017, 0.03933117919250482, 0.0050777636993920945], [0.08809509380878426, -0.07125070958707443, -0.027594281225970123, -0.07469352493544873, -0.08956535036120757, 0.06996101318537544, 0.0020710601523713144, 0.06648795665593711, 0.13837064141429187, -0.011051687706583602, -0.04978227620393098, 0.002391740612106169, -0.0776334676220627, -0.06405575253250735, 0.06571450617582512, 0.0490848219730955, -0.001089736768144561, -0.012461097001823775, -0.1148685251213603, 0.025373400659573435, -0.11576945830719315, 0.12116784578806174, -0.07567926335963218, 0.06324167020936627, 0.05077664400148296, -0.012551403365552969, -0.06077064706904802, 0.04593740850448721, -0.01497008110802114, -0.13870410249555856, 0.12426337707466015, -0.08828920541067752, 0.049948921285759985, 0.1271114715428417, -0.07000246895703942, 0.0542542149383228, -0.05849835395521512, -0.02267042807393475, 0.05667250402199022, 0.08594839093038367, 0.049008329626837065, -0.06666885730464855, -0.04054989239603434, -0.029203831322683903, -0.06323048244082333, -0.028100744604166523, -0.03262533674338807, -0.12312808319792373, -0.030272577430988584, -0.03267064642166464, -0.00014002518274238557, 0.02982027502326679, 0.00024015102651112261, 0.09798451065670827, 0.019519224228383186, -0.1242099347051527, -0.053300576114303305, 0.01519103108029314, 0.039889861590008215, -0.031145724455198733, 0.03267957502564627, 0.01659410733764681, -0.04635548327559328, 0.08874165190161286, -0.06167797609731984, -0.06916832426056159, -0.0014158669230115808, 0.0864875699419291, 0.09000846375846608, 0.036376481314170296, -0.10635608250075769, -0.15460349153280997, 0.048951261582103035, 0.08967226645628916, -0.049579623451594904, -0.086078496072521, 0.010506303949632952, -0.10953257038229264, -0.028951113865352415, 0.040794414906189916, -0.019634945710929445, 0.057306588062773466, 0.14432395613319574, 0.08231629241859979, 0.049047945628584555, -0.14432930110206058, 0.01935692673181781, 0.08440295534189625, 0.008065968531968596, 0.048998313425499845, 0.15690704066095618, -0.08270268271937971, -0.03929350627154217, 0.09874304754806985, -0.05089297064312313, -0.08753834463525563, 0.03393803295262011, -0.003142850159792286, 0.010234016530572813, -0.01937376939089014, -0.07751243321033051, 0.014939467216554255, 0.11170060976855024, 0.050301531511193154, 0.1609031885307667, -0.1215057554680158, 0.05086735173267613, -0.07430210270022802, -0.06361825389776166, -0.04500205829158029, -0.06746732033970315, 0.005641951698858503, -0.044332719180329334, -0.1185561503173415, -0.0059237952694374645, -0.06989243156738008, -0.0004488419960281862, -0.03506610744281527, 0.047424763728374085, 0.04560938589655031, 0.03667779414612914, -0.024884034162311913, -0.04163437812817917, -0.054091570093844174, 0.04999166601641862, 0.05146098531330806, -0.057763957165260615, -0.007656426791657357, -0.01399654664836202, 0.009285750066550557, -0.0463559922048314, 0.05541420033701189, -0.04450882627348014, -0.0608489425489541, -0.007503728526208197, 0.007825959606411885, 0.035134046805458036, -0.02235838130911984, 0.11026159723839883, 0.054623315444037625, 0.020334603861506196, 0.04060008996420483, -0.054807942911339745, 0.10070618544353618, -0.023497258777322075, 0.06792786665051966, -0.07337679445489342, -0.09358949330565472, 0.11689584802343718, 0.021574490532283063, -0.07793144868847893, 0.07970370669604945, 0.05333556600038409, -0.12652010724238205, 0.068500124797781, -0.0015792919221410207, -0.08424088409330467, 0.017297284250465183, -0.002047466596899361, -0.022893985733413426, -0.0326450523100447, 0.003602758987178863, 0.030823548762620813, -0.047484492056428, -0.08550052142177067, -0.06538911468702925, -0.035128635366984275, -0.08297606879539192, -0.055242366140462934, -0.08493112971975482, -0.00483004137809106, 0.030836466298665967, 0.05875223676533095, 0.09817464864471709, -0.06009861807577355, 0.07114290104457067, 0.03550070239731319, -0.1629010301373362, -0.1436531209258738, 0.07506536504682298, -0.13499601004930753, -0.06321818345703756, 0.040036777857858204, 0.030212088689186765, 0.027985582671823928, -0.0758816471439882, -0.018542949941292658, 0.04703313820768301, 0.026252974427152114, 0.005025693959169007, -0.04018521101168395, 0.030746679980448815, -0.016416390297503004, 0.04645845705586664, 0.038890085918781674, 0.009731180145668606], [0.0159646644272053, -0.014780138859444857, 0.05391163350331755, -0.08567752740845126, -0.14255455677615217, -0.02299565871347041, 0.0029189151109146154, -0.11189709645693074, 0.044276691605599355, 0.041580414171912994, -0.04856868281908973, 0.10903191189464381, -0.030161291925152173, 0.060302007766062884, 0.0850987913200551, -0.06619640668425517, -0.030617372254096536, 3.509280694818144e-05, 0.12098629886788628, -0.06176227654138252, 0.15465798134190578, -0.07691945390434245, 0.159718035588338, -0.019323817224890318, -0.005708015638796159, -0.02787487226696427, 0.01108112332933456, 0.014048573808915764, 0.021976120675773207, 0.17916947662591406, -0.015569859247847168, 0.08212180496755424, -0.21263308306873924, 0.09169732628706488, 0.0017329920905092557, -0.030350059507342833, 0.09531136838223556, -0.020467652991517607, 0.04495410948598246, -0.09891666540258953, 0.10922580424471359, -0.024559599338402606, -0.10454690487617249, -0.06125205728409207, 0.02977329111105511, 0.029056803991853185, -0.01240254114338549, -0.06059694438681111, -0.09013082609833638, 0.03997984381789121, -0.06336743537073686, 0.09012182959815337, 0.02314598438308458, -0.11507946800593072, 8.2264887795952e-05, -0.058163832874275144, -0.13494799312503175, 0.10685585134234915, 0.25618223680365987, 0.06738582559666902, 0.009657927928607982, 0.022193023559115184, -0.06734046908888984, 0.043162609731462624, -0.014670280006474612, 0.07819292085579523, 0.023270445255880155, -0.13467415239205116, 0.02598342625674591, -0.11850677293016777, 0.059669670905260055, -0.06112805158110088, 0.09559609245761996, -0.04858628656609872, -0.013672048090194603, -0.005040209069553238, -0.027581808865741034, 0.020810182704566037, 0.030021728424859617, -0.06516817384202193, 0.032932448724655394, -0.05544405142092564, 0.059046314667117274, -0.03261937790040384, -0.113982863177189, 0.011274281576591313, -0.003449645656713908, -0.07942993149033317, 0.13115414986995266, -0.11425194031142613, 0.12897484940845624, 0.08333730282358841, 0.019196662701141783, 0.027957454543245254, -0.017982086810776843, -0.06069095595946095, 0.012359412562381895, -0.05258552231514374, 0.06281963936888932, -0.08743578721130563, 0.05336841198934869, -0.006374147014689917, 0.06547532080222739, -0.10615589292962395, 0.06690410549727223, -0.17976601787878904, -0.06520979319867128, 0.031938945694463955, -0.0359245203014776, -0.09550939439695896, 0.0639098811451873, -0.010023732699445346, -0.04495411791172401, -0.05320005742000486, 0.04988913330653354, 0.11547949443046784, -0.14755116759051545, -0.011151715811741694, 0.10429425036622288, 0.04373902368470272, 0.027235632386794984, 0.02163278305946076, -0.03671396018623248, 0.045695292260462046, 0.07338264346297302, 0.043835692021355975, -0.01861389485656898, -0.0018478960368343985, 0.11379086864816262, -0.021725094564417964, 0.14965407988688448, 0.0958451544556605, -0.02398688626102586, -0.0028422998280065222, -0.018883000542949835, -0.061477052459674664, -0.04697104527934457, -0.083507836663052, -0.15029171677944866, 0.01100026009127967, -0.041668003363758616, -0.11945498682302703, -0.030373495290124293, 0.06396837133716624, 0.041091376290788, -0.02023651941471882, -0.03794811199089744, -0.13157533499290588, -0.07983728740957285, -0.0663524712066052, -0.022616660097348695, -0.023165875715756692, -0.011159082556662243, -0.02243723177634903, 0.08845218383397324, -0.0015739056293068666, 0.0732774138180008, 0.021124919092334448, -0.03754217408914836, -0.04833035233255519, 0.03716670508404329, -0.029778246499616256, 0.061011825118577064, -0.011073583484478644, -0.01745209996110693, -0.12363596964442299, 0.08840658309172411, -0.032512447972249205, 0.08467589445750234, 0.19138151906402182, -0.11597717859585029, -0.05709865125219911, 0.025997563881823463, -0.04788158204472128, -0.03093441544202705, 0.1091375620193818, 0.08320980919068621, -0.0856376304239648, 0.03193936170986979, -0.008548669420957208, 0.06296822566022792, -0.17085987341360118, -0.09531501443891856, 0.011706378027000206, 0.021171893512927215, 0.09332900947974604, -0.04000647811489871, 0.008459656479653058, -0.1533537928228186, -0.005888630619147095, -0.07088030176388453, 0.013920900371835715, 0.0658625092284776, -0.0928752029152627, 0.005269086907628267, 0.05337084308963727], [-0.04764417398609775, 0.07938360705531161, 0.07584807407619025, -0.04457990699732514, 0.2016032945519651, -0.01926475734837283, -0.02483032984069041, -0.11510627771544207, 0.08720547590281835, -0.14291002899557828, 0.06582634868708274, -0.031901838391031445, 0.01629316038940713, 0.0863608823894394, -0.04439155891131865, -0.06638987484669434, 0.14712722808475456, 0.10441239080479418, -0.038991224680252214, -0.04596835038050562, 0.022444891151522973, -0.008971844999983316, 0.15026414348849423, 0.09852727429557599, -0.0487372793303409, 0.0033180786085748306, -0.051362315752256436, 0.03147496562329382, 0.03011290600850461, 0.07508932039027803, 0.05955044886911401, 0.0412212027834275, -0.041237802678304195, -0.09251893721003109, 0.14746198342501127, 0.01365512297249712, -0.002331458647953458, -0.09960570620460846, -0.05869958589116642, -0.06631135594118326, 0.052245616588029536, -0.046034932994544094, 0.08644083564235944, 0.08609434351918716, -0.038246863484780416, 0.025210976918248584, -0.06011182153281997, 0.005305365092795171, 0.08226612904471432, 0.0790364502350276, -0.04128832081439047, 0.171594039494985, -0.09243837727769608, 0.018197738079482995, 0.16598059591891393, 0.018907803610945833, -0.043092559358904006, 0.08399294205710683, -0.0943838803943871, 0.006113218548098387, -0.07264282470241892, 0.004060541533842561, 0.042507103973821465, -0.051851769983925135, -0.007263687206981405, 0.023398024870305352, -0.002503679043289391, -0.03669810670499968, -0.01693408458558282, 0.07913229948689142, 0.029583558153609784, -0.02734689906738806, 0.03167449107256363, -0.020833669055327297, -0.07085984980643947, 0.03478935465423197, -0.09681876222626411, -0.00919452986588751, -0.1339781863287416, 