[196, 150, 10]
[[-0.13006928872759818, -0.0047259094802150755, -0.08805370234974307, -0.07575326530357268, 0.05462762456573617, 0.05523902924870442, 0.10650314079000418, -0.043733648618566455, -0.045447279580055816, -0.020203876511940846, -0.07315563033139341, 0.024020856955359857, -0.03586903470089683, 0.00030344892204087675, 0.019616293232629377, 0.004718428518082493, -0.08379898287479251, -0.06870295236985091, 0.0023502642098842314, -0.11723330599753254, -0.06698445880606267, 0.09415420466330908, 0.04478558858368335, 0.055287680732766575, 0.005098843005874439, -0.08117466554326816, 0.05627126832106407, -0.04952020608122406, 0.13375387092201593, -0.006685033767897922, -0.01921767403737214, -0.12428675874022797, -0.062409391051552035, -0.036406934149497916, 0.09992940832410159, 0.13382619822049513, 0.016311318074133108, -0.0675348960783827, -0.04065315866263808, 0.0912619326225155, 0.08147050630042273, 0.012990584514856464, -0.16622020941975763, -0.0670465394796756, 0.10801579127953305, -0.07131216374821467, -0.05050455558189388, -0.08833611271417953, 0.1159749724298052, 0.03023464443527771, -0.010616329726971485, 0.01761406423169548, 0.06774730831148056, 0.01941064080038996, -0.004258474051131012, -0.039186148481244854, 0.016044450316855842, 0.02360307951347927, 0.05410258289384188, 0.012283397522045823, 0.023948137448166883, 0.046574001041758586, 0.1470850784095191, -0.031108056638054812, -0.08445053689387831, -0.08552079515979442, -0.016957655089501457, -0.08402913153125524, 0.05413183984050638, 0.05293164112141426, 0.02778574882354702, -0.07741596307989669, -0.15681084034198783, -0.04115903246843306, 0.04805884204402269, 0.009521181664162813, -0.060056244727374725, 0.07634158251393125, 0.1044264353287053, 0.015411474714443194, -0.012881950158371541, 0.027973049739499403, -0.06369717790097562, 0.016558151636694163, -0.007910505756794724, -0.11437578588265143, -0.11283939920582062, 0.1577084968537294, -0.16957177073292454, -0.09168707396927771, -0.06586638840657195, 0.023556606172580454, 0.0002285846165854606, 0.0006272270360461342, -0.04973888254897261, 0.04301169833951305, 0.0029824636886415894, -0.07362221013814506, -0.05560345226587378, 0.06980583579368581, -0.05047226844445105, 0.06653219154575088, 0.0493931620233547, -0.039991860482943356, 0.16470838203104815, -0.012244885010485861, 0.010303264027309014, -0.09886554272813372, 0.0019505032915808171, 0.10458374559022858, 0.016680297939180164, -0.07201882316449067, -0.14328479995868, -0.004442145108509692, 0.08817083683806243, 0.04181722137319825, 0.06912276638934975, 0.04192633241837272, 0.029686032899226264, 0.03017881398652593, 0.08882189261265648, -0.051832868021176356, 0.07254710857756451, 0.06048270082434856, -0.10988513574444124, -0.035798098403358965, -0.06208422792902515, 0.0396156521418006, -0.01687421348162685, -0.06244924115361364, 0.057575256829875604, 0.010230463054995233, -0.09854543004337514, 0.00806467270494388, 0.012140921749177205, -0.017102360015278855, 0.09452825087357263, 0.08849248696767469, -0.10318289680108034, -0.06421440453309533, 0.06137904233871052, 0.010477589476223736, -0.10001811470339704, 0.013765840413238705, 0.00012858580557485565, 0.0816977092072437, -0.05002235989006164, -0.05104206655484405, 0.06060382184513417, 0.018777435349509968, -0.040917901977581335, 0.00214573989865538, -0.00026816159119384366, 0.051798743190092846, 0.016827912700083544, 0.18630454846722105, 0.0994938930589683, 0.042099250421207414, 0.03541052513790284, -0.0426458858781184, 0.07565984714277131, 0.11736283375671669, 0.0759940715503217, -0.12924679578190132, 0.12162726335596115, 0.01747757147143694, -0.049800722595327425, 0.07399221245860842, 0.08228095661108331, 0.09605382569425021, -0.13305573391485434, 0.16934089909141992, -0.0020911963269088954, 0.008640752710390248, -0.0016415850220770337, -0.03549645560055552, 0.008442344113892128, -0.08280204455966149, 0.003854091169440338, 0.027429341216556113, 0.0695285021533308, -0.07505839475997327, 0.03539477976805127, -0.05116956424688554, 0.0027230921724500008, -0.026547351104869443, -0.03571167304969318, -0.009873201289244984, -0.04069857996981859, -0.003074422786835977, -0.015939375084605585, -0.05734796112109879, 0.05102835183184302, -0.1525742698601886, -0.06664389030173552, 0.0009697384230431452], [0.18283432890353696, 0.05827659905492629, -0.21113293139593803, -0.10027116759725185, 0.013660927636524937, 0.18676681589331262, 0.025997921089350062, 0.008848229688145564, 0.0038998747280141973, -0.030893261615292635, -0.12869404163206596, 0.09578258006631443, -0.053252214113646945, 0.0949193940703404, -0.04702685994746984, -0.0008731539364329055, 0.03890872211933206, -0.025501511202085363, 0.02477096535000287, -0.11516076369821382, -0.06980488492686956, -0.013385081118587097, -0.17619680809057972, 0.14971809165742447, -0.00010907859232702609, -0.017990865710847365, 0.023748460434259988, 0.11398243832688243, 0.061399514414044204, -0.12118329942948732, 0.033838928495566134, -0.07639727955475518, 0.02523472343521403, 0.121212894499234, 0.04054174396579107, 0.029520285139853237, 0.06140776690763913, 0.012686841023509308, 0.014945649224117155, 0.017863481845630545, 0.07991053489903559, -0.06413820935214448, 0.005336940906996146, 0.06730841129621515, 0.08563212700733397, -0.024965272224554417, 0.07494511562352116, -0.07673436874154584, -0.005368407503336891, 0.030219795159374507, -0.037933897784538095, -0.022793668747542482, 0.070772719534719, 0.0924768177277181, -0.03297368584823828, 0.023240901551340773, -0.0403461853189657, -0.05519546267521666, -0.00813151762758145, -0.0910398354831464, 0.0033761190673042194, -0.003515791232573023, 0.06444945666967068, -0.0883676161135164, 0.05180609919365657, -0.016981607474395918, -0.13453061553627876, -0.03483399806025935, -0.06547860236136308, -0.04337514202973159, -0.039894551211473304, -0.01245983343621828, -0.027202741781728372, -0.017958312951743365, 0.026707446227907043, -0.10703780996358457, -0.09903985599972313, -0.036984864162482416, -0.05430586194870849, 0.09031630870299975, -0.017079564613171925, -0.11100931275299311, 0.06592328331848069, 0.05025163739049151, -0.048758142983580305, 0.017172461549359266, -0.01915859751309467, -0.04726486284438382, 0.0005988286355607065, -0.08376653511622119, 0.014579174939378148, -0.0009195901918028976, 0.0021041848920680247, 0.042471425385912594, -0.0015857804137525923, 0.016040581210407252, 0.011400745528810206, -0.0467628668740112, 0.02446440347244654, -0.08403572559314147, 0.02030022280371878, -0.04439933770267473, 0.09892978478485316, -0.015802922045512396, -0.21075428185307352, 0.017442844997734273, 0.033284710900628685, -0.03680303893263289, 0.01499420174347393, 0.09326003352935436, -0.05695773678165601, 0.07339923158046441, 0.0490664868549239, -0.053972552111412254, -0.003348047752156131, 0.016678902361677614, 0.14918486026056285, 0.020887142532978895, -0.04703527450583264, 0.025648063108493917, 0.03991337305259483, 0.02146432894751087, -0.045894084619412134, 0.016881316102583387, -0.042736935771456236, 0.04381549173935743, 0.08204266542647908, -0.02022655658083099, -0.028191140679088542, -0.05584787275869329, 0.016333157801581424, 0.07655018551327486, -0.19396088802770747, -0.043613470627443134, 0.16368581302955595, -0.06871117443831624, -0.0763935885217161, 0.06544013695531091, -0.02072643639549227, -0.05636971715487745, 0.0700178950030656, 0.050390841474570264, -0.05686566572125239, 0.09534631654735444, 0.050246823548447096, 0.024542009275613997, 0.009138839246073765, 0.013535873983797766, 0.05699948974342513, 0.09957647441729364, 0.08749581582838724, 0.1259234755415008, -0.12462570979203481, -0.009117106724776478, 0.1085318595481683, 0.0798390333685715, -0.09434587808386358, -0.028512562322789724, -0.009296506782108544, 0.07353568113663934, 0.01994237090404556, -0.09314447059507311, -0.08579945477075274, -0.02560251317231122, 0.04431963094818005, -0.034393640226856, -0.08181177637908482, -0.11165337272424139, 0.15353766261050192, 0.061338713512863324, -0.0150111993871543, -0.08000517049660981, 0.09281386758338828, -0.09298897095769838, -0.02943468208846317, 0.021461462599440033, -0.04988658295409934, -0.10508997367741146, 0.0019030703529190431, 0.014439422991557621, -0.007263847385390504, -0.06675451257936642, 0.10071355945551304, -0.041536775163956166, 0.03985713393798132, -0.06851254558122334, -0.10238600041512763, 0.01320522230285621, -0.054908903615680335, 0.029544268847555906, -0.14303178256766544, -0.00922401313495712, -0.05719489976460685, 0.11388375834115819, 0.08235534289006381, 0.055689078446414644], [-0.0054326382399635595, -0.02553254061274395, -0.03414912762312318, -0.07753351697492666, 0.010162361899423392, 0.03662652995391659, 0.11839034558831807, -0.05988722579161879, -0.012211366522090063, 0.07992046323739783, 0.08213493151522011, 0.037673552741104364, -0.027795857306561467, 0.09396072780852707, 0.11431838097282193, 0.05562433987279617, 0.07682755066118307, -0.028617581148408743, -0.051356044897724204, 0.03936358830182398, 0.034302905889420185, -0.07316014420523549, -0.0757488171305651, -0.026797122326865874, -0.033233672135374634, -0.04048161251730005, 0.08349343528189657, -0.005016779189013104, 0.08531135479451406, 0.04204001157926631, 0.043898313253366794, 0.0005484400607630604, 0.017471548427080208, 0.007448783335780801, 0.1785667271954118, 0.002629038505170755, 0.030285876691607424, -0.051572437437546144, 0.02884783162150515, -0.07462790179918778, -0.092634007460843, -0.08410390561689456, -0.048198416753276276, 0.09727344974475728, 0.021848260688309463, 0.057792421730609, -0.06509644563383596, 0.02417827856565574, 0.0768985483498531, 0.02735289081781221, 0.05910111302439083, 0.03738679200306749, -0.018021146794733774, 0.19145713471829806, -0.029393254402737108, 0.04353408241396971, 0.016344046303350027, 0.08442818833705666, 0.006671208596202298, 0.00788949366676744, 0.11281985833066303, -0.19722673889985198, -0.010123553560546502, 0.21397280457412926, 0.19915818285878586, -0.06773151097538382, -0.02060281095345551, -0.09164366645039851, 0.06748665218026977, 0.04807150086785958, -0.0034780032694406095, -0.08309221699344024, 0.04750158072527553, -0.09970125738995265, 0.10794498214762159, -0.03869384084350547, -0.006913968325534014, -0.07452701419546474, 0.050295693225801234, 0.08272921075412665, -0.017353876840245135, 0.18370074626018293, 0.08987230932907818, 0.16555607912333045, 0.03725506139278351, -0.0279634024571539, -0.18655024244834056, -0.057272062434399404, 0.030854474538209768, -0.019202516187889457, -0.022519887097779114, -0.04700740594114223, -0.023242011195307145, 0.045509632777946465, 0.047135614037885444, -0.015779471978821683, 0.17466371306763837, -0.04842046173239273, 0.07697306221659321, 0.008054067540743979, -0.11144600677660889, 0.02027658814689379, -0.01141202744344561, -0.0007539637704803664, 0.01940498316626601, -0.023842817754601633, -0.1583318555634087, -0.01832148960608511, 0.10628814083400798, 0.01873358697444232, 0.08445818906938149, -0.0037608974209835115, -0.07566527767404657, 0.1106337797863776, -0.05581959616186999, 0.005274698358018932, -0.14091001873428652, 0.10067516586916037, 0.0024684505287160914, -0.041856670206196565, 0.03643708978969382, 0.03721170889696506, -0.06286306684780002, -0.042817056660911366, 0.05438400064648698, -0.05420241412347971, -0.007815843007995718, -0.033738017562254745, -0.038622635891020496, 0.09260396375072143, -0.053666036696887784, -0.06272298611147184, -0.03151016795977712, 0.003570935216872419, 0.12221936223853998, 0.20691089096270052, -0.0012944793637924, 0.013638537243067527, -0.021909306047090533, 0.05445012053834673, 0.07596897421339613, -0.010739925794934829, -0.061010621560684514, -0.02459792582325815, 0.09565622611944932, 0.00727790555163975, 0.028415369573144788, -0.006968590013025497, -0.00803779188152866, -0.043002069775100654, 0.037839156400650734, -0.09192352624009674, 0.1191959183416228, -0.05349117292765972, -0.04921222630827408, 0.007761504557581502, 0.041600717452938266, 0.008180547597171664, -0.017845615211869188, 0.03920199801962494, 0.012998322514203403, 0.02696134747481722, -0.01017521503880944, -0.0007147380935802425, -0.005042070836424404, 0.10798288287526532, 0.07068948452242103, -0.03445458050383577, 0.09645535330240004, -0.0352361384049975, -0.10177095992110145, -0.03790478830009217, -0.1666635382502006, -0.019109122062682, 0.07583496683548988, 0.045465478697818126, -0.008723807877454907, -0.015354450433088156, -0.02567755885183292, -0.052609824010013, -0.0044725149842178916, 0.06449577108925807, 0.031686724760037185, 0.0332116496985598, 0.02926192313173794, -0.17002614212528658, 0.012993073404266744, -0.04255935148364909, -0.011313201084369454, -0.015258990527017536, -0.16145414231813834, 0.12004646413567734, 0.1877106131801676, -0.02854766589925529, 0.03157610376840465, 0.053106901695525684], [-0.0012742084524351492, 0.021818431022545156, 0.12450530255094022, -0.006542225673027445, 0.031146168815680678, 0.056226372059170436, 0.0025401732483486283, -0.021627011444440517, -0.02856797578043848, -0.019650907508730473, -0.03876901881760465, 0.03301554559110689, 0.14018086691274362, 0.14331889434174233, -0.029762268174583346, 0.031566999288448895, -0.10149533487275612, 0.11463321025369107, -0.008255843841535824, 0.03259652972565532, -0.021023226251139105, 0.050579445327284575, -0.04799429161139137, 0.03187226529306219, 0.03289265832776391, 0.02694986568556621, 0.07468176628610547, -0.0011087009841755267, -0.07284273749221354, 0.03753146190207279, 0.06933064452538656, -0.10609498962029652, 0.029833618128878015, -0.049099227841883586, 0.070921575972571, -0.06456318875412144, -0.014213826442821459, -0.0474718962407579, 0.07079654115068665, 0.08476690467849794, -0.01385986567700161, -0.07373577301306103, 0.031623528955405905, -0.06656268511740594, -0.022572978483668776, -0.042783261975769475, -0.10237469758886092, 0.06619555661224948, 0.01846534224391286, 0.1235138169629273, -0.06316062248662538, 0.057804397664576394, -0.04283108888176778, 0.12810260182095468, 0.043326805623348175, -0.04729760473869437, -0.06900138319172598, 0.002562296395019725, -0.03307789748695409, 0.030213447559905814, 0.06349503353888626, -0.06506400604756375, 0.0018240304441370734, -0.0452152348224524, 0.10016153353079012, 0.11915966256911166, 0.16782765008269543, -0.06528865312722075, 0.04279973726379026, -0.045953040752250256, 0.07924217156276284, 0.054581578339332346, 0.021428464971327242, 0.07270075508039857, -0.03137661804321691, 0.045839773286236264, -0.12253143521507083, 0.077551273453358, -0.07464322241416521, -0.09538282934552479, -0.07846814570513636, 0.13890343798921573, -0.01282382579577489, 0.01948524482826166, 0.0822796345731867, -0.07045543572824413, -0.0010669757905749863, 0.06233402834229217, 0.12783300904149958, -0.0319762066939829, -0.07240499032405472, -0.030898129513336967, -0.09886889649843855, 0.03982937419757032, -0.014243775214159175, 0.08534376558046165, -0.0933746915954212, 0.020172479992219373, -0.029446811977030047, -0.06036418158491613, 0.01561051833129016, 0.014048271515067361, 0.048973260228192005, -0.05294202512258763, -0.04567217351711601, -0.1250583393105409, 0.041610378744909665, -0.010611313118052567, -0.07120370142003433, -0.017981351205602958, -0.02624047918963133, 0.0893372410583716, 0.035957645690781685, -0.0274497340416918, 0.11541959474271903, 0.05085306660165028, -0.015179965985549899, -0.050704668461310595, -0.07991646002842108, 0.10773752821202949, -0.013504082531840707, -0.03296610580314348, -0.04584552241235888, 0.0957090452019084, 0.0693725571664303, 0.027208852805870227, -0.1203772058716489, -0.01311756837680127, -0.07683227015948824, -0.07506977616918549, 0.14614833257693083, -0.10955301776844731, -0.05578074334945641, 0.03348085661835641, -0.08541669156159254, -0.018364741045126257, -0.01906182196073332, 0.022437716661030636, 0.025422559600229263, -0.08232494759512124, 0.08717190386686027, 0.023269789864326967, -0.02720134764025005, -0.005649806769601694, 0.01592228674286266, 0.12003054197709394, 0.06816626648255268, 0.04062529499604596, -0.04232049191596418, -0.01746788124002633, -0.04232436415949019, -0.008171062770053042, -0.08934530308482021, 0.16990617517120749, 0.03663917363262877, 0.08632657952651786, -0.008429185377450622, 0.06205939760433584, 0.07169733643073019, 0.045626792512699216, -0.012209978939295306, 0.07829980325209698, 0.09374964894567776, -0.02360304876765385, -0.05610230443693515, 0.0597569276954133, -0.014300774245521456, 0.03860532134293445, -0.005945347943738068, 0.008488715296129204, -0.04313666373758925, -0.07692063434849973, 0.011671441952217917, -0.0740645902319003, -0.08819413103109154, -0.01995867440451761, 0.03792516816256972, -0.053291368076952575, -0.08661445957346046, -0.07879884046829026, 0.1498213485847098, 0.005712539127044362, 0.0016164536104778626, -0.11034606806688149, -0.021535191845781357, -0.07035092283096789, -0.05362279719184806, -0.11061002308169594, -0.06148137061652353, -0.10509344852460102, 0.02573638802151497, 0.00464646477501847, 0.06852971957066946, 0.013358440356522625, -0.009462730669288792, 0.04159031272971761], [0.12226406290915116, 0.10143175376988459, -0.049983589322288614, -0.08642542684453351, -0.10618685940215362, -0.006691763048743356, -0.02110750462023341, -0.051657306625287974, -0.07568812515598605, -0.08751407524512002, -0.04807851160304229, -0.06244403092656601, -0.010673501072934348, 0.05308265252779196, -0.09205953105872049, -0.05519228781528657, -0.02671816588007482, -0.050774401252856635, -0.01225333633416285, 0.04079463242677239, 0.016093314172266754, 0.08580937636254365, 0.15401520890730402, -0.07856081801684231, 0.1698568719267694, 0.15563708767667264, -0.11202470647367052, 0.03544445489737376, 0.1068293861379453, -0.058319864808624416, -0.0938796301852682, 0.03423674627077854, -6.654576605755374e-05, -0.037826034082361605, 0.027252139631232585, 0.1123570990234565, -0.017276447768078854, -0.09365517877243253, -0.008338052423967799, -0.10877462324450016, 0.1564442381568938, -0.10679519090522172, 0.005706854121424637, -0.1021067191833906, 0.0025514387952982535, -0.04423663664683282, -0.035404298193304186, -0.010936539569519234, 0.014445071944445692, 0.1166297998702545, 0.16971026474864923, -0.01918973598826356, 0.034624278180448935, 0.10477704121544922, -0.028331599222348763, -0.008457315953408168, 0.10496014510141322, -0.0007816110016380042, 0.07485299263748457, -0.06765698904265822, 0.01803421606570156, -0.04695360562801042, 0.06431017130078863, 0.042129200162552366, -0.007815953774039805, 0.06858684914453751, -0.06799876001109768, 0.053993702370633924, 0.05819747018808705, 0.1685296589002099, 0.013044002072486776, -0.007617021535870123, 0.03388969290805845, 0.04383803475954786, 0.11388791562812428, -0.05336221158384197, 0.057226606412964634, 0.0344635642658069, -0.0009070719960126736, -0.09211865315097417, 0.020619571378769144, 0.019523415737865982, 0.13286511043790072, 0.028183394282591052, -0.036793822436605735, 0.0867880210077226, 0.1120695727705042, 0.12195863585103682, -0.047606784128438, 0.018832293606599455, 0.05753122971294978, 0.018572899848314207, 0.08965252637058847, 0.07262449821647624, -0.03633912576709818, -0.07171594382973642, 0.020131166865143386, -0.0036290879723835452, -0.06025485323469318, 0.10661062309538917, 0.03687729335736899, -0.14555678801938954, -0.020472041833765033, 0.05549972972598239, -0.026778688713298866, 0.0686943365435339, 0.04969044081207062, 0.08913206825706955, -0.040864415100280306, -0.029075321187011016, -0.08838686003601073, 0.11056547731993545, 0.12553155607733266, 0.08428119141066867, -0.05465003804566815, 0.09533140030784447, 0.04436375711380048, 0.061356853740915124, 0.15660751675047122, 0.06333988936624653, 0.09068950727862674, 0.11659158969164574, 0.1034233311560416, 0.1052460209281795, -0.03618811292426793, 0.01703548686741695, -0.0662250071580016, 0.10433917841931725, 0.012408340195737524, 0.030825723436744286, -0.06333522069747537, -0.045380891727753864, 0.08866690312148387, 0.14336531970038394, -0.06955158303982771, 0.01195196929014118, 0.040427862123959095, -0.06372479443610544, -0.058418728825979, -0.05575799833235608, -0.06095060458430193, -0.0011293386394205004, -0.026115985275469447, 0.006122824513447667, -0.1413577880415892, 0.04507622193922405, 0.007439357740216522, -0.04273032712464224, 0.01919007906397404, 0.15938222835958343, 0.11356609989055305, -0.00620341171940846, 0.03485272408692477, -0.054366386992874105, -0.01144621374883488, -0.015868570698034854, 0.13288524537745708, 0.13264843262642645, 0.09492293359964753, 0.024883475302459185, -0.1687478394953918, 0.0534918094623562, 0.013031617102093274, -0.15625264282991136, -0.10312171614203926, -0.014341523356154, 0.09237489856086437, -0.05394752153122495, -0.14655983743005116, -0.04751723201320674, 0.04489173040379119, 0.03473699854027152, -0.003067655311325242, -0.12757506711796826, 0.11558227633181571, -0.14179793416326178, 0.06150832425533593, -0.08767602665791466, -0.07629797042031973, -0.022826486799160856, 0.04206314880886495, -0.05241091895679246, -0.05466017848101416, -0.08071731165620287, 0.00547425400644538, 0.02180598532563558, 0.11099561509786203, 0.10221933545514726, 0.13047090618613597, 0.0583286206911763, -0.012339541554890593, -0.049426271462770524, -0.1096356774251796, -0.020081235830303464, -0.0024038903930100313, 0.11732524260704758], [-0.08025108827436357, 0.003962499872909038, -0.021672472087113107, 0.02568428618274779, 0.023992774153654337, 0.008874175564168077, -0.04049258659223229, 0.08570328522522719, -0.1436530279104592, -0.07803522138854128, 0.012073874465342084, -0.12245393441612998, 0.09041501349888008, -0.04588838114023791, -0.020756425370775624, -0.059349980475725005, -0.0552489858211481, 0.04576589834951797, -0.02579213147089403, -0.06556169484667189, 0.06489360799187942, -0.02836578052945065, -0.01103045981183051, -0.0531108085335501, -0.05954208329769324, 0.01964242770744014, 0.00880567597146232, -0.05082284317568114, 0.06724483568268079, 0.03299891801275354, 0.05863507496347657, -0.10737629805040548, 0.04865104653512443, 0.04985596819257238, -0.12455317354647853, 0.023083916511150628, -0.00615536727260664, -0.07279443299089704, -0.07728318397221524, 0.042756784935942024, -0.02060247619952073, 0.06790359818075835, 0.0206431532108505, -0.11926661375210261, -0.10343145340668951, -0.11234167358803766, 0.06933777501869837, -0.019291497829678723, -0.021847171700604413, 0.06593619259138415, -0.030443077111215265, -0.03283815861570898, 0.04945813323399839, 0.04419288121248083, -0.052597357620721576, 0.06697349219092717, -0.005645705365112422, 0.10510889656663383, 0.07290999898875937, 0.05326814710292978, 0.06577858894715574, -0.08098524913086089, 0.0066588055900083905, -0.042536823187226604, 0.05550577467117571, -0.025764621689882885, -0.0008001660909259708, 0.043483244703747974, 0.004713786412038729, 0.13898759667548993, 0.003867470246819318, 0.057558967162217235, 0.024917550000636585, -0.0063939461870499694, -0.0907272088870102, -0.005959388674571056, -0.0368195335887714, 0.06213458890169079, -0.05705363101410689, 0.005846909075615053, -0.024366222766144047, 0.034381680014003366, -0.007976199503214943, 0.0901064388865803, 0.00040598178466041924, 0.0646618523933843, 0.0024759610434452557, 0.02730159381317523, -0.034158254492845784, 0.052696785407585975, 0.079253326396946, -0.012545450071744464, 0.04394127348434399, -0.0047855171688725336, -0.03859932661501498, -0.015205467209910074, -0.08259032830643627, -0.043968880212786755, 0.04219030898210194, 0.008802473886202514, 1.5662535711969516e-05, 0.001667260442192808, -0.050236038380424265, -0.12589305734386755, 0.043950506187389354, 0.0830917232501187, 0.06048027300941119, -0.07152033312227056, -0.03981867409830396, -0.07169668063684807, -0.04066466945839458, 0.005828424712981701, -0.038381768451552445, 0.019554216175835568, 0.021824680314718157, -0.014712292200009592, -0.05074977779363994, 0.07863272903638514, -0.0809316875741218, 0.03472580068953436, 0.09153544188327702, -0.032881090854585716, 0.04323266625507862, 0.03186537518448028, -0.03468611506346599, -0.005181246083725072, 0.08155497974766307, 0.015398317115835124, 0.09339157745229784, 0.0035119251996691787, -0.019058599077080705, -0.04082019552625125, -0.06468329678408692, 0.00449677931471455, -0.021428846600287467, -0.030796638836582606, -0.036255932423643764, 0.07986061863232319, 0.08963722909234201, 0.08243690456330412, -0.024407193786687056, 0.042839796946831744, -0.040507019606617976, -0.013115903232703853, -0.07245206610978353, -0.016140686854754716, -0.07902236671546647, -0.0779670130525804, -0.08103503732874229, -0.19040900617867612, 0.011862043281867685, -0.012356427887320161, -0.027006032019576395, -0.12569522505932895, -0.08535685741236433, -0.01465570574455801, 0.006349494431172725, -0.02936858236992361, -0.13574550682865197, 0.02664367863475681, -0.009582017527954553, -0.07330617242398904, 0.018888703598486215, 0.03364024835640478, 0.07488347723266878, -0.14576843646352564, 0.043138520781953626, 0.050554319231723384, 0.07075499981783444, -0.026210255962628503, 0.029466898559949217, -0.12158383571574083, -0.12245066043397787, 0.08546342775090186, 0.03699066212234621, -0.159398553236933, 0.028108727984101835, -0.04515861230931769, 0.10398624384838767, -0.007451100972103668, 0.08215629153361631, -0.142290437197339, 0.0794532543153921, 0.0022549485712707986, 0.048314775043958494, -0.09663868354154598, 0.07958603025672879, -0.09463695946877138, 0.10220594028437072, -0.15080297365830347, 0.029830131120132913, 0.1131592123664821, -0.07104912628869162, -0.06418910837659315, -0.021226291431072665, -0.11252265694856561], [0.10595151293783926, 0.004448005786780959, 0.10238365573715799, 0.061252637681942515, 0.05743434266912145, 0.044439390140901674, 0.008594462492381523, -0.06713865563154625, 0.14246040031222215, -0.1625393174474944, 0.10765002791659344, -0.12316136963365444, -0.10378033836256817, -0.019244574286532038, -0.153103538550504, -0.02595477447180747, -0.003768850548895952, 0.05657167876011898, 0.009950935091673, -0.08438930776669903, 0.02970506493878806, -0.016174705979579224, 0.018231784724678683, -0.08647220197333913, 0.005214342584579873, -0.04873745680796679, 0.005025376968615423, 0.041103381260640344, -0.07647284108984047, 0.015661221461794737, 0.11876601880609687, -0.02826238591530492, 0.057116294893485554, -0.09364497798480446, 0.045507346852554455, -0.04550723053850808, -0.061708692961430126, 0.16789377489376583, -0.01919545491048624, 0.007052804576916117, 0.017483445967239438, -0.08172059257839608, -0.05520305141195479, 0.06744539747134058, -0.049583901833423746, -0.0695896055131835, -0.0816195188334548, -0.027055827264741227, -0.09150432633742188, 0.04271052536801967, -0.018097687549337292, 0.019498860596036553, 0.05285235960943794, 0.004458504947357084, 0.05178993133885132, -0.06801270100176862, -0.08234787612902011, -0.07382420441657908, -0.0044406861948269845, 0.12451320375367156, -0.0963047548120484, 0.032194407367804156, 0.06301426525852724, -0.12858864681175036, 0.007719798975682289, -0.0003913621453681905, 0.03521204754949025, -0.1342194839389752, 0.07344400611391305, -0.05310141775861011, -0.10854838206395245, -0.04622252227925195, -0.03464999826320203, 0.028498526160834557, 0.04856198654038224, 0.010387223910696028, -0.041298854546925494, -0.05664425907753822, -0.025268036128714418, -0.024069809613077198, -0.006485030118780568, -0.0008448546375463671, -0.14952045040030612, 0.20955444516789126, -0.05118484055111109, -0.10054207331640008, -0.06685167900773685, 0.10493906927137585, 0.04936226381906085, -0.060025785084718716, 0.06209028643573597, 0.0356434803311747, -0.04878193638147793, 0.03172879105276628, -0.056203465752151224, -0.03708081698031589, -0.1032893951447293, 0.03226191840722442, 0.12341351669533798, 0.1469830780166214, 0.07833401600273242, -0.07714872081629406, 0.0906392266959377, 0.04736128219417785, -0.02922587491815468, 0.040007615746281006, 0.0721745414335647, -0.11222153318340303, -0.027999333005575732, -0.021373822403931354, 0.05095202087236387, -0.09337553024022864, 0.0377673586888754, 0.036381074186407944, -0.11264450700386049, 0.030429135308517086, 0.052262492141016546, 0.042947477714596186, -0.0006426566895602462, -0.08366201576986924, -0.018267207381671386, 0.09362383957571421, 0.0033854714361210873, 0.036783817223094796, 0.0004382654285093747, -0.11409044609342853, -0.10758648022488973, -0.003739603024402594, -0.08867664038586459, -0.0326936471097758, -0.005385716749389378, 0.047656263543868635, 0.018868961512259884, -0.056914533007998945, -0.004448952511338108, 0.05667113912134139, 0.1279009489067751, 0.04732610829066055, 0.03837078494516224, -0.10422576238522951, 0.043445057330809146, -0.12706341245590727, 0.06885681418829112, -0.050344702685941926, -0.03990718671730206, 0.03149923238358868, -0.02806928751025885, 0.06554893431754383, -0.004462382207599377, -0.07482345071741796, -0.011472774281845557, 0.039824448156575924, -0.0990742284794818, 0.0756418185405464, 0.1276320738388893, -0.04284757206458673, 0.06220187026929342, 0.07249421664409238, 0.01690266000945678, -0.04149626917961886, -0.15738002863069667, -0.04268778756674675, -0.0652077356069579, -0.16381749655999692, 0.011838525353432628, 0.023607694561559846, -0.09931101743354827, -0.06854006944068315, -0.005343806895880011, -0.017659138687197654, 0.004005774104291046, -0.12153518832412374, -0.1470587366999629, 0.12971560413515484, -0.12281081124580147, 0.0428801057976236, -0.04280448888255491, -0.007367915324256919, -0.048524113521333345, 0.06159902988666224, 0.04415211233861219, -0.045076047976406804, -0.03312617061050954, -0.039730564535918854, -0.014502607160947648, 0.09466642529638605, 0.05531060581780867, -0.0418621708065473, 0.04340774835462465, 0.03507236206297257, 0.0003654896899384906, -0.07100596842309413, -0.023233746056654746, 0.0031307709613946928, 0.1012209295664975, 0.02158842812332074], [-0.016814750321235916, -0.09948186009509359, -0.026365428588381434, -0.010141717591775158, 0.14618273461433598, 0.037289595560070804, 0.004248655922657327, -0.03648492001363979, 0.06612808655526037, 0.06954151766745872, -0.07674054166342166, -0.0798571141044573, -0.05499770578979951, 0.006547029269203759, -0.041470299761420255, -0.026482944457960605, -0.0393393218217957, 0.008629658298986286, -0.0028656427779025903, -0.028462429948990654, -0.09606046394312971, 0.014700208907820887, -0.11819579102683697, -0.11719970782023792, 0.06649489848680983, 0.07947516165451315, 0.04533990143756052, -0.029727469841042218, -0.005531216842830882, 0.12137314357776799, -0.03687523017390745, 0.017426985141484195, 0.007531685452471516, -0.048237715185411055, -0.07113445862675839, -0.007148202443374281, -0.08751476711823777, 0.10616825067530597, 0.07679655651170755, -0.04272514524870925, 0.021037030707706256, 0.1249307338456494, -0.05602854844847567, -0.04135045150511685, -0.08096594992250225, 0.05502771770351208, 0.09108616351577804, 0.048576983357071474, 0.03293997700946277, 0.14343262044332025, 0.02125805518398498, -0.07262730015460822, 0.07759140727290148, 0.10357197303511101, 0.007453465699887982, 0.008348169727229036, 0.04416654559933642, -0.04520052433675307, 0.016099856677019204, -0.047239912634784095, -0.08272637048598894, -0.02550288685901772, -0.010845479032941995, -0.06590499584740095, 0.045615457160129096, -0.019396328386925298, 0.1154762842847799, -0.12815663538898908, 0.02895760998876596, 0.036865986450248286, 0.0906528483518694, -0.09156949783717164, 0.029553522308676652, -0.02951518942210401, 0.0043319198171135305, -0.0387310143885401, 0.08624221265273357, 0.06512872713829054, 0.05712310566014487, -0.04208208389689443, -0.08231928100120378, -0.07574324411451126, -0.06932818195164084, 0.05907809881335501, -0.00785269937527584, -0.012327598067082017, 0.0898560466346413, 0.10798704205618158, 0.042639418872661594, 0.12336236535387513, 0.08990487797832364, 0.07934790670855171, -0.10703240836297322, 0.0004235480369727798, 0.06551663734364768, 0.08843535082482917, 0.003916266849581697, -0.02068978222296181, -0.011212493704443426, -0.04134955855544052, 0.0585572412602167, 0.036171125688052204, -0.03463367660607234, 0.021063723634781834, -0.027838940874886645, 0.045129334492725694, -0.10302713169414209, 0.001040980280024322, 0.0036442578499910495, 0.07195592148288049, -0.0015130725471613957, 0.106338024402457, 0.11850596576119894, -0.0990346766376869, -0.01463992936030065, 0.0025190391644996446, 0.0017500315361091098, 0.005433962946779851, 0.12622952617513347, 0.045132133851693956, 0.011716388981061768, -0.11782039244978701, 0.02054793705301956, 0.09679245595174187, -0.04072219418837272, 0.016911312589186673, -0.05381953821659536, 0.0630034001595327, -0.1173499921203244, 0.09347290310303358, 0.0742258461841007, 0.0342481989805461, 0.004790700515633772, -0.03601488957205392, 0.04316996522032704, -0.003964073026008579, -0.01361572901036622, -0.11243444203375198, 0.0508225808554065, 0.09591905533879563, -0.044959364996306275, 0.06851694848103757, 0.058769706459515764, 0.10889896031295979, 0.12993975300240632, 0.0543404497382514, 0.03287790875591135, 0.1522540293191472, -0.04854200049925167, -0.04543967870994894, -0.005790286079061038, -0.0391815830917553, 0.0700118194485353, -0.10313932538146872, -0.02791989535461816, -0.0789536359279557, 0.005933861664120645, -0.07407110178049635, 0.12069141543619762, 0.047902992467863, -0.05802482687198775, -0.0064681759903444346, -0.025349813706418343, -0.10120987007613445, -0.12030792144187288, 0.050346285670680675, 0.06436776924824311, 0.011168411450092454, 0.09628798971671383, 0.05676183741377201, -0.143139324693729, -0.10623640819974091, -0.050835205621322356, -0.08732576418812504, -0.05873395040514785, 0.060494137841488244, -0.08200760196584458, 0.08363299580995491, -0.14729759395141487, 0.13435323081237274, -0.032222169116247035, 0.03733686856311638, 0.01893408200345385, -0.009523257178090874, -0.0897638255076732, 0.025370360091755972, 0.028188193305209403, -0.01781679311047727, -0.02228147327191317, 0.12931624818832407, -0.02280627361518225, -0.11256842921162931, -0.09076599812576353, -0.0008118797911841197, -0.07471543952620768, 0.0663866454964232], [0.06638865083639066, -0.18963427144917616, 0.015097262230921935, 0.14404805592079362, 0.06806642228923367, 0.11550826824886543, -0.005342087359347116, 0.0036244250245663304, 0.004152122205503609, -0.07101113497164464, 0.07149721522023834, 0.06438716238485002, 0.00019695657922210277, -0.031246659473720774, 0.042939593543274396, -0.04691147766070923, -0.007265810941317273, -0.043470419610162805, -0.11764180829347524, -0.047004928156495054, 0.004935198263501373, -0.11434269163078331, -0.03931041761081834, -0.00212582695482091, -0.012355032615708878, 0.00147168502954728, 0.06216024328594159, 0.004823065261381868, 0.12086903103827429, -0.13424353448879678, 0.11857795495937073, 0.10725022961492212, 0.03896511042928632, 0.036449198490898976, -0.04477153267019574, 0.03964650074126046, -0.0047443360887345215, -0.007630270954838001, -0.026750317400474313, -0.03227988595225614, 0.0829434542887286, 0.13497344750497142, -0.008888605546672083, 0.040885683634503955, 0.14860067513738887, 0.024950759108699417, -0.06408057867004355, 0.04427493808790138, 0.005441646781735322, 0.027267488652528954, 0.009567239149210238, 0.013461161524847878, 0.027845588387926654, 0.09464442753303391, -0.00622979511493651, -0.061694348493900174, -0.16063889340376478, 0.04528134951008289, -0.07044925324810397, 0.1376102207808925, 0.01520855161099183, 0.09086066533071854, -0.004082632605216337, 0.061542286793640384, -0.09902097376193246, 0.16172823730211594, -0.09267799297712784, -0.046258596066794354, -0.06521079634276558, 0.01831401472293148, 0.08724024551313538, 0.06589147418223339, 0.02871131697916919, -0.1302245655698488, 0.02083041576247668, -0.025526345532635348, -0.1036012104891652, 0.0319209203696644, 0.04281552147948839, 0.004348165490954106, -0.14622573278679565, -0.08743840823381457, -0.19006150109074627, 0.005418601081309337, 0.08170723386076899, -0.044963735846146394, -0.005404125788591418, 0.03935521663125717, -0.06462526975650983, 0.06713780050763203, -0.00820535584123491, 0.053843418456522824, -0.04550745512615482, -0.15883645864907472, 0.10784455339956621, -0.05669286403709169, -0.04857100960245695, -0.08250484424630812, 0.14143813948834508, -0.025691380912699246, -0.13341530431037132, 0.026036293291584103, -0.07510732572488721, -0.03712538733370471, 0.004645438095493129, -0.05203786293978192, -0.03495144367087464, -0.05695125142666151, 0.006519075023810898, -0.05794324944437752, -0.10962927528247401, -0.10528128960811071, 0.06583589026737319, 0.10599079115165894, 0.0039798179522750575, 0.003471400444009531, -0.04823879126561429, -0.06051595391762179, 0.06291752296641724, -0.015434999435464714, 0.08571890537641927, 0.05262763042655144, -0.007418071507585758, 0.0397999513823187, -0.0510256008351753, -0.1272089061351793, 0.17703255902058987, 0.03818793172260042, -0.015059174001679328, -0.10309403685284316, 0.07047409475664033, -0.01626392734009082, -0.009698567573648353, -0.03349185224831944, 0.09772103816699451, -0.02144324512282978, -0.06894536592226756, -0.010914123206733864, 0.015515234530192476, 0.006959847033383812, 0.13809564090540263, 0.06233258192001003, 0.03781414530965221, -0.061222298501025126, -0.008704377508034516, 0.015316533807799407, -0.0025657442203647204, -0.1419003078192947, 0.04556615192055895, -0.11536114711843344, 0.09559593238262262, -0.10785513144678725, -0.022610203718264974, -0.03547398680924656, -0.0676700856951477, 0.03189023148708968, 0.044416462696467374, 0.1333165162246792, -0.004795528820977714, 0.05903243051818498, 0.03701347415820381, 0.011507711918917257, 0.03814035576647998, 0.026410049141450877, 0.004393290350425702, -0.048603414457813715, 0.15279769887168268, -0.004023015274407334, 0.07284463173632882, -0.035023633899021404, 0.014894394440693404, -0.012675710810137748, 0.04646800007629099, -0.014431719780810804, 0.03668734258404881, -0.019245445963966955, 0.011891441184978134, -0.05060423805100681, -0.10148999769176113, 0.003977548861775473, 0.041318462417579964, 0.06807841421624627, 0.1310607081175983, -0.02117690299718164, -0.09393512222389781, 0.0330288140799306, 0.1684831952412041, -0.0400093073646048, 0.04608363787112395, -0.03169198227797907, 0.03569438321626565, -0.04790788352401538, -0.04078086135531091, -0.11924200289958331, -0.060028569200359636, -0.029555480958572036], [-0.046280105178392004, 0.045846221656784814, 0.06837188528407978, 0.003634984670837876, -0.0728967128899758, -0.045297680299660865, 0.03523106592422106, 0.00950928666760304, 0.022063334214386405, -0.07451346980425813, -5.949940835018683e-05, -0.05751336872559202, 0.1438528204108053, -0.1365477246768718, -0.1268273095885975, -0.1654168416888854, 0.10386203434356069, -0.0641951726623071, -0.11741591877130558, -0.01686637120639599, 0.018841834066409702, -0.012737367516264694, -0.02458315048459157, 0.03631901794012795, 0.07977041375823746, -0.06402620669692036, -0.05114524216541752, -0.04475047423850628, 0.08023125814535582, -0.15077938946426914, -0.08958697286008367, -0.044789634016425176, -0.037693361207904744, 0.06553157292415208, -0.04259881494173977, 0.04267133383797899, 0.027379673965527884, -0.04645248557476836, -0.09209640271042877, 0.0890163592004147, -0.1151255009346054, 0.1050329726686019, -0.04729454779604206, 0.13688882940781205, 0.03980975874367515, 0.02084531555474814, -0.0040676000055322094, -0.035965852945557285, 0.03685431495466626, -0.06958563878584216, -0.0746258936012177, 0.03621483528235459, -0.034881208824337075, 0.043813026944259204, -0.02424350517498305, 0.023821620731845225, -0.03058247172099298, -0.06660620961807592, -0.0006430250443407649, -0.012786604447127979, 0.030354683324657253, 0.021292056551943644, 0.02803773549472937, -0.1907936907116454, -0.05639123410203905, 0.044411693980341, -0.06501403465785086, 0.07485300636117512, -0.17013934573349912, -0.14021839548882692, -0.08607539336695127, 0.007033195309475467, -0.07379751384952163, 0.15612489186344636, -0.1250829999432577, -0.08275665923620848, 0.10742066875590188, 0.06785464361440978, 0.003325201910725249, 0.00900372450041163, -0.002190539931456085, -0.08722081525666801, 0.10477955340637188, -0.03796085430496332, 0.08409433137284467, 0.028569647906335153, -0.09303609039750811, 0.10611010393530568, -0.049807735599315575, -0.052596258316139545, 0.0015684772355240852, -0.09571409761228561, -0.0458826925935489, -0.07498576957114143, -0.04265914547829652, 0.047983928654223774, -0.038785906478061294, -0.035766239572049885, 0.009739684311384502, 0.11181992987966598, -0.03354373114773353, -0.11858120872582359, -0.1281745108178603, -0.03748712701045841, 0.06504006758207123, -0.08646882703025334, 0.04844219853953671, 0.12317184870237895, 0.027000810091335314, -0.007519220052515511, -0.030639222301226284, 0.03675766411886019, 0.07100133188387331, -0.020518651622157626, -0.07084408527172101, -0.11497849504829848, 0.16179611292694338, 0.036558865929078706, -0.16932593112452024, 0.03963314184059016, 0.030370130071285056, -0.05263627582214981, 0.02716813570625157, 0.091534358250479, 0.041747302940777796, -0.08733279556969485, 0.0170924974811601, 0.09699708389483636, 0.09412123852218739, -0.03623219362605255, 0.0724244927643841, -0.03377732768762583, 0.0061733580518010915, -0.0315422985927385, -0.0016022572717898965, -0.02307962312395322, -0.0039178056864719885, -0.044766216640547744, -0.08603296691282475, 0.1123586224281964, -0.09530858091473204, -0.005048023171146686, -0.19503643067109, -0.026294425642921313, 0.08453694624597397, 0.038867730527888306, 0.15594314583186958, 0.09875374739077175, 0.05073065557037144, 0.03194198761976451, 0.05880435613101247, -0.06577337958382451, 0.08584761716210924, 0.04587912672512586, 0.039498876934752514, 0.052487386362913016, 0.04114777167535325, 0.007171845914093962, 0.0462759687280719, 0.03343542345875639, 0.08845613081531535, 0.0033921134247285826, 0.050535000658646426, 0.09628963424669658, -0.12966854036614492, -0.23258980977882876, 0.0033970133042453957, -0.08323705935987259, -0.03002766569632751, -0.17725810201306974, 0.029276689525099476, -0.024476838918848616, -0.03329073293786498, 0.04394588838690679, -0.07387031418761261, -0.0693569813507737, 0.025865092158032704, 0.12722767565168783, 0.21855082768820466, -0.01136732179303895, -0.01253404123489288, 0.07856861107901637, -0.05002783322506318, 0.036526172829695676, 0.02831807082232556, 0.06999859021036176, -0.11269117542198813, 0.11992857236730028, 0.08495009684358792, 0.01835345935254475, 0.0456288193428533, 0.04825267804227546, 0.006787499792632549, -0.010539137658299681, 0.036678056675749936, 0.08572701653088527], [0.08842713032380052, 0.052414110918520516, -0.148441807562396, 0.02744781949821401, -0.00870648022611098, 0.14238848048601951, -0.1385854968607141, 0.03877284988941805, -0.11624261096444052, -0.01850775258041071, 0.08602427606975885, 0.040546283755771566, 0.03237280839400499, -0.08006763181219921, -0.03182453967181626, -0.09337523375707935, 0.08454683542736391, 0.10283291191736581, 0.013292258652745562, 0.03725180022957142, 0.0807946272892229, 0.04628546678163415, -0.03955910215522766, 0.059964406549479765, 0.10406280007638512, 0.03345866988613096, -0.08424197155341333, 0.039893154611607876, -0.007336036149035377, -0.09761741592503227, 0.14706959291532762, 0.004415290114127431, 0.02606451350626893, 0.0149210553910642, -0.11683143422321264, -0.07662169499020388, 0.06009991097364067, 0.046941771295965516, -0.09191165432929005, -0.019913694935715764, 0.04179394057231718, 0.1738829689797257, -0.05795881936886522, -0.061941662176562225, -0.20616215346087685, -0.06708374894844313, -0.06830272760501038, -0.04756474230533417, 0.011062543085279148, -0.07372797303695469, -0.047852767755246696, 0.04564225296432841, -0.03902070830682665, 0.10918910668069483, 0.024913408121282572, 0.05020554702413885, 0.06376106603443325, -0.1170744326400621, 0.1059699626942964, 0.04612581607237874, 0.07570490427995374, 0.05170018685220971, -0.08055497820229653, -0.09641404498819837, 0.0722163157575071, -0.03411106543900064, 0.08908952978987224, -0.0048860564025978515, 0.002575311186363878, 0.026563377325615818, 0.08929375665184543, 0.15790355450565108, -0.00575078774818988, 0.10484133217030059, -0.030689717540263322, -0.007639726346879946, 0.03028491731819931, 0.04684069213721097, -0.046276488876748005, -0.14150644299259457, -0.23791402867554906, 0.09388407559356889, -0.013206151462275321, -0.02485749924416581, -0.03739750559768041, 0.004290150181259382, 0.003004605036914045, -0.015249795206881826, -0.017286672647789103, -0.07683162941623695, -0.011176596484719612, -0.061310803144497404, -0.024962150493420463, -0.05540159465657023, 0.07351309469344379, 0.01546343875635818, -0.08294671117081631, 0.08252258633917621, 0.037777270361236154, -0.03896213643832796, 0.12715200391750375, -0.013114770205014704, -0.07974148522402613, -0.02920609635373127, -0.0025002266926282646, 0.07979039885458876, 0.09810300106541957, 0.07642437858742614, 0.05484733325365205, 0.05967275324787795, -0.04624078654207678, -0.1358428661369842, 0.05094847208287216, -0.0825250843301249, 0.06210693177016255, 0.04145887153145408, 0.03314740315673514, -0.07809908644302178, -0.06659699297712617, -0.0168286665873394, 0.07959573079701242, 0.1278686113409399, -0.009385025180203644, -0.06579407475900019, -0.0015032408268623326, 0.012474026413370186, 0.012225948067040015, 0.0021483798710447326, -0.041091550056886895, -0.05710839512198531, 0.11546829256140267, -0.019567614250097662, 0.07126899438209429, -0.05289734805089056, 0.010634136058068913, 0.008930090560750307, 0.04598901233688365, -0.034726131877081845, 0.05988418395889345, -0.07968415152798507, 0.06771434099242557, -0.06888816474623233, -0.01174038107487598, 0.08095968702358779, 0.13934566207339816, -0.09804279802108999, 0.024472948043979977, -0.08137043039032713, -0.057144242410877434, 0.12113791254031953, -0.18140843394647543, 0.0250028982000449, 0.015929830189565432, 0.04687956277059132, 0.05514141962008981, -0.07440859269312526, 0.057659127783758014, -0.02301941986493264, 0.002268654355243429, 0.13682079275480347, 0.14920401393001453, 0.013557935327254897, -0.06015711295314392, 0.008196410439883017, 0.091013591277289, -0.07338800607508691, 0.009534719474318352, -0.06974092457436087, 0.09259454627252524, 0.03824412031568467, 0.03373117563819043, 0.04333747180662885, -0.0955824184948666, -0.06282874940636159, 0.049707886953185544, 0.10405110954340888, -0.009685442169034456, -0.07037992692738469, -0.029465839801362262, -0.008073378778106837, -0.012344668651278392, -0.005243595195255566, 0.06102669815770048, 0.08857663673617915, -0.06935593787982991, -0.05488192563937149, -0.1480336041490117, -0.08827841495025472, 0.02503593739228769, 0.08547473064337038, -0.21049527819899994, 0.028996112297110372, -0.04141990440674625, 0.047356125689958374, 0.004012746329228319, 0.021471247881483357], [-0.14433853711251476, -0.08313879537034166, 0.04683181060332645, -0.03138625972194888, -0.025376677152379054, -0.07378876166752538, 0.17371409882712927, 0.0009004375013404832, -0.009849702932788477, 0.08225543070336272, 0.049103950874866936, 0.08494610521638872, 0.08289171480736508, 0.1656784221813602, -0.013468360900267581, 0.04347109877260974, 0.05665252202366474, 0.04831118987229913, 0.0036238381763269187, 0.0827052846843145, -0.01700428201012622, -0.10370744115350168, -0.05260606202677941, -0.058464329336684454, 0.10435335743361232, -0.046893964904245855, 0.08544450034302548, -0.13863156713007244, -0.04473251370954707, -0.08418427168960775, -0.12890289149010087, -0.0855055920440884, 0.03333151260734873, -0.09816505157775064, -0.10341349908133919, -0.017393197604572846, 0.047401670862853025, -0.020582056947958324, -0.015757941340530626, 0.016313555477280015, 0.043284560216203416, 0.07958092830156774, -0.04551435459510223, 0.05871938026490004, -0.0020393956586457016, -0.08748414780728847, -0.05229556391317668, -0.18291967448479668, 0.06442315934328036, -0.018361265075360688, -0.07499382205542893, 0.10177556742194398, -0.050388500590540244, 0.06336121474690348, -0.13491574173842089, -0.06067604357624369, -0.0968422534910168, -0.030733180147777803, 0.018107995955024027, -0.051032095736651836, 0.049560061150892926, -0.0816912780835705, 0.008398691706906054, -0.03675540838461092, -0.023598275205201788, 0.018439889322438306, -0.08838314123841066, -0.04823380596907687, -0.022027091613653838, 0.046404960680647485, 0.02036351750641114, -0.0276154026023602, 0.03314599726584888, 0.04099539624035313, -0.045546341861142224, 0.0009401437081516455, -0.0547429926464179, -0.046342410575632854, -0.05295308069707354, -0.11119084102070714, 0.11219116957457415, 0.014710376189149292, -0.018906476758746304, 0.16271442023364743, 0.017038505928654506, -0.02970051454592368, 0.03449759426833838, -0.03801978789070228, 0.007207163956477479, -0.1258438216101232, -0.008287968602392042, 0.015047119366292992, -0.07744901211859345, -0.0306879052437467, -0.03118509529113785, -0.15261206316098172, 0.046462979321950176, 0.003388369163451935, -0.014480824831404091, 0.09222703910801375, 0.01061784091625025, -0.03650934368381557, -0.012755138434281802, 0.09699250954824626, 0.040371960050713106, 0.021473312848321255, -0.03118310879641125, -0.05920871893965664, 0.021927885022919407, 0.034462459323043496, -0.0005831279946091674, -0.13414017729758346, -0.011320666982084265, 0.07757213767106602, -0.10610421404130185, -0.13857465731979884, -0.018201242603467213, 0.0963343267006595, -0.020877454947410563, 0.07558128886174464, 0.035361493225500376, -0.1045033221682048, 0.08059275564020864, -0.21832390585063538, -0.010360359341715364, -0.044649910157326125, 0.09356513934423558, 0.06376884915922024, 0.10942821432294751, -0.07829475505512401, -0.03755597998448054, -0.015323250160963264, 0.010080235799518321, -0.04240448620557836, 0.12425531803904581, 0.04418986927990301, 0.013327382141520865, 0.028772798070334626, -0.08982909714672253, -0.0705643259525522, -0.003200441099329798, -0.06014079757897221, 0.02492260039752298, 0.0980061804234146, 0.008755333319865605, 0.09974769852976927, -0.04152340574075632, 0.07104221227098788, -0.09624479383450378, 0.005066635011356734, 0.055213635097007475, 0.06618459962643457, -0.02358037208942792, -0.15691314415563398, 0.09521747386583514, -0.05134825301270405, 0.06275303164048364, -0.11955997371596422, 0.07110018712903447, -0.10037731844994835, -0.001106234568466955, 0.007464852996617698, -0.05059579862918763, -0.028035451521296256, -0.02766032459720872, -0.03665543070043847, -0.0059323713182887075, 0.04342406180657412, 0.033582498256373106, 0.14719493292305344, -0.0005862664309399282, 0.06731758275288625, 0.0668292661565448, 0.021784892892740673, 0.0341598407242166, -0.03772382525729677, 0.10281451470078631, 0.22766884530313436, -0.1267885385811618, -0.10460950068927005, 0.060202247669545725, -0.03813291460812773, -0.07832911566624974, -0.00820211799651521, 0.028819572785084475, 0.026303542050739193, 0.04468921130399429, 0.030850360238636472, -0.11492456786760853, -0.02805760803365298, -0.12708200894008811, 0.005676021570123599, -0.08214574283968495, 0.12093590387586066, 0.017517436929870327, -0.03829152592753607], [-0.06133155673415772, 0.04208308450066647, -0.033720949607375435, 0.12538017769702509, -0.06589560273472063, -0.07635574687549566, 0.02464439357394083, 0.14386448233205137, -0.04442900888792613, -0.002152049333866149, -0.08205273316983014, 0.01679850798288438, 0.09921843645459157, -0.009057398685536627, -0.004501432474169032, -0.02108573991498507, -0.09168926283822323, -0.13290098672036157, -0.032768276845409644, -0.08475733644966608, -0.08080332570933305, 0.02271070148243042, 0.0112041151619755, 0.055558137716861904, -0.03335939809938114, 0.05969191798050565, 0.10512373302309756, 0.05079153601142961, 0.015181743045761425, -0.06860065538750296, 0.07767914127526433, 0.04811026285202711, 0.0988831834933531, -0.02637326986249153, 0.024415892208500264, -0.006286796673192894, -0.14388604995612564, -0.03403599376854981, 0.07335579461905355, -0.026172659119718805, -0.0016513252636714292, 0.026252465208317498, 0.017456437254461936, -0.08888724242187439, -0.06935171426467687, 0.002829316818579787, 0.155979934114909, -0.11517857806804194, 0.07492777018284233, -0.020599536874800532, 0.05475213659102171, -0.05560202981603321, 0.02978408597393979, 0.008745557057671216, -0.09797221461557735, 0.002053621101338567, -0.003801024608733981, 0.019708133173236483, -0.02378717341986679, -0.06204563709084489, 0.027013528983207333, -0.008626268337774825, 0.03633471581501482, 0.06797490309727795, -0.10432912233466927, -0.01863959912696804, -0.0020940755290393114, 0.107808473260034, -0.13370093081010373, -0.04677129150353936, 0.07463340976166787, -0.08067500449530228, -0.012415819892791946, 0.05602217477068661, -0.08726624788082947, 0.06934548947262267, 0.010427960429510257, -0.05107769540137175, -0.11663703180706214, 0.05201762588285014, -0.021502824296122717, 0.03997416378209866, 0.11412311355885886, -0.00533805452874043, 0.04120810547568073, -0.016435453558317673, -0.08193709947893008, -0.004167712759402632, -0.0743347721959153, -0.09285291332812468, -0.09206630745301157, -0.0040388900331013245, 0.014326443728020775, 0.08545516646076212, 0.05604994469075287, -0.03444664613748858, -0.02189345327552774, -0.05820918462446809, 0.01598905451296916, 0.11142719535854136, -0.04442165977841538, -0.10922903833372825, 0.018368879090506506, -0.022070275880977677, -0.0614821596388501, -0.006431090692661029, 0.058891764238332776, -0.0227879317150801, -0.006086077847072199, -0.0006379041533426203, -0.01503918243347448, 0.037981631480668826, 0.026533072609547473, -0.05180528324993334, -0.03151849648548561, -0.021444117698041172, 0.01424776404078543, -0.001347503132477037, -0.07084010190039931, 0.011908056213578896, -0.04148555427006374, 0.02506169239685367, -0.03749033565454298, -0.04149297088279936, -0.10648867805645372, 0.03338371747069833, 0.006725038013163962, 0.14828030967721706, -0.058090379923655795, -0.05810496847671524, 0.03798569495935652, 0.1269108231778769, -0.053349729083101816, 0.06093013482087788, -0.033094430740843186, 0.01625573512101344, 0.0508611056598697, 0.03035163559130591, 0.08634923535079045, 0.03293625238528008, -0.019422413786745536, -0.07560597122729212, -0.029022106165494856, 0.034278086040277586, -0.07624550197944455, -0.07280329595866725, 0.02450094575608021, 0.022173305299798843, 0.019539918553598254, 0.011057972386007512, -0.022798393181868278, 0.004478867621830466, 0.07330777205356087, 0.07987160008703521, 0.06428911038776111, 0.04566162609199096, 0.022163223091245653, -0.004418962874028158, -0.03219847852744238, -0.022916595190087843, 0.05352921400243372, -0.024850517700332978, -0.10413050708981422, -0.00995500673354434, -0.03155655625736909, -0.10384507528731257, -0.07116997796864405, -0.12463477267502693, -0.06358020418696438, -0.02598482758708523, 0.12229386519815945, -0.034618403775877576, 0.1985276041605208, -0.03830036359837976, -0.023028665394888955, 0.13167989311682182, 0.0023277190702497698, -0.12891597705145805, 0.05611962097355672, 0.03043029768011585, -0.049007288136230766, 0.10294624166901505, -0.02542633515537589, -0.10255604954430635, 0.00956533561537088, -0.010947711793359958, 0.09248372844208463, 0.11733143777884393, 0.018710179495879303, 0.09986815429466377, 0.062368418500120815, -0.08267115703493833, 0.057532124425987846, 0.1666326214751817, 0.00959232463004346, -0.020289954624580303], [-0.04477328577850745, -0.08699927597422881, -0.024285182463802138, -0.12106757983186059, -0.03492500790946723, -0.005936272524946454, 0.03780465021932208, -0.14832241301481686, 0.013933478282929304, 0.09617478695097259, -0.03337982723641298, 0.12146050093016687, 0.04436169333470492, -0.08635381771343575, 0.02715641048520501, -0.01215288242680021, 0.02480638640154196, -0.0914823274038222, 0.0005049727734159178, -0.07355199691154639, 0.13027160440719213, 0.1012021515813524, 0.1415911785356694, 0.02618080943387031, 0.08238588986677786, 0.061633762737800524, -0.09481638257054964, 0.03829306292592606, 0.03026775667130835, -2.4091864380617186e-05, 0.06374218727837137, 0.05555861881428006, -0.2322771956996329, 0.12497354928909814, -0.0018047042584443324, -0.12639076203157146, -0.02061378304750141, -0.03188697531636189, -0.02713313139322474, 0.04611269608889932, 0.001160640117732695, 0.02514830819396924, -0.02013326713460938, 0.07488958232187527, 0.08724536846569732, 0.17762683197534257, -0.10317857706736272, -0.021340164970862475, -0.011117112672213011, -0.17641442221383738, 0.017475008599768627, -0.0588587643523961, -0.08114719843178222, -0.06935194954280488, 0.1303786092223151, 0.06444177345404706, 0.03837278322915566, -0.0839035480434803, -0.0037871695852378946, -0.03669029282745911, 0.018622661380063486, -0.05966797652319107, -0.013063818500851466, 0.18737968152965973, 0.024207627116860607, -0.02997083068323164, -0.08226023497976799, -0.07854271343779036, 0.14332452103354415, 0.10403159178681813, 0.020071600914736514, -0.11557354005738558, -0.10391117345700371, 0.08461803430328609, 0.017394034383629447, 0.0962873955104072, -0.07541609220368346, -0.12674005078071382, -0.07864114597559152, -0.07444044704444919, -0.04732928407293086, 0.04368197919932596, -0.023539745608389305, 0.12400491272779823, 0.11781659318588618, 0.05559041785791886, -0.006886749827010507, -0.05843626289531327, -0.031036390127378046, -0.10452431032199506, 0.12797914282033418, -0.09607367043497865, -0.07249728341036567, 0.008820829139442932, -0.044684338681709054, -0.011259414375423387, -0.1967015551685199, -0.08200698304135848, 0.0764888780915471, 0.013256376253651666, 0.0009819425942220762, 0.05173948837603777, 0.06400475935174188, 0.02237146217975318, 0.021361600539287227, -0.2061599694137416, -0.06476058693646208, 0.04236931557839946, -0.0019352050278120241, 0.11891126011371594, -0.053666743110688926, -0.011779602953801392, -0.02584353155633172, -0.03218919668515269, 0.029419791238394985, 0.02618025769321796, -0.015604922729993724, -0.03660628869299034, -0.07061279907938757, 0.03802333811306963, 0.18802720235993126, -0.09934591626552282, -0.20950887692634376, -0.01440036830031564, 0.04820897102610238, 0.03730757885897437, -0.04871800574174788, -0.0745834166401675, -0.018386720523871164, 0.1395951337408669, -0.05294390975524218, 0.125642165700626, -0.025651309880470822, 0.055852986205683415, -0.11498298712023135, 0.13515190049490183, -0.08835677058391866, 0.02709041477345044, -0.08182777646057973, 0.0221474177470942, -0.0006990863209275662, 0.1193606275605175, 0.014440775774642948, -0.03636739055042431, -0.07003396981001929, -0.10678608280127598, 0.0742080363271373, -0.13361612326023273, 0.019788092445138454, 0.06872812807703478, 0.08708287132653111, 0.060812427681565064, 0.11354056785314398, -0.0341911863272559, -0.014798724260941656, 0.08840520642854015, 0.03061473574535781, 0.03998825320687751, -0.08214267758852263, 0.07003345875781786, -0.09689913731284445, 0.0758935197780353, 0.01507817897108192, 0.0681553249254002, 0.03596880763385168, -0.04148706079965663, -0.03796408367960626, 0.012273737019622104, -0.015257180658768934, 0.05151956350127837, -0.006070611770645629, -0.17656166170179205, -0.01893510090989751, -0.08513003502588928, -0.1419346897865082, 0.05118142550149656, 0.033715298846291986, -0.019290086266155262, 0.0843930804262717, -0.0902782642126122, -0.08813994178895468, -0.010855881855993135, 0.08240601233932439, 0.09360339504101961, -0.04179910199979425, 0.02582611932078069, -0.03837164853224926, -0.04432062756926571, 0.2063144012166054, -0.08929899355792437, 0.04064765744701047, 0.036437913555274974, 0.007156443777228981, -0.009449571728958318, 0.05444389983030068, -0.0382743275112707], [-0.01240141296848555, -0.030173743070059537, 0.12697666006678507, -0.007227158323765086, -0.016207493952300086, 0.008662649865669378, -0.01244204099398675, 0.0008465841004568276, -0.14095901225613916, -0.04002194239663903, -0.07843287306782666, -0.09073238123343502, 0.05575264771888134, 0.047221296427624945, 0.01240331792776523, -0.03551227645346263, -0.028174064226022536, 0.09645002032803258, -0.07503179499651673, -0.02533113532807064, -0.031707990373782975, 0.021737206755852362, 0.013864104920924106, 0.07503653239343798, -0.07162613897695203, 0.07784530371045585, -0.10387468092366678, 0.009882253730729878, 0.05310665744738265, -0.05222349047127958, 0.02704491580181968, -0.11696661063240271, 0.0036665076094097794, -0.09356312696473201, 0.008276182708887603, -0.027052264305962942, -0.04183483561175674, -0.029826566478217072, 0.02098120237787066, -0.03865712528675633, -0.002949497751448325, -0.05490121667876298, 0.0052655255995793125, -0.02972016939780809, 0.0014934467399502144, 0.09182099860472889, 0.041471177217027165, 0.1298485700334496, 0.04013709265182444, 0.018037550848147454, -0.011122042955395157, -0.06665219366220977, 0.05382296902082182, 0.16987178060057145, -0.04559362933453978, -0.05459540207882934, -0.041926416923780074, -0.12647829885082476, 0.006233911824639793, 0.08038887143309603, 0.06831380723670881, 0.023151516450720677, -0.18115208628855856, 0.10585726138862077, -0.03751169905093311, 0.12226719843559121, -0.11706504512009931, -0.02706355914202472, -0.07436004078659006, 0.019871785616705193, 0.01074004298810604, 0.10530937524824115, 0.1640246267285365, 0.12374644051780664, -0.07082206708304706, 0.09712227144275506, -0.00832502506285564, -0.014500620781216524, -0.048570460788638165, -0.07489377133341417, 0.038462443535761746, 0.1288945547082876, 0.10011588225019014, -0.22110095900360408, -0.047197041455138374, 0.01419046112026466, -0.031064853128583994, -0.10332525747850899, -0.06069914065128669, -0.00030665250937757997, 0.012979153702366424, -0.13762080792979492, 0.09322696777418304, 0.014191028223786002, -0.007884338018809764, -0.05979851279903011, 0.05331608348964433, 0.04482295219717184, 0.11085699438567587, -0.16240501859529238, -0.08031010800358751, -0.08578040376574746, -0.04442484537914336, 0.1000433891546287, -0.060267693558701464, 0.003263276694139408, -0.02603352263908122, -0.09071278594318846, 0.058267103522952925, 0.0953364865713128, 0.04090672496294006, -0.10723741156671014, 0.06791439178174803, 0.010312259606823481, -0.0262869650863095, -0.029483445301572316, -0.07318925182004467, 0.0060101442990021375, 0.08844717443292105, 0.002541496533235747, -0.03895140985694023, -0.08053414238277368, -0.057471061532586125, -0.04409190154750897, -0.060790199122021674, 0.041489811137589684, 0.0741487063096822, 0.11777365562993228, 0.03476761020076893, 0.0035295312425228046, -0.014463556982812827, 0.07961001489798969, 0.02816503877305184, 0.015776868100907372, 0.06282145456475757, 0.02135039953850188, 0.09771526924971566, 0.03710644288598841, 0.04879692040037302, 0.03663962577256982, -0.09028407398839991, -0.1172596966051222, -0.02159547027013917, 0.04902123651938974, 0.030129768932641795, 0.05988063595122118, 0.12532367939219932, 0.07852669646035569, 0.07632069791330102, 0.014778020672372204, 0.0720332251841939, 0.08460255907970014, -0.009219967657446693, -0.00851368379944896, -0.007608849272274471, 0.06276383550227183, -0.048485252726263556, 0.07217819059060983, -0.04663862767148966, -0.11931767340664512, 0.02174206761159785, -0.08491199909244358, -0.12103018550001582, 0.051369465760208406, 0.13572160007647585, -0.021795428603661335, -0.05962927629051652, -0.08560063425162355, -0.03316246874825313, 0.0034433600118764806, -0.06711156204723359, -0.04067426130135155, 0.007388173222914545, -0.01456358852419988, -0.059639399669651726, -0.08913463465221733, -0.12401871752263947, -0.057773653270592897, 0.02435661283533528, 0.033166828516917685, 0.014879610206440705, -0.07685509918814573, -0.004240061615040811, 0.05070517033019259, -0.04764015679431159, -0.04354062007746112, -0.00882287275785855, -0.049732900540112375, 0.06400657171035908, 0.12236253470338805, 0.07861509115531709, 0.05211376284980679, -0.01865519351653676, -0.11534215815047437, -0.03715145823147129, -0.07695371990446409], [0.0022872376495503646, 0.19348980701048613, -0.04417565754536377, 0.10274868963291262, 0.09224305914147339, -0.052574049450164105, 0.06738608444611964, 0.07146773827139635, 0.05065308704650395, 0.0033485751799850042, -0.021518894781837817, 0.07238789878117746, -0.014444133242624786, -0.06486270604158245, 0.03178017976682138, 0.1537289014873431, -0.02513289350476063, 0.05975196531431382, 0.08198932063557211, 0.03419331779099642, 0.10570570921075341, 0.006960893435617347, 0.05323513338872843, -0.02986349105059802, 0.0016255865743229664, -0.011134712876086469, -0.052873521057893946, 0.10415577313033572, 0.028005955910306794, 0.074666124012635, -0.02604486154389725, 0.01958661391705021, -0.046135305975309626, -0.04883781442900163, -0.03742876052355574, 0.049796699038382915, -0.02409665682241845, -0.06272705703455128, -0.08007268680230013, 0.056032262405946304, -0.11458150596555486, 0.09734363337831028, -0.17049950025831787, -0.029239872663521467, 0.024986463630338716, 0.08189047542608018, 0.03962765035500641, 0.036417254422510495, 0.05740823574020896, 0.004272567848968636, -0.04872917201619398, -0.03503621089669, 0.0005578947499148896, -0.10599158632541614, 0.14822803591297132, 0.10439500557051645, 0.009038038486314763, 0.013111609593670567, -0.014350117828957093, -0.041282324431458656, 0.03555283701362923, 0.04600893458332077, 0.0025618862141436965, 0.11071759672202007, 0.13696659694977653, -0.015136450073804361, 0.009186663031007737, -0.0321225464896226, -0.09292047994523177, 0.028729406901994367, 0.07431205966252835, -0.05618443456729929, -0.039015008027840095, 0.0031016358408632715, -0.057203613576698974, -0.09597306883326644, 0.037857479187547366, 0.02557665049359023, 0.05205335006716788, -0.09263180695248245, 0.014226610256917486, 0.13312565058627285, -0.039670388556298654, -0.005225676265068971, 0.029612263196432446, 0.04614593099032203, -0.008540039741304805, -0.10165424855598132, -0.14061554801257736, 0.09608935486782058, -0.03135232364667393, -0.11663930991421892, 0.11906300675740233, 0.07627532164409916, 0.016696671389647814, 0.039649111708736716, 0.01585617899560253, 0.007473111979178838, -0.104716184287762, -0.012124116399383105, -0.082098135832354, 0.08656488435351693, -0.03794099629584997, -0.060246463874012536, 0.05114390691720451, 0.13132485134919017, 0.043048759036883495, -0.030365715386839263, -0.04173185046356169, -0.039218196541195516, 0.06837572084812484, -0.07615874418542479, 0.0021188724612358233, -0.006735363586608369, -0.037232076744926845, -0.02306303586645065, -0.1934193125284963, -0.021539373168743905, -0.040742826487376, -0.11293049608836203, -0.0018176550342766274, -0.009135556263418948, -0.07538452885209805, -0.02009733838271792, -0.06272603640539967, -0.05533659141336141, -0.006209553333599552, -0.10381733330705385, 0.06724165179286182, -0.014832661562567481, -0.008978824758600554, 0.046508069997181274, -0.09635441491160417, 0.06315196830839931, 0.03188788829424395, -0.15181258228562847, 0.015726415988722157, 0.09146114942633805, -0.024250996601764434, -0.05609597606106933, 0.06699590992426781, 0.09420885410534427, 0.06909233516260094, -0.027785210074216023, 0.0031597799689168215, 0.08529809810761421, -0.021795527561018255, -0.004497937113660182, 0.056764842244989816, -0.02138033164238924, 0.08971119184936327, 0.024145964999249942, 0.09955189393859566, 0.04900473098067926, -0.08798679251400249, 0.05158075366375048, -0.06093682871979513, -0.10475809169191042, -0.08275392044116842, 0.012834245680508108, 0.06948405033724597, -0.005148572630859448, 0.008458873231355529, -0.010731887303710852, 0.05732092281999413, 0.007079308033633219, -0.014996503132996131, -0.057331796987166596, -0.07029824425639468, -0.08453512196778208, -0.034836054477878874, -0.028587970317174718, -0.05049729172633229, 0.003032977452712343, -0.038669617371906086, 0.09254318218510005, -0.011153444965312191, -0.17435135448946115, 0.09861139999794442, -0.014603915149581597, -0.0477613974921486, -0.011367993536977355, -0.02652407233576569, 0.02267732867008271, -0.024678512922200763, -0.046706193927197125, 0.24547333715568828, -0.02143342908101598, 0.09437809158700354, 0.09144742908078618, 0.18935179703603472, 0.041387916839260804, -0.04540451485754085, -0.1476277100364182, -0.05266713987623442, -0.005676919713781113], [0.05926914266238979, 0.06321853289725798, -0.09115751724152826, 0.0657078798490788, 0.01615267121811348, 0.0024919434067834506, 0.034162580770218325, -0.04098792517327866, 0.07149609468717938, 0.10191379482032938, 0.07394006203651023, 0.022280711474316112, 0.02214831113058522, -0.010378867489858097, 0.050175442451975825, 0.030495169674827377, -0.025268635337741225, -0.10116960910400967, 0.030753709486275812, 0.03227508688467947, -0.08300200160420625, -0.02541325748544611, 0.07049304186967033, 0.0670755124487656, -0.013029909704179353, -0.06701565580945058, 0.12813971313255007, 0.08974514891422536, -0.13589619392631264, 0.08746659554710493, -0.14582402053263652, 0.027273301895314975, -0.022446699114582854, -0.11945971430102448, 0.012777065156315185, -0.06291139196649086, 0.053408638243643065, -0.20012085994196427, -0.04735562120036021, 0.06029735600344686, 0.02787898247713473, 0.0072539011150347405, 0.04742178326315947, 0.1277857304386716, -0.01600975504695644, -0.025683484796931527, -0.045084375518237345, -0.14888507544453686, 0.01983938876957529, 0.05473498963567914, 0.05816130583015172, -0.05538592717447069, 0.005981973745976277, 0.13009950983289786, 0.025209150964522715, 0.17454184300606834, -0.012649590704045914, -0.043422078707809855, 0.11969348525735742, -0.013292401657124616, 0.06607451512712963, -0.029448673952865413, 0.027640729136996764, 0.11060810381453476, -0.05493263231943801, -0.1420931901785848, -0.14458314245461984, 0.006864936915218079, 0.027211889179110306, -0.09197444073527644, 0.07638172676980648, 0.19110023111906774, 0.036450410234840004, 0.012651401473313525, 0.05141808296215511, -0.0516466152512566, -0.00430748268496844, -0.08414921366963256, 0.034574352490773584, -0.016049516268854397, -0.036116932870359185, 0.008339132390675144, -0.04610369103871847, -0.13927028539674588, 0.02454838238676694, -0.01405978951977234, 0.010848691845261178, -0.029165351068215835, 0.08520050846797637, 0.016551632021701023, -0.02816388488125047, -0.05427876765955799, 0.08766076540018906, -0.030061781835032064, -0.05694432940240022, 0.019101883159680547, -0.00642808484393754, 0.0036172397696254688, -0.017247194415001936, -0.015216914313528009, -0.07702282667926633, 0.0216378653743332, -0.015583676471245407, 0.06386740413003832, -0.06437398784198968, 0.00690577449470185, -0.029027527213359685, 0.008890398319420406, -0.015964078000122662, -0.006411649929592372, -0.028211753979719947, -0.02964094261106563, 0.01636564654434504, 0.012310120421772758, 0.07299593840489091, -0.08363795481981062, -0.0013094353952407272, -0.05710300892122223, 0.06244265912372288, 0.03401558564572528, -0.028264037697220606, -0.03622099410465883, 0.05940814147974535, 0.1020179849213051, 0.0923299926769968, 0.05779524219757602, 0.06066396181333784, -0.020801678891538167, -0.06953737847627647, 0.06343766857756584, -0.08401394116744568, 0.026212600467577438, -0.006479097166655338, -0.07169702673321937, 0.07593127388214142, -0.027300172087045407, 0.0898356155540854, 0.11016480415361841, -0.020727745258629256, 0.0077403243577640005, 0.009864390324746238, -0.005767208592803335, -0.022221250774566464, 0.05515685554614605, -0.12021517931763516, -0.011620789685011863, 0.08734912894100108, -0.11941759972108655, 0.14278976300936427, -0.03350163025462135, 0.10998301361603126, -0.06468576275392528, 0.06011875006286772, -0.0021290924122313094, -0.012174814550131146, 0.016774366891517317, -0.005146364754927529, 0.011622768106771104, 0.06921217780337728, -0.021967578099032253, -0.023121517865619393, 0.0824085829348582, 0.013818779157603265, 0.002434304502328368, 0.07877224366171905, -0.008192780944408099, -0.0011774685337256395, -0.09534872349639312, -0.017925941128107827, -0.056791320216656976, 0.08249415123727526, -0.16245180210163707, 0.07209931704894107, -0.003726532844512308, 0.00161823080191272, 0.026849545635261568, 0.0025706544869576937, -0.03290697854130632, 0.11892924417133761, 0.04102166621958433, -0.06473109178614261, 0.047324309587134794, 0.03377161884712156, 0.030564853424435063, 0.058521728453074205, 0.05007361986354884, -0.07638549169158292, 0.08703735639967308, -0.041994088745041284, -0.025657437693112566, 0.09885824291949676, 0.11161396691693497, -0.016182999071635774, 0.10030780190141333, 0.046852321137521205, -0.08583130923606287], [-0.03095735185728288, -0.09499379022907406, -0.06935717047081515, 0.05287454648701793, 0.0075650300730171795, -0.04808267599959269, 0.12503819131503638, 0.01563368613709613, -0.08203513525634389, -0.002799480032862027, 0.04046274965803969, -0.08847801625068002, -0.0046951193229652, -0.016421904505238512, 0.08961133542361406, -0.10316957633739512, 0.0032170866576131793, 0.060930290656564946, 0.05406478380268167, -0.02520817859507644, 0.06986112113011654, 0.09695753314521226, -0.061680230898651094, -0.1517662900482462, 0.027576858103779002, -0.05476056172809014, 0.042687809510518905, -0.005273563776542618, -0.03108175712451161, -0.0007964013067944865, -0.12027131450268548, -0.05935215483870513, -0.05068627833510784, 0.05228732551589087, 0.053464630886971676, 0.09748989032994981, 0.019790600043677196, -0.011188469321880883, -0.06053573155032295, -0.030130005499050438, 0.069123216656878, 0.032878418843913994, 0.12031358613619605, -0.06928403707702158, 0.06156436763551599, 0.0447730950728447, -0.056961979573550134, 0.15303605992937486, -0.04401511615041297, -0.0046298712349341796, 0.0798163186291602, 0.07827687494433747, 0.11653652600520009, -0.05142453182401429, 0.11634414878498117, 0.1473972817040035, -0.010220936963492409, 0.04596199700501042, 0.04750680653804288, 0.04646993649651786, 0.025228311457459445, -0.02002567798806773, -0.03800294913952463, -0.2174447032272704, 0.06381788842775767, 0.0108184154570576, -0.054307681722801766, 0.1556238850757071, -0.018168483397857805, -0.05719910533599871, 0.04027314142222629, 0.08780082848002482, 0.015554912888059512, -0.0427422697518534, -0.061114691167967944, 0.025037410962790847, 0.07370037298268806, 0.07658299631033494, -0.08823289620353947, -0.05922219501469812, 0.03872036069784377, -0.13700252808640848, 0.02086394918339569, 0.016227962228125215, -0.11827964091218714, -5.383749589245929e-05, 0.07119671083952468, -0.03866423843379666, 0.008554281953121126, -0.04005676040914172, -0.16489832935842433, 0.054489483531737735, 0.04856190953945804, -0.020451097519950737, 0.04145399911972312, -0.044722708811304, 0.12509771030621525, 0.006482566655936454, -0.05823522114722344, 0.005039734096000617, 0.017209417438564502, 0.021268283186373978, 0.05307710340774385, -0.08171702810169797, -0.04872399423024152, -0.03290129703753308, 0.01766491425393644, 0.016848686540159214, 0.06349626898899825, -0.032390908813306606, 0.00012692317293488378, -0.1832626229141115, -0.08150882928031099, -0.08731144412734854, -0.011116220352570335, 0.1897492200691535, -0.009345530448809309, 0.0459820095910417, 0.06021932898732468, 0.012183657784609298, 0.03489534241120024, 0.017625538748988284, -0.0020903400239346615, -0.06510642971077464, 0.17977353128101786, -0.08496121400103468, 0.0623281362664853, -0.00881378339007797, 0.06049526187158059, -0.09919312268876436, 0.09103316733118455, 0.11418467532770646, 0.06147667962294684, -0.0729735082999627, 0.14627947611628592, 0.0231198426351372, -0.08552889443446514, 0.11160563146422858, -0.043698052781635244, 0.016874833755464707, -0.0003041366585257415, -0.09561346968232032, 0.014296225439004983, 0.15139229856468417, -0.018978261014382016, 0.08007591669731823, 0.03588715200289189, 0.15517454241544518, -0.05178917314863417, -0.023352585610681764, 0.06503180080834074, 0.010738324503838813, 0.08502283134711751, -0.007746707322179756, -0.12629949323042577, -0.07193762071802906, -0.03170915886788579, -0.07106699686339485, -0.07413066478822647, 0.0797451977797315, 0.0618978649826798, -0.12378890313206013, 0.05171555246036971, 0.05444315917111683, -0.017255521544240895, -0.05034852980288343, 0.08492944548271232, -0.05625265816821977, -0.06657287678416748, 0.0839067757301407, -0.042864539417539226, 0.005095830260405438, 0.04373848003447144, 0.02257968125825806, -0.006316612793414502, 0.06885796034538577, 0.06878340633760562, -0.0316977256250209, -0.017863626164932693, -0.1408525481062588, 0.05057512579987228, 0.10116933599036006, 0.06246026507188148, 0.06129508547606073, 0.018280174276748513, -0.00848048196388107, -0.05103083087842127, 0.002269752402405085, -0.0596577691964549, 0.11491048149838354, 0.08617367182428058, 0.001357078337028509, 0.027262684698162454, 0.017279826749149838, -0.00021879083983888226, -0.09903694261256693], [0.03271577537374703, 0.05808769507543708, 0.06631164465724167, 0.02584767609053499, 0.008746683928934662, -0.1378221539322703, -0.05179494407054741, -0.023686238632884753, 0.03197614164978671, -0.00042431363852992983, -0.12325830165227204, 0.0413814920134348, 0.09514899626534208, 0.013663303943927037, 0.03911175433511965, 0.010413229317237097, 0.03842661575557718, 0.09508957417243431, 0.21914580342939655, -0.03522594173558565, 0.13203262873997185, 0.01891104743673304, -0.0287701976247439, -0.013550924098621823, 0.0407327080947194, 0.023152772314795282, -0.048572712893334244, 0.05027579999861162, 0.10112201964260607, 0.007429325967092604, -0.08025735924142162, 0.020026069279570097, 0.05542185309579074, -0.10931685374456564, 0.06559257943450818, 0.10144601528102927, -0.018560143328441265, 0.05811701576662948, -0.009096247194370487, -0.0381344253750544, -0.0772419903611785, 0.11899804650693592, 0.03154592369942101, 0.0020736513295979593, 0.01946923235952748, -0.05787870245159504, 0.021166104659911648, -0.1087530434760526, 0.03839108282965006, -0.05232834268685619, 0.11353843346274535, 0.06783310832002189, -0.14692265878410457, -0.06948128899862323, 0.046028883846217054, 0.023728615894777757, -0.1343942187964513, -0.013159896637601433, 0.05475085073338909, 0.07256333599820215, -0.024780553050819637, 0.0062941299157888, -0.03512951070317118, 0.05066140778060544, -0.0860362937581267, -0.048121418338099395, -0.01864724287837335, 0.07498482152338563, 0.0024201330038312913, 0.04873910810063619, 0.023390884992381414, -0.058431864332367536, 0.06121100879846235, -0.041763807400857667, 0.08787765688965794, -0.02305792709063672, 0.026839226043805318, -0.06018044402417373, 0.09768210111116885, -0.0467735874972734, -0.014114876382194198, -0.08720707136007398, -0.026774109167761212, 0.03484287914823514, 0.028359299817061423, 0.011764976801947859, 0.07660358216359563, -0.04609097531762046, -0.035106592801472596, -0.019506997966807358, 0.1896316207768985, 0.05561710278537764, 0.023635977703325775, 0.06129477389103565, 0.01591079559957787, -0.13523924793743347, -0.01255208214734346, -0.1036045631674773, 0.0690477158113255, 0.13761866624465796, 0.023236708356962888, -0.043506446240713696, 0.00011193162650364087, 0.1384672444176552, -0.005889648787760855, 0.0688091115398898, 0.04819125671570111, -0.020680037284755294, -0.0968581586698191, -0.005268103850364859, -0.013147082562931484, -0.06931452443794199, 0.028317142973447937, -0.009198080353298641, 0.031935473954537705, -0.0374713255955684, 0.06470695467774246, -0.008488468995260973, 0.012824331925606093, 0.04289563474146609, -0.07855470189530754, -0.1494141464367788, 0.15099046139154662, -0.05932986606016919, -0.07902957548027892, 0.06899951879515362, 0.0794206854702295, 0.12116794769247442, 0.13100006578686443, -0.02570115528655435, -0.12229442163842141, 0.001187342124097637, 0.07810471808804577, 0.031138140965869445, -0.26499952354589196, 0.0030035046744216675, 0.026463048679300764, 0.05031375960403275, 0.07241430218557716, 0.07634137893777984, 0.004667061646464913, -0.11795925094148835, 0.0021821794742294485, -0.079953617279592, -0.016080408708994062, 0.0032887005373659064, 0.08470741927711785, -0.01336795254615442, 0.02331760353178839, -0.13817940877555152, -0.0017849103134669046, 0.02044285847359467, -0.16514100248998612, -0.04129677993318201, -0.02265247881209585, 0.1222865260355887, 0.07008869875603624, -0.14770215449577445, -0.042800502201207014, 0.0012903073867606193, 0.043367806996288186, 0.007658900429659133, -0.05197875983144433, 0.026381955434843587, -0.11100717279156871, -0.014840891735424001, 0.16639946911819994, -0.08459667734494303, -0.05990683669356271, 0.03143410996938776, -0.04051225311491174, 0.0013270663355588316, 0.048896483908446954, -0.017898835712240754, -0.046380835596747, 0.009398129395369765, -0.04088343567356824, -0.04351584612379169, 0.03992588338574279, 0.03582519407919205, -0.02507571577032839, 0.10015087213558185, -0.056152430725100524, -0.047637182977139106, -0.017499153139373638, 0.007040566094361354, 0.02981765809661169, -0.02107024874490474, 0.03275198696358156, 0.07462122804948225, 0.028123316059909226, 0.021093248346848288, 0.06864426453801, -0.02578255124887365, -0.026944439897523008, -0.0018299796978163882], [0.04241325879009602, 0.030357821338818425, 0.04960209652202931, 0.09695810042859859, -0.035651355960665605, 0.04551010290066678, 0.07962688321133078, 0.013138841907770472, 0.009423519762889014, 0.03768101599430651, 0.19727534982043077, -0.1768576860861458, 0.08587777580398515, 0.017325610538451757, -0.05430397691080251, 0.054192303704587705, -0.05715370544531675, -0.035507527521016165, 0.08737398650198233, 0.05150259779650932, 0.028364789660679925, -0.030937733575572102, 0.0035959490576451666, -0.06651259711051899, 0.06384034870898428, 0.062493660586546436, -0.07522511259144704, -0.0847074380295877, -0.0342488363683269, -0.042459983095571495, -0.10194922811641384, -0.029331712535074946, 0.07192048136267801, -0.04590782484451743, 0.0019378316461403254, 0.05219512677381394, 0.08942903029277532, -0.06175505733552658, -0.011382240811524249, 0.06113538974884124, -0.08890635658269616, -0.06911417183184054, 0.08948991629635865, 0.08764865209725321, -0.12558702814527417, 0.009240585125539472, 0.021366199153344267, 0.045078684053985005, -0.07582708895950172, 0.086271892109693, -0.0028049617794854865, 0.05324444483822619, -0.08709933123723534, -0.08391000710291494, 0.01591998721138775, 0.09943199990356102, -0.037099737369807054, 0.014101916088867126, -0.033380876353147744, -0.13317281889194668, 0.09413158977756295, -0.05915458649802381, -0.045957826299981075, 0.13366250257741139, -0.04643319134324689, 0.0754250851877636, -0.010131516143698784, -0.05997244266229261, -0.05610945513592272, 0.008302968842367921, 0.09017866006569589, -0.041252179769052835, -0.03197937874008723, -0.02916837765273643, -0.13514171522340904, -0.013162964458401752, 0.06322953835291284, 0.1380098231761531, -0.031597645056381095, -0.0458745358100684, -0.1263126204007406, -0.020170575402013342, 0.056949823452273514, -0.04802922065813247, 0.023697938021105286, -0.0863336411130828, 0.04646497369638021, -0.049728073055194714, 0.03138333360619946, -0.08046667339388194, -0.007564625157274698, -0.04656095284076936, -0.013775425112827347, -0.0665483957353459, 0.16800852021440807, 0.004660378946070558, -0.07329870864729539, -0.05445599836093875, -0.05498205133895182, -0.07132193090280177, 0.06414023731914148, -0.11190539209381306, 0.006364591921388212, 0.12745415468759483, -0.2056678942199956, 0.08573630457739936, 0.0385010138189091, -0.05228294850602631, -0.07824446987508443, -0.050757331064195325, 0.02111726883650393, -0.003829458013605711, -0.058899500200277156, 0.06891080818532908, 0.001492843475432747, 0.02575202603935582, -0.08090081999815792, -0.09260559738981863, -0.026663419054587117, -0.09299313117598887, -0.10805701453562538, 0.1453366530306088, -0.11888882332903988, -0.01627643440080215, -0.005125086957853474, -0.07045817660764596, -0.10812927340593474, -0.006758882249772046, 0.0374690476873292, 0.05104785106692411, 0.01601817788173857, 0.06417622157896039, -0.04426883267221482, -0.046134305103131615, -0.01015544776663236, 0.12044094890910248, -0.08389117070422153, -0.025113987204613494, 0.13089530483888784, 0.003943094428908717, 0.0008582564111929067, -0.13852598940923544, 0.04703723189177724, 0.017468186804461355, -0.013004937583754591, -0.04684745947986427, 0.1164085581963967, 0.12736109078981178, -0.03289392298312397, 0.056269030878558314, 0.036381578042037684, 0.055122411314733916, 0.020563806664452622, -0.04901766672177803, 0.09996022108611888, 0.15075611530461044, -0.038851364380525666, -0.022370802871757176, -0.06140952645732422, 0.13359264459123318, 0.04729909021358555, -0.11039393386653552, 0.07321883310830553, -0.00037903969786655075, -0.11154718677435743, 0.015363736880810112, 0.014951750076414807, -0.04915380519034629, 0.03152851094439154, -0.11085240707929908, 0.0919206133933491, 0.029079982780832632, 0.008960160626170994, 0.0445952236790822, 0.044801354503138074, 0.001915022117319964, 0.07497553588087479, -0.02759933495261272, 0.06863031953411156, -0.0835373497966375, 0.06410079010583111, 0.05361682211136345, -0.0907026665577734, 0.00464705160453631, 0.061030184869583955, 0.037150255359346004, 0.0005787205290458182, -0.01706923052070054, -0.011201502740632736, -0.012433483870760743, 0.06755291589594409, 0.11325856959489415, 0.07058760499729075, 0.006001302024911955, 0.06573602041190309, 0.03948359338952531], [-0.06268611744745306, 0.05809378178987305, 8.86816623019636e-05, 0.05355656356901007, 0.041255729707594904, 0.0784873432318543, 0.13353142742914023, 0.04966498911746205, -0.12112924005324355, 0.001695803947686029, -0.07080385799728674, 0.03517720390062382, -0.030000271013509616, 0.048942182926740664, 0.07083786878844588, 0.03410372632464845, -0.02918563044685795, 0.011453547702605364, -0.06559615624533731, 0.01476343931874683, 0.0819246628959151, -0.02139744294975355, -0.04412436979989406, 0.006685355806365263, -0.08830631642184626, -0.07168201822691454, 0.10529897645294244, 0.022919787957829195, 0.0391388695751189, 0.019319889682391622, -0.05155692702587528, -0.017351030080421714, 0.018548912715158048, -0.007879550090807796, 0.060824540336806565, 0.05032863113205227, 0.09856881034841178, 0.03392208384379146, 0.075940536313638, 0.04871046290090395, 0.045904485097292086, 0.03788716188877279, 0.0592658842203153, 0.0415716093851071, -0.016017643916988376, -0.014668489364707035, 0.2176141687491587, -0.043865028601552884, -0.06140210193670817, 0.029825153095688204, -0.0005568656115013546, 0.004867424801772369, -0.026529776276020486, 0.04693828457793504, -0.046001241262798497, -0.03338064777888339, 0.07630181719134282, -0.07344605433382444, -0.036263929504908664, -0.09981083316479034, 0.054835115990315736, 0.12630477902750875, 0.04981937871544254, 0.019734210384785497, -0.09942952193083525, -0.014207999100831037, -0.06699117746343841, -0.0447103921063178, -0.08524424165950108, 0.0028097387578292915, -0.04805380440055246, -0.008446933810831394, -0.04394565815431199, 0.02082644822361529, 0.032118663376384346, -0.02648744588761765, -0.05774907801588575, -0.007365401113191005, -0.012360176851306543, 0.05171475980730231, -0.08979054599238546, 0.10711501308332762, 0.08462629022851821, -0.08332127770774546, -0.018283791135616092, -0.1132701524278854, 0.14808385259351564, 0.06184860115365239, 0.051006430148151816, 0.12250344915202621, -0.06063327860436706, -0.1746797693485918, 0.08911968370457107, -0.059220186348880564, -0.022653461660177485, -0.026922283946505247, 0.1025428231550945, -0.13162815045915463, -0.015794986702171956, 0.0009593403866092874, 0.03374334038121638, 0.12448877393216023, 0.042771794222108715, -0.07033660204550851, 0.025162595044688815, 0.07769318851139258, -0.05287599909364023, -0.04143605533114362, 0.05526485999794112, 0.015535282636983899, -0.21124292867036454, 0.003934917557255038, -0.03542668887566252, 0.07099651355197396, -0.05229383661999944, 0.034139911616307535, -0.02633149215267118, 0.13224898741115151, -0.014458790759296096, 0.016745119223669672, 0.03626812769755331, -0.011729134516071956, -0.006733735802984327, 0.1539849885285156, 0.045930505402350844, 0.015023179746009809, 0.10094976718344731, -0.0012399162499534117, 0.05474039168096085, -0.034641484070676715, 0.021348795876930986, -0.013604913297824657, 0.00883769219058973, 0.08665948337031437, -0.0044528524801488775, -0.07937890594085185, -0.21112431343225277, -0.013474229305628298, -0.08871569888550851, -0.0032507086241451723, 0.10927414095339655, -0.09620614193120608, -0.06313609878497836, -0.004534560568368617, 0.15189642272975087, -0.12442270750227871, 0.0444926375331997, -0.0033637217553012778, -0.046054917766703105, -0.04049724161231639, 0.08421754244637897, -0.06915265144367261, 0.07621743464662929, 0.046225596814409076, 0.024664997978013997, -0.04723996734596242, -0.047849350790029894, -0.0075869648550101355, 0.035769477698172784, 0.04880508145725249, 0.015350524208038271, 0.001777559058229373, 0.10946312210864827, 0.01900969681327631, 0.06429023496767759, -0.09626198424967161, 0.04815797804485918, -0.04963036295041092, -0.02275452793485769, 0.112194429759173, 0.051940277604157085, -0.06842633329652122, -0.007119931800048976, 0.14365020282649774, -0.11906824502187127, 0.004296953629039358, 0.07464704292985369, 0.029466189169851494, -0.16940077202628445, -0.02502628802479763, -0.0289730104894413, 0.1462066715104167, -0.0031655478237537214, -0.0058079790430353466, 0.027221765073689636, -0.05457030735807126, 0.09720039081702675, 0.022661233982953537, -0.08895129282279789, -0.06775050782319433, 0.019799525039170745, -0.0662350306340676, 0.09541650241207253, -0.14147493496033017, 0.03933117919250482, 0.0050777636993920945], [0.08809509380878426, -0.07125070958707443, -0.027594281225970123, -0.07469352493544873, -0.08956535036120757, 0.06996101318537544, 0.0020710601523713144, 0.06648795665593711, 0.13837064141429187, -0.011051687706583602, -0.04978227620393098, 0.002391740612106169, -0.0776334676220627, -0.06405575253250735, 0.06571450617582512, 0.0490848219730955, -0.001089736768144561, -0.012461097001823775, -0.11486901548574455, 0.025364704711689008, -0.11578275498837326, 0.12115516101118988, -0.07569663399328112, 0.06323116432023035, 0.0507733666181058, -0.012554126333229883, -0.06077064706904802, 0.04593740850448721, -0.01497008110802114, -0.13870410249555856, 0.12426337707466015, -0.0882897969370596, 0.04992453594450742, 0.1269984478331003, -0.0702294684020413, 0.05395161797421503, -0.058766106665583635, -0.02285108747464526, 0.056649286748076684, 0.08593994833352998, 0.04900818947232044, -0.06666885730464855, -0.04054989239603434, -0.029203831322683903, -0.06323346252596886, -0.028206504591604075, -0.03290852536542537, -0.12360582868698251, -0.03077648909186866, -0.03311633634032633, -0.0005661607857850708, 0.029377489419779686, -2.9122123018561643e-06, 0.09794041815585464, 0.019515209602367127, -0.12421026445169822, -0.053300576114303305, 0.015030275168387676, 0.039718650874201525, -0.031444977328263894, 0.03214825484410714, 0.01605609910990676, -0.046838372837306984, 0.088314270306629, -0.0620643642506857, -0.06951295767004632, -0.0017074100655233354, 0.08637609210437316, 0.08999672245708612, 0.03637489669885454, -0.10635608250075769, -0.154766168829884, 0.048809195567910836, 0.08952455288052076, -0.049936695349653365, -0.086379185481584, 0.01038139450672103, -0.10975718273802633, -0.02936108167888928, 0.04026052122935358, -0.019987196478432234, 0.05728025977062625, 0.1443153025201184, 0.08231593519317837, 0.049047945628584555, -0.14432930110206058, 0.019353015994906776, 0.08437547531700818, 0.007966204573109792, 0.0486986454708257, 0.1566067149801864, -0.08294498080044528, -0.03981257141071321, 0.0982564394666838, -0.051126790258869875, -0.08756205233902356, 0.0339317846435965, -0.003142850159792286, 0.010234016530572813, -0.019374268321692815, -0.07751860517662369, 0.01491056750888637, 0.11162077737032464, 0.050143438611408436, 0.1604520172311153, -0.122103195869885, 0.050254644431779, -0.07456755330786814, -0.0638485129908333, -0.045025181374957327, -0.06747249007136634, 0.005641951698858503, -0.044332719180329334, -0.11855694431476457, -0.00593558193574867, -0.06995600308270972, -0.0006831122901573233, -0.03539490890666973, 0.04700360231915744, 0.045021094419110425, 0.036276759313980424, -0.02517259115167402, -0.0418561805980092, -0.05411107753686017, 0.04999007905410664, 0.05146098531330806, -0.057763957165260615, -0.007656657480094538, -0.014076792314897627, 0.009018545044321227, -0.046722137598689116, 0.05505009389740136, -0.04481438270430562, -0.061208601247137055, -0.007866328935162705, 0.00752289058219954, 0.03493438288603766, -0.02237093577174383, 0.11026022758109247, 0.054623315444037625, 0.020334603861506196, 0.04060008996420483, -0.05490095015224857, 0.1004774881927737, -0.023689842519066043, 0.06783048683354648, -0.07367778055368225, -0.09404395473625152, 0.11646259300497407, 0.02131141605708486, -0.07806609757021915, 0.07970152328981607, 0.05333556600038409, -0.12652010724238205, 0.068500124797781, -0.0015792919221410207, -0.08430106055535437, 0.0170405563857672, -0.0023362198033320706, -0.023199418753812342, -0.03309527903845993, 0.0031405877778223662, 0.030544432151051494, -0.04766749947664421, -0.08550639913156419, -0.06538911468702925, -0.035128635366984275, -0.08297606879539192, -0.055242366140462934, -0.08493112971975482, -0.004831809467152087, 0.03077103574045746, 0.05851921812210352, 0.09778989383631531, -0.06047692568361467, 0.07088892868631631, 0.03533087463771662, -0.16295759513720304, -0.14365411309744863, 0.07506536504682298, -0.13499601004930753, -0.06321818345703756, 0.040036777857858204, 0.030212088689186765, 0.027985582671823928, -0.07588572768439217, -0.018547082253817692, 0.04702976919154591, 0.026247619007694456, 0.004943776506824982, -0.040229558850259056, 0.030746679980448815, -0.016416390297503004, 0.04645845705586664, 0.038890085918781674, 0.009731180145668606], [0.0159646644272053, -0.014780138859444857, 0.05391163350331755, -0.08567752740845126, -0.14255455677615217, -0.02299565871347041, 0.0029189151109146154, -0.11189709645693074, 0.044276691605599355, 0.041580414171912994, -0.04856868281908973, 0.10903191189464381, -0.030161291925152173, 0.060302007766062884, 0.0850987913200551, -0.06619640668425517, -0.030617372254096536, 3.509280694818144e-05, 0.12098813816119657, -0.06174114403200155, 0.1546927214634356, -0.07688771658686397, 0.15975908114042456, -0.01929881542790329, -0.005700450911678632, -0.027869182564637617, 0.01108112332933456, 0.014048573808915764, 0.021976120675773207, 0.17916947662591406, -0.015569859247847168, 0.08212351907725582, -0.2125918792152672, 0.09186331230731158, 0.0021145210642466543, -0.029556814470511027, 0.09605479164072314, -0.019910459904928974, 0.04500414189195044, -0.0988996844485802, 0.10922600683528393, -0.024559599338402606, -0.10454690487617249, -0.06125205728409207, 0.029782342383445258, 0.029323385315644254, -0.011891093629556135, -0.05942514827317121, -0.08885710938070437, 0.041189361350292567, -0.062230324346842766, 0.09124898937811597, 0.023776764813850604, -0.11501043136890733, 8.876487221607787e-05, -0.05816335963610897, -0.13494799312503175, 0.10711345509056715, 0.2564659134783, 0.06798803803045166, 0.010661482869735428, 0.023546786888557995, -0.06606347491576876, 0.04426811296517901, -0.01383071243851048, 0.07918611435380189, 0.02402872519574723, -0.13451880717273013, 0.02600521392351716, -0.11850449875790946, 0.059669670905260055, -0.06086736890399419, 0.09583045249449114, -0.0483294062752749, -0.013122595701407088, -0.0045132333040750865, -0.027334138342079924, 0.021544897296891168, 0.030996335867854122, -0.06395339721331429, 0.03378560506440935, -0.05538210513363638, 0.05906345176551919, -0.03261886522572798, -0.113982863177189, 0.011274281576591313, -0.0034406546819669074, -0.0793625803241005, 0.13136142653939398, -0.11359267506161648, 0.1297450074271469, 0.0841764469286982, 0.020459426039801193, 0.029051142430219414, -0.01749685890446889, -0.060630556043093024, 0.0123750427188044, -0.05258552231514374, 0.06281963936888932, -0.08743433133124161, 0.05338561907029522, -0.0062980972711104005, 0.06566503415083476, -0.10564830115468433, 0.06792058616369455, -0.17838328510024282, -0.06379580813504182, 0.03249737111415919, -0.035496442516939335, -0.09545293993901695, 0.06392424609154337, -0.010023732699445346, -0.04495411791172401, -0.05319774053555329, 0.049922745300790765, 0.11564260146975976, -0.14712386496096053, -0.010617999122079523, 0.10498368334696584, 0.044997746590554104, 0.028247283212175543, 0.02231229224133402, -0.03630110032088254, 0.045745971780823166, 0.07338809677532801, 0.043835692021355975, -0.01861389485656898, -0.0018472228879831156, 0.11420668320879315, -0.0210075454735073, 0.15022733402103197, 0.09641082116348301, -0.023347495761533447, -0.0021343801849275502, -0.017977928307485496, -0.06072404925896245, -0.04660181422120663, -0.08347217423567975, -0.15028646083402208, 0.01100026009127967, -0.041668003363758616, -0.11945498682302703, -0.029886319017672733, 0.06462395543516944, 0.041477048229414976, -0.0199675362045761, -0.03704247265040557, -0.13042155893207524, -0.07881111925330057, -0.06573702715084823, -0.022370841366744065, -0.023156836926530523, -0.011159082556662243, -0.02243723177634903, 0.08845218383397324, -0.0015739056293068666, 0.07359737652557864, 0.021821744878650913, -0.03678502854566491, -0.047400458231713044, 0.038331256511178295, -0.02860358586755313, 0.06165714076202343, -0.010762790628756074, -0.017437091426110385, -0.12363596964442299, 0.08840658309172411, -0.032512447972249205, 0.08467589445750234, 0.19138151906402182, -0.11597290434315538, -0.056792957566922285, 0.026646044237014516, -0.04698027930462595, -0.030066557828950055, 0.10955590094373595, 0.08348816383913409, -0.08554427422894159, 0.03194276420723211, -0.008548669420957208, 0.06296822566022792, -0.17085987341360118, -0.09531501443891856, 0.011706378027000206, 0.021171893512927215, 0.09333709412091573, -0.039997022170153246, 0.008467571312514662, -0.15334350859269236, -0.005755481037711046, -0.07080822130818844, 0.013920900371835715, 0.0658625092284776, -0.0928752029152627, 0.005269086907628267, 0.05337084308963727], [-0.04764417398609775, 0.07938360705531161, 0.07584807407619025, -0.04457990699732514, 0.2016032945519651, -0.01926475734837283, -0.02483032984069041, -0.11510627771544207, 0.08720547590281835, -0.14291002899557828, 0.06582634868708274, -0.031901838391031445, 0.01629316038940713, 0.0863608823894394, -0.04439155891131865, -0.06638987484669434, 0.14712722808475456, 0.10441239080479418, -0.038989402182567155, -0.045960628158759606, 0.022461552167445806, -0.008955188897522772, 0.15028425914788485, 0.09854165643194161, -0.04873413030759958, 0.0033196184212907383, -0.051362315752256436, 0.03147496562329382, 0.03011290600850461, 0.07508932039027803, 0.05955044886911401, 0.04122229463028832, -0.04121847183059243, -0.09245670760384737, 0.1476394565570423, 0.01418986977354458, -0.0018157313299871363, -0.09919648417552476, -0.05867222640504638, -0.06630469370987782, 0.05224567206319744, -0.046034932994544094, 0.08644083564235944, 0.08609434351918716, -0.03823799256206552, 0.025520241200846037, -0.05969415020982746, 0.006324452077153715, 0.08340396437612152, 0.08018351271430714, -0.04032121375060378, 0.17253147144817768, -0.09200170694983954, 0.018227202537971682, 0.16598374402151356, 0.018907929816878777, -0.043092559358904006, 0.08439450281077746, -0.09395201289182811, 0.006909484534994164, -0.07162108833107607, 0.005425799519867715, 0.04383312810937322, -0.05066720596414761, -0.006272190226524532, 0.024420608931615333, -0.001969600665074036, -0.036633216422482365, -0.01692324592544188, 0.07913290597650288, 0.029583558153609784, -0.02694053878337835, 0.032028558799910394, -0.020474265455876987, -0.07039797591808257, 0.03511651445200047, -0.09661620451764824, -0.00847024437862054, -0.132870320017041, 