[196, 150, 10]
[[-0.13006928872759818, -0.0047259094802150755, -0.08805370234974307, -0.07575326530357268, 0.05462762456573617, 0.05523902924870442, 0.10650314079000418, -0.043733648618566455, -0.045447279580055816, -0.020203876511940846, -0.07315563033139341, 0.024020856955359857, -0.03586903470089683, 0.00030344892204087675, 0.019616293232629377, 0.004718428518082493, -0.08379898287479251, -0.06870294287456405, 0.002350899584615207, -0.11723833979697909, -0.0669907996316882, 0.094153737784275, 0.044785098274522164, 0.055289582127615325, 0.005100941091693175, -0.08117543553753251, 0.05627126832106407, -0.04952020608122406, 0.13375387092201593, -0.006685033767897922, -0.019217457819127245, -0.12428350377387488, -0.062420088378538525, -0.03646469280434148, 0.0998273858899953, 0.1337326092528521, 0.016239232347400278, -0.06739294989906476, -0.0404775703470161, 0.09143738450057079, 0.08147046619711586, 0.012990584514856464, -0.16622020941975763, -0.0670465394796756, 0.1080150244113924, -0.0713698263452546, -0.05066537397452465, -0.0884670489802757, 0.11588383625647966, 0.03023900879084985, -0.01067786957664282, 0.01755197330152679, 0.06781219164932216, 0.019577130334505383, -0.004258510115499914, -0.039186306397469665, 0.01604534973422205, 0.023603525939617606, 0.05409843358875816, 0.01221698709175375, 0.023825306331680975, 0.04652602399073878, 0.14722189241769917, -0.03092123365717707, -0.0843079950205714, -0.08548363867059244, -0.01691310397044085, -0.08390286318737723, 0.05412720985398762, 0.05293088224623622, 0.02778741635648872, -0.07741429554695499, -0.15681161857501336, -0.04111084115447561, 0.04802241754594439, 0.009657036375459165, -0.05981282523580375, 0.07658954639102979, 0.10446181063349928, 0.01535256266062389, -0.012725196684856267, 0.02814798544476138, -0.06370181707713714, 0.016557980560785335, -0.007910505756794724, -0.11437448449540959, -0.11283347412527704, 0.15777438147970624, -0.16934342015591045, -0.09154303949433316, -0.06570433028245545, 0.023574919989951895, 8.986102523735348e-05, 0.0006147179570810456, -0.04949934668558923, 0.04323627191085501, 0.0029790041384398004, -0.07362221013814506, -0.05560345226587378, 0.06980553200539129, -0.050421248499137254, 0.06674962085622063, 0.04959477542032868, -0.03978385544813678, 0.1646495986279709, -0.012399167119765086, 0.010146149506485059, -0.09867781843090095, 0.0021370446785593114, 0.10466023955977047, 0.016678299076617192, -0.07201882316449067, -0.14328479995868, -0.00444279647750572, 0.08823136959243554, 0.04206883686842906, 0.0693128143496439, 0.041929134265296764, 0.029583453884580616, 0.030018603634741733, 0.08896053642267054, -0.05164922219482392, 0.07274523014895826, 0.060539400542086896, -0.10988403936968882, -0.03579787346147518, -0.06208422792902515, 0.03961657104247404, -0.0167210152753096, -0.06224894054944686, 0.05767647014030153, 0.010143420824000321, -0.09860328283904712, 0.008072806934865106, 0.012247201235856113, -0.01688709780383379, 0.09458589165457477, 0.08855053757900688, -0.10318151126192222, -0.06421427073146035, 0.06137904233871052, 0.010478739314754907, -0.09991760555971055, 0.013925030746014519, 0.00023912865756913068, 0.08187565696575741, -0.049933658595226985, -0.0510052893752288, 0.060752733976225416, 0.01886580278946941, -0.04085684197895068, 0.002147591177680128, -0.0002657355114964727, 0.051798743190092846, 0.016827912700083544, 0.18630579809908246, 0.09955739995711112, 0.04219957816396956, 0.035496085333637434, -0.04254973107904249, 0.07569648195761017, 0.11732538551119572, 0.07605710315661177, -0.12919177819488528, 0.12163112895829714, 0.017478233165081875, -0.04980054760131983, 0.07399221245860842, 0.08228095661108331, 0.09605382569425021, -0.13305669097686673, 0.16933828071100387, -0.0021680890787865565, 0.008463365768483087, -0.0018161260064190154, -0.03555038370101697, 0.00845411932527506, -0.08279256742217891, 0.0038566352563078887, 0.027429341216556113, 0.0695285021533308, -0.07505839475997327, 0.03539477976805127, -0.05116956424688554, 0.0027230921724500008, -0.02655018862577717, -0.03571381524759155, -0.009869447823772805, -0.04069407342086195, -0.0030736323824061204, -0.015939842854240462, -0.057346293588157085, 0.05102835183184302, -0.1525742698601886, -0.06664389030173552, 0.0009697384230431452], [0.18283432890353696, 0.05827659905492629, -0.21113293139593803, -0.10027116759725185, 0.013660927636524937, 0.18676681589331262, 0.025997921089350062, 0.008848229688145564, 0.0038998747280141973, -0.030893261615292635, -0.12869404163206596, 0.09578258006631443, -0.053252214113646945, 0.0949193940703404, -0.04702685994746984, -0.0008731539364329055, 0.03890872211933206, -0.02550152757787515, 0.02476967652794482, -0.11516037379114573, -0.06980214664744318, -0.013384199534091954, -0.17619487056557445, 0.14972067571898942, -0.00010918922812843387, -0.017990680273364743, 0.023748460434259988, 0.11398243832688243, 0.061399514414044204, -0.12118329942948732, 0.0338385787344249, -0.07640205186769557, 0.0252171075525143, 0.12113273824188234, 0.040404462562774364, 0.029381107444236502, 0.06129486163555241, 0.012468757817111832, 0.014797906205055686, 0.01771282482755466, 0.07991040800318731, -0.06413820935214448, 0.005336940906996146, 0.06730841129621515, 0.08563275259138539, -0.024989270361473512, 0.07481820643571134, -0.07694852715752959, -0.005627264173504279, 0.029986339706331997, -0.038155890834157886, -0.023055741250748996, 0.0705390160454468, 0.09230072910743506, -0.03297202551075219, 0.023240723623813166, -0.04034603579642818, -0.05519538845965053, -0.008128591838388786, -0.09106707661319417, 0.0031364146562206326, -0.003723624702981416, 0.06415515550220209, -0.08867044377919711, 0.05154974024953081, -0.01708469239025055, -0.1347879477882427, -0.03505156029146383, -0.06548018518992432, -0.04337599707033524, -0.03989427399450351, -0.012459556219248484, -0.02720352150828848, -0.018028680967763548, 0.026475925309812468, -0.10740896503775924, -0.09932878881272944, -0.03726286656400612, -0.05450099346386159, 0.0900620891834985, -0.017469270333795788, -0.11115934808930107, 0.06592293662076187, 0.0502514446356715, -0.048758142983580305, 0.017172306489587008, -0.01916728364720582, -0.04737345275762336, 0.0003145912238099926, -0.08416517600945411, 0.014166003719642072, -0.0010789939327582362, 0.001872388648995185, 0.04222209269162176, -0.0018672743040652568, 0.015800234131499277, 0.011403434878966024, -0.0467628668740112, 0.02446440347244654, -0.08403498842971346, 0.020217730457941587, -0.044633509801250505, 0.09872041229631216, -0.016035545326822765, -0.21093843197191456, 0.017256492908537382, 0.03311965242125163, -0.036987397823057516, 0.014802220907945618, 0.09313948625071464, -0.05695580995581936, 0.07339923158046441, 0.0490664868549239, -0.053971358983379535, -0.0034512105819292636, 0.016412746613892103, 0.1490034364196472, 0.020747141247524716, -0.04717140801495, 0.02547334465856039, 0.03968153779007598, 0.02126816436890002, -0.04610100326739352, 0.01677891049682966, -0.04273814049946657, 0.043814983107572286, 0.08204266542647908, -0.02022836291860811, -0.02837868311935613, -0.056052611537021436, 0.016062157109217365, 0.07642455940824143, -0.19407561957977149, -0.04390214867157335, 0.16336388789341502, -0.06896390657414246, -0.07649994059978585, 0.06534175925049135, -0.020728844109610324, -0.05637001970308815, 0.0700178950030656, 0.05038873677699999, -0.05700886321214536, 0.09514343218032592, 0.05001313033688855, 0.0243861146693728, 0.008948619028266672, 0.01319564158314283, 0.056590861583335865, 0.09942231882615704, 0.08738189809632206, 0.12592085086769966, -0.12463006165214063, -0.009117106724776478, 0.1085318595481683, 0.07983717560992751, -0.09445428074142649, -0.02880310347327922, -0.009587353447752389, 0.073293633888524, 0.01958378332080734, -0.09347825198304344, -0.08595355459434387, -0.025702062144039306, 0.04430824834153401, -0.0343947572238201, -0.08181208291827483, -0.11165337272424139, 0.15353766261050192, 0.061338713512863324, -0.01500929668024988, -0.08001701387807077, 0.09269970126183713, -0.09315131800016599, -0.02959405791105633, 0.021399996183469917, -0.0498950064126776, -0.10510420674872543, 0.0018978397384265557, 0.014439422991557621, -0.007263847385390504, -0.06675451257936642, 0.10071355945551304, -0.041536775163956166, 0.03985713393798132, -0.06851177846666412, -0.10238640941211798, 0.013204158451960966, -0.05491223601880655, 0.02953996846449995, -0.14302765130915937, -0.009223735917987324, -0.05719489976460685, 0.11388375834115819, 0.08235534289006381, 0.055689078446414644], [-0.0054326382399635595, -0.02553254061274395, -0.03414912762312318, -0.07753351697492666, 0.010162361899423392, 0.03662652995391659, 0.11839034558831807, -0.05988722579161879, -0.012211366522090063, 0.07992046323739783, 0.08213493151522011, 0.037673552741104364, -0.027795857306561467, 0.09396072780852707, 0.11431838097282193, 0.05562433987279617, 0.07682755066118307, -0.028617498647281484, -0.051349826343264335, 0.03935674902213238, 0.034289514050856396, -0.0731623264110364, -0.07575599392613816, -0.026803297859129428, -0.03323060765185992, -0.0404831186683764, 0.08349343528189657, -0.005016779189013104, 0.08531135479451406, 0.04204001157926631, 0.04389964392586627, 0.0005689957825009166, 0.0174414141048989, 0.00720741421016506, 0.17810427105877807, 0.0021724989897083332, 0.029916144237076853, -0.051289116894358625, 0.02931853008238343, -0.07413998699662935, -0.09263419006599638, -0.08410390561689456, -0.048198416753276276, 0.09727344974475728, 0.021842148550675452, 0.05743113204663991, -0.06590065812595572, 0.023533728842635573, 0.07652778489093687, 0.027269884823715108, 0.05852147378373564, 0.03675287581129492, -0.01802205813294012, 0.1918833193427143, -0.029394478945684248, 0.043533538599421176, 0.016347767845897327, 0.08443003552605975, 0.0066425505546491015, 0.007457760999785092, 0.11234972157763848, -0.19741469685163407, -0.009728992923384852, 0.21457761524497765, 0.1994492735790025, -0.06779342003985492, -0.02068116727583317, -0.09139483388641945, 0.06746452713561583, 0.04806888753688093, -0.0034711034751685535, -0.08308531719916819, 0.04748974139761372, -0.09933693725255716, 0.10801064151991138, -0.03823298142162327, -0.005921747979904856, -0.07352483197512329, 0.050462625319739336, 0.08260348926556092, -0.016771820228534327, 0.18418008639541047, 0.08985260576113284, 0.16555548999090766, 0.03725506139278351, -0.027958369930011426, -0.1865118069092198, -0.056760262523282465, 0.03178383245382144, -0.018653086052921077, -0.021908226106600502, -0.046854629179164706, -0.023917295746169458, 0.04553754473163653, 0.04809980676215463, -0.014842925107487075, 0.17464654745563032, -0.04842046173239273, 0.07697306221659321, 0.008051925895202202, -0.11103093772021802, 0.021211027957324595, -0.010766319899253208, -7.428210063973239e-05, 0.01909351605791276, -0.024686381049135796, -0.15919523472876548, -0.017839292532193733, 0.1068206485521121, 0.019262617082635176, 0.08444595783844883, -0.0037608974209835115, -0.07566527767404657, 0.11062972221780588, -0.05532976630786842, 0.006298046440810745, -0.1403913039130934, 0.10061708885913141, 0.00198357290841048, -0.042724525734546895, 0.03671741278809292, 0.037665409223018614, -0.062150731153307784, -0.0423421697256815, 0.05439049573968823, -0.05420012857910242, -0.007815843007995718, -0.033730267680203305, -0.0378864394907819, 0.0932053770952007, -0.053530448687304825, -0.06310051018678349, -0.03197798980397348, 0.0031992798889753315, 0.12235860648085135, 0.20763989261993404, -0.0008063439838110063, 0.014130102795634357, -0.02189891039935898, 0.05445148004316345, 0.07596897421339613, -0.010730863595228473, -0.06042819824126217, -0.02423636294280042, 0.09582031872077004, 0.007749075274256373, 0.028339988818908285, -0.007183503861221781, -0.007507980883974443, -0.04243642955830204, 0.03834440169770433, -0.09190887460477089, 0.11921792407604, -0.05349117292765972, -0.04921222630827408, 0.0077679713887007125, 0.04209391382368734, 0.008357876342772035, -0.017814583453509336, 0.0391960978582123, 0.01278183032038406, 0.02670260215487677, -0.009702294645200811, -0.0003272652742899551, -0.005032250822062527, 0.10798853971521268, 0.07069101977386213, -0.03445458050383577, 0.09645535330240004, -0.0352361384049975, -0.10177750556320869, -0.03793987047624234, -0.16703827309233904, -0.020068891049520744, 0.07488875644357272, 0.04519172920788409, -0.008673555648057385, -0.015326386478248999, -0.02567171367238461, -0.052609824010013, -0.0044725149842178916, 0.06449577108925807, 0.031686724760037185, 0.0332116496985598, 0.02926192313173794, -0.1700390227419396, 0.012981599268154965, -0.04254376819310215, -0.011293147724667853, -0.015257100591658076, -0.1614484676996598, 0.12005336392994939, 0.1877106131801676, -0.02854766589925529, 0.03157610376840465, 0.053106901695525684], [-0.0012742084524351492, 0.021818431022545156, 0.12450530255094022, -0.006542225673027445, 0.031146168815680678, 0.056226372059170436, 0.0025401732483486283, -0.021627011444440517, -0.02856797578043848, -0.019650907508730473, -0.03876901881760465, 0.03301554559110689, 0.14018086691274362, 0.14331889434174233, -0.029762268174583346, 0.031566999288448895, -0.10149533487275612, 0.1146332360833925, -0.008254175333574367, 0.032595889329781344, -0.021023845117539044, 0.05058002907365255, -0.047994986702860135, 0.031871144613624024, 0.032892754895859765, 0.026949540452485533, 0.07468176628610547, -0.0011087009841755267, -0.07284273749221354, 0.03753146190207279, 0.06933073836203749, -0.10609058089560382, 0.029832036767289936, -0.04912708533109714, 0.07086910818925145, -0.06461399367984946, -0.014254825084178023, -0.047472762719349894, 0.07081728483265803, 0.0847903025109838, -0.013859878187626464, -0.07373577301306103, 0.031623528955405905, -0.06656268511740594, -0.022573963413561687, -0.04282244174416401, -0.10247196036610388, 0.06611125336381057, 0.018406279365052555, 0.1234844693295235, -0.06323836931881442, 0.05771313609646728, -0.04286024855184559, 0.12811934571403344, 0.04332700662968966, -0.04729767579407862, -0.06900096453899052, 0.002562504193457937, -0.0330814322343694, 0.030163806414407145, 0.06341833184850006, -0.06510096776644507, 0.0018287085623597422, -0.04519259897939719, 0.10015832717132513, 0.1191465293868699, 0.16778890724240517, -0.06529541952636615, 0.04279845386563951, -0.04595338221284074, 0.0792429477510529, 0.054582354527622404, 0.02142704786505547, 0.07272934985779854, -0.03139063235392963, 0.04584566984423288, -0.12246521510183209, 0.07761933364585016, -0.0746454058889016, -0.09541882767963983, -0.07845877361275302, 0.1389263801062881, -0.012825288322591033, 0.019485167851596017, 0.0822796345731867, -0.07045496514337425, -0.0010643005935497263, 0.06237544783860463, 0.1278913217697187, -0.031966173525350874, -0.07238971805002554, -0.030891721731615047, -0.09895477321106387, 0.03981101525734583, -0.01418300161394348, 0.08540232616023875, -0.0933759026181255, 0.020172479992219373, -0.029446811977030047, -0.060364283043815324, 0.01564357423845709, 0.014110869308344806, 0.049010858373233344, -0.052901833041379076, -0.04571258028731275, -0.12515787946360502, 0.041506836335909125, -0.010587991119691657, -0.07117761426111688, -0.01794147832295556, -0.02624164849120545, 0.0893372410583716, 0.035957645690781685, -0.027449956223802197, 0.11545947559016996, 0.05092142970497731, -0.01515241278233893, -0.05072149608840765, -0.07997611847555265, 0.10763266585593002, -0.013505084027944817, -0.032944133587259256, -0.0458033743411989, 0.09574714084390643, 0.06937325466804593, 0.027209214144020086, -0.1203772058716489, -0.013116417755092157, -0.07677844847291787, -0.07503422060954247, 0.14612801671752948, -0.10959940893557737, -0.055841778991746104, 0.03340498251596518, -0.08543760544416204, -0.018317120516747238, -0.019017388983510176, 0.02247965646417316, 0.025425593453041833, -0.08232473266122624, 0.08717190386686027, 0.023271045171755347, -0.027157105350305747, -0.005639290437673728, 0.01590794216640169, 0.12005619403785536, 0.06813063868555355, 0.04056145217878893, -0.04231026548449209, -0.01742026570019915, -0.04227884198052138, -0.008166532663062184, -0.08933968856329932, 0.16990617517120749, 0.03663917363262877, 0.08632700010403842, -0.008389886414262873, 0.062040444716777214, 0.07166619051009038, 0.045596364174303766, -0.012275738098994975, 0.07823565700979929, 0.0937863357201988, -0.023572150593574714, -0.05610086479950341, 0.05975846802589857, -0.014300380533229814, 0.03860532134293445, -0.005945347943738068, 0.008488715296129204, -0.04313729885682763, -0.07692331120464235, 0.011625011231178872, -0.07417844947205389, -0.08830654497893349, -0.01999379084338923, 0.03792917311643771, -0.05328892045121372, -0.08661391703058928, -0.07879884046829026, 0.1498213485847098, 0.005712539127044362, 0.0016164536104778626, -0.11034606806688149, -0.021535191845781357, -0.07035203860135741, -0.05362391076152412, -0.11060807129941798, -0.06147865843391285, -0.1050933877526833, 0.025737037652531415, 0.004647240963308525, 0.06852971957066946, 0.013358440356522625, -0.009462730669288792, 0.04159031272971761], [0.12226406290915116, 0.10143175376988459, -0.049983589322288614, -0.08642542684453351, -0.10618685940215362, -0.006691763048743356, -0.02110750462023341, -0.051657306625287974, -0.07568812515598605, -0.08751407524512002, -0.04807851160304229, -0.06244403092656601, -0.010673501072934348, 0.05308265252779196, -0.09205953105872049, -0.05519228781528657, -0.02671816588007482, -0.05077442006536756, -0.01225486289309949, 0.040801790537525126, 0.016103282775501833, 0.08581140202465581, 0.1540159057756245, -0.07856430009122943, 0.1698538105110954, 0.1556380098246596, -0.11202470647367052, 0.03544445489737376, 0.1068293861379453, -0.058319864808624416, -0.09388029473837912, 0.03423074879786665, -6.205778604200356e-05, -0.03776916403283737, 0.02735823362764377, 0.11246639535637662, -0.017188534581135288, -0.09379090655733237, -0.008519539123344858, -0.1089563885344906, 0.15644428408320107, -0.10679519090522172, 0.005706854121424637, -0.1021067191833906, 0.002551739106477933, -0.04407316747548084, -0.03514315698709875, -0.01071626490607963, 0.014588873304671244, 0.11669727923782844, 0.16993112919674386, -0.018971868662067994, 0.03456945049141051, 0.10460772041492145, -0.028330794307975596, -0.008457152092066829, 0.10495835322525598, -0.0007825004000233378, 0.07486150117051489, -0.0674616521191601, 0.018177417734236645, -0.046842819774280176, 0.06421958190603683, 0.04194928052478727, -0.007876786593304857, 0.06864772306852536, -0.06802923432601178, 0.05386078500474515, 0.05820464112441512, 0.1685304463449752, 0.013040679907903483, -0.007620343700453416, 0.033893391344237314, 0.04369713984014777, 0.11379199851625316, -0.05359695587402284, 0.05685116300760352, 0.034100722532643, -0.0009190241419364191, -0.09211086999732498, 0.0203464234856529, 0.019344486492454818, 0.1328715209810151, 0.02818357179904273, -0.036793822436605735, 0.08678652750963377, 0.11205743155571368, 0.1217690675300343, -0.047958484056231335, 0.01856186406957696, 0.05723808305046199, 0.018562759697962186, 0.08989380592130806, 0.07256284481640088, -0.03669142748578536, -0.07207263364497316, 0.020137788084556883, -0.0036290879723835452, -0.06025485323469318, 0.1066109332498708, 0.03671761415780362, -0.14590805980396393, -0.020706803504725944, 0.055255850970797, -0.02671246708138647, 0.06900697495517592, 0.05000988559831055, 0.08895768787501201, -0.041057348975645044, -0.02927722209008943, -0.08838212161905981, 0.11056547731993545, 0.12553155607733266, 0.08428187769929968, -0.05483799820726777, 0.0949470958674599, 0.044178910152862134, 0.06134854300322741, 0.1567435189708992, 0.06365511168011992, 0.09058664197094617, 0.11643736319427406, 0.10315973047325143, 0.10506390175532893, -0.03619199190474422, 0.017034863872191882, -0.0662250071580016, 0.10433801647894725, 0.012138275453291783, 0.030608052628347187, -0.06344376882126775, -0.04529549000022737, 0.08887869999409717, 0.14349799411574962, -0.06965433412810944, 0.011693694233882808, 0.04024872496183358, -0.06391584504514944, -0.058422001041671424, -0.05575836890709429, -0.06095060458430193, -0.001130807244982694, -0.026326624947293348, 0.005974964177517794, -0.14147057488055007, 0.04490704224527003, 0.007524045139442073, -0.042674640710773135, 0.018937647879819722, 0.1591846230073046, 0.1133808447907373, -0.006208009397309558, 0.03484680533587012, -0.054366386992874105, -0.01144621374883488, -0.015869404820480056, 0.13270305383369296, 0.13252092155213072, 0.09484631914467259, 0.024900056052380902, -0.16867629356808927, 0.05357131292726424, 0.012861179147391691, -0.15639311477542966, -0.1031213594147535, -0.014342948289476892, 0.09237450037915414, -0.05394752153122495, -0.14655983743005116, -0.04751723201320674, 0.04489336812353387, 0.03475475706351162, -0.0029776133699223996, -0.12724119808839246, 0.11591204955775265, -0.1417151427927907, 0.06149256185900675, -0.08768558494680312, -0.0763000660581877, -0.022826486799160856, 0.04206314880886495, -0.05241091895679246, -0.05466017848101416, -0.08071731165620287, 0.00547425400644538, 0.021809538159011984, 0.11100011749633334, 0.10221454755197878, 0.13046378778900858, 0.05832862863033002, -0.012342339636571597, -0.049429593627353816, -0.1096356774251796, -0.020081235830303464, -0.0024038903930100313, 0.11732524260704758], [-0.08025108827436357, 0.003962499872909038, -0.021672472087113107, 0.02568428618274779, 0.023992774153654337, 0.008874175564168077, -0.04049258659223229, 0.08570328522522719, -0.1436530279104592, -0.07803522138854128, 0.012073874465342084, -0.12245393441612998, 0.09041501349888008, -0.04588838114023791, -0.020756425370775624, -0.059349980475725005, -0.0552489858211481, 0.04576589675739478, -0.025792340828904064, -0.06556225788167121, 0.06489269403305796, -0.028365632934982104, -0.0110296450479059, -0.053109685095067284, -0.05954174002850931, 0.019642408969247946, 0.00880567597146232, -0.05082284317568114, 0.06724483568268079, 0.03299891801275354, 0.05863522685037913, -0.10737632324682422, 0.04863769127692108, 0.049793803941566905, -0.12466631726176038, 0.022951305453174437, -0.0062649693054059605, -0.07276305954385305, -0.07718618165057244, 0.042854818580255284, -0.020602506401147327, 0.06790359818075835, 0.0206431532108505, -0.11926661375210261, -0.10343225961891384, -0.112444585334448, 0.06910801413284247, -0.019519471663229468, -0.022057663462915333, 0.06580302998310124, -0.03064519294065487, -0.033045808504879585, 0.049427444909147876, 0.044281424786525116, -0.05259677475542785, 0.066973353512567, -0.005644609745219149, 0.10510944037796816, 0.07290430760755244, 0.05314941909930866, 0.06555054666692206, -0.08113760509180645, 0.006636875390881555, -0.04252119604282671, 0.05549033531758811, -0.025811244282302113, -0.0008627949887208658, 0.043514761105988356, 0.00471369314284428, 0.13898693024893757, 0.003869501542113642, 0.05756099845751156, 0.02491544338751675, -0.006359461140589759, -0.09080254915455631, -0.005935267923503637, -0.03667149380239243, 0.06224473764485931, -0.05713180521081664, 0.005689919040030679, -0.024361542006993458, 0.034472652705393875, -0.007977660718872973, 0.09010628865169135, 0.00040598178466041924, 0.06466346793541623, 0.0024779957624756783, 0.02734465142279189, -0.034026094817936704, 0.05271220286940946, 0.07925853760071072, -0.012616713857187349, 0.043690169638566353, -0.004866943332937437, -0.03846500517136309, -0.015080415411653721, -0.08259238765209667, -0.043968880212786755, 0.04219030898210194, 0.008802663591383807, 4.972605804401268e-05, 0.0017916426727108577, -0.05011141304478929, -0.12578139303465255, 0.04383309931453693, 0.08282998810122799, 0.06021928639241336, -0.07141283540039149, -0.03971146967359134, -0.0716496149761957, -0.040668065394993055, 0.005828424712981701, -0.038381768451552445, 0.019554309615207096, 0.02186395428206484, -0.014575803386746333, -0.050641744771521946, 0.07860688360947966, -0.0810757132790667, 0.0344561759750085, 0.09154981738102587, -0.032786559224546354, 0.04334791711383832, 0.03190425900648354, -0.034685878684481766, -0.005181282763197503, 0.08155497974766307, 0.015398361445674899, 0.09346070916613523, 0.003604811826446095, -0.01906204082575504, -0.04092103782169464, -0.0648185393709311, 0.004349128770416037, -0.021462133108208416, -0.03068289237282218, -0.036214239901944965, 0.07989956207534954, 0.08963711724815145, 0.08243688274534253, -0.024407193786687056, 0.042839543768222715, -0.040469550652838505, -0.013056870485538568, -0.07243898339650251, -0.016039714694445244, -0.07907993270407401, -0.07809964684421081, -0.08103218527662176, -0.19035918998456647, 0.011904078179980902, -0.012356106442487242, -0.027006570566513934, -0.12569522505932895, -0.08535685741236433, -0.014655896596114755, 0.0063731320416211745, -0.029386825125851942, -0.1357752227145828, 0.026594122262770786, -0.009734467687450551, -0.07349904307016283, 0.018915909619447713, 0.03367870337321177, 0.07488749255245478, -0.14576858211043506, 0.043138483459561845, 0.050554319231723384, 0.07075499981783444, -0.026210255962628503, 0.029466235205866113, -0.12159791152070383, -0.12256763995642189, 0.08518925401571019, 0.03672021860851151, -0.15947792073700182, 0.0281145483469897, -0.04515163298669347, 0.10398809925550899, -0.007451100972103668, 0.08215629153361631, -0.142290437197339, 0.0794532543153921, 0.0022549485712707986, 0.048314775043958494, -0.09664163736677148, 0.07958260906561315, -0.09463421104379525, 0.1022145931110779, -0.15080163125131293, 0.029830728004259437, 0.11316124366177643, -0.07104912628869162, -0.06418910837659315, -0.021226291431072665, -0.11252265694856561], [0.10595151293783926, 0.004448005786780959, 0.10238365573715799, 0.061252637681942515, 0.05743434266912145, 0.044439390140901674, 0.008594462492381523, -0.06713865563154625, 0.14246040031222215, -0.1625393174474944, 0.10765002791659344, -0.12316136963365444, -0.10378033836256817, -0.019244574286532038, -0.153103538550504, -0.02595477447180747, -0.003768850548895952, 0.056571642332750846, 0.009948165878977335, -0.084390176410084, 0.02970256170913629, -0.016176764967128297, 0.018233480501161112, -0.08646884726095072, 0.005214890565022886, -0.04873726360137507, 0.005025376968615423, 0.041103381260640344, -0.07647284108984047, 0.015661221461794737, 0.11876585363342394, -0.02826879632292964, 0.05710281108949942, -0.09367610026048456, 0.04545677834584968, -0.04555689728860007, -0.06174887844056381, 0.16786345156732646, -0.019202518429623002, 0.00704062852820312, 0.01748341801124206, -0.08172059257839608, -0.05520305141195479, 0.06744539747134058, -0.0495831599792204, -0.06961079771171921, -0.08166549620294708, -0.02713213568956357, -0.0916077134585721, 0.04262412886600479, -0.018169177042672117, 0.01942527178827365, 0.05281338142438645, 0.004437160828724738, 0.05178986347573492, -0.06801270335257857, -0.0823477765785334, -0.07382415500465862, -0.004436679295757743, 0.12449517291194637, -0.096395263163409, 0.03210887350019235, 0.06293498310690726, -0.12866715669591952, 0.007652274714009961, -0.00041994643493972956, 0.03516757084891336, -0.13425032073568402, 0.07344262400179136, -0.05310142905555773, -0.10854819749589517, -0.046222337711194675, -0.034646570239476204, 0.028471125068942404, 0.04848147120182941, 0.010295774875820344, -0.041370978339136284, -0.056715911941423176, -0.025352017145807617, -0.02416089819884799, -0.0065739553280112755, -0.0008574294111458801, -0.14952039672806192, 0.2095544426211805, -0.05118484055111109, -0.10054164593897554, -0.06685342885160324, 0.10489146662702548, 0.049297114638323467, -0.06012452534242823, 0.06198643572222331, 0.035564624384303696, -0.04887373170785612, 0.031652224088933784, -0.05626836159914584, -0.03713377910067523, -0.10328787520779104, 0.03226191840722442, 0.12341351669533798, 0.14698313249487138, 0.07829681701974373, -0.07720575587308678, 0.09060422505101964, 0.04732149130952217, -0.029281847558477826, 0.03993889706415035, 0.07211743651092947, -0.1122428053796529, -0.02802638887543345, -0.021421907768192017, 0.050952075597201975, -0.09337553024022864, 0.0377673586888754, 0.036381105737501314, -0.11269321239790793, 0.030366008351533396, 0.05224171823626252, 0.042908730185709204, -0.0006897423625387393, -0.08372289223516617, -0.018299836632545505, 0.09359698830543489, 0.003349800635728078, 0.03673666599293937, 0.00043598731851546393, -0.11409151771662598, -0.10758648022488973, -0.003741323079623023, -0.08873437855458774, -0.03272991646971255, -0.005437309016644966, 0.047613705060834816, 0.01882607009785035, -0.056980469146598774, -0.00451334739287498, 0.05661030327138171, 0.12784588141780773, 0.04727771612357549, 0.03836560408625056, -0.10422639981625606, 0.043445057330809146, -0.1270653907285829, 0.06880808128690041, -0.050373865568873064, -0.039943508462337116, 0.03148351746538631, -0.02810686780803206, 0.06547453632809921, -0.004564611699304819, -0.0748889617788759, -0.01153105169350763, 0.039818862265112484, -0.09908390703424642, 0.0756418185405464, 0.1276320738388893, -0.04284769927671412, 0.06215545953458326, 0.07243931269301154, 0.0168500496431377, -0.04154726993413916, -0.1574694150158805, -0.04279057994787009, -0.06526540458574359, -0.16385601076705328, 0.011834616049095604, 0.023605179747727145, -0.09931169767627965, -0.06854006944068315, -0.005343806895880011, -0.017659138687197654, 0.004006820358635601, -0.1215387288426724, -0.147090357966092, 0.12965832781329456, -0.1228664242694542, 0.04286046839482052, -0.04280654134560926, -0.00737230849834461, -0.0485262552936529, 0.06159902988666224, 0.04415211233861219, -0.045076047976406804, -0.03312617061050954, -0.039730564535918854, -0.014502607160947648, 0.09466660028376954, 0.05531064496288573, -0.04186162730476998, 0.043407002927595015, 0.035070928416813654, 0.00036729543281143113, -0.07100578385503685, -0.023233746056654746, 0.0031307709613946928, 0.1012209295664975, 0.02158842812332074], [-0.016814750321235916, -0.09948186009509359, -0.026365428588381434, -0.010141717591775158, 0.14618273461433598, 0.037289595560070804, 0.004248655922657327, -0.03648492001363979, 0.06612808655526037, 0.06954151766745872, -0.07674054166342166, -0.0798571141044573, -0.05499770578979951, 0.006547029269203759, -0.041470299761420255, -0.026482944457960605, -0.0393393218217957, 0.008629662241272838, -0.0028653583238472105, -0.02846404169292967, -0.09606265261826658, 0.014699634663327311, -0.11819659281189726, -0.11719986451731905, 0.06649511813659824, 0.07947502467717428, 0.04533990143756052, -0.029727469841042218, -0.005531216842830882, 0.12137314357776799, -0.036875136808229875, 0.01742791752722675, 0.00752823050274422, -0.04826018021766822, -0.07117510321364252, -0.007188549194054567, -0.08754737655900996, 0.10616646127558617, 0.07681234985962197, -0.04270874789719282, 0.021037008781284457, 0.1249307338456494, -0.05602854844847567, -0.04135045150511685, -0.08096641174900822, 0.054976396027400794, 0.09099506756189762, 0.04849316637950353, 0.0328681357652991, 0.14337933362227057, 0.021167215565393152, -0.07272351140522787, 0.07757218781834288, 0.10358299842005601, 0.0074532595529563225, 0.008348125696706725, 0.04416755976001368, -0.045200020957730375, 0.01609739804283218, -0.047299126310023795, -0.08280186945104098, -0.02555719383111538, -0.010868162729160408, -0.06591079029107696, 0.04558206376110085, -0.019424360384136218, 0.11544917852335203, -0.12816148673151032, 0.02895615588997923, 0.03686577485913092, 0.09065472862058672, -0.09156761756845432, 0.029553580296942154, -0.029488110105797088, 0.00432861340283046, -0.038724471633671556, 0.0862926935630966, 0.06517566458958059, 0.057092478047590475, -0.04211554824928225, -0.08230823608479507, -0.07572848728495792, -0.06932930460116796, 0.059078051113622895, -0.00785269937527584, -0.012326904120591821, 0.08985808812155685, 0.10802074844104538, 0.042683117747243, 0.12337325847832038, 0.08991900467807405, 0.07932824772498213, -0.10712407620377132, 0.00041356817042831925, 0.06556021396612821, 0.0884818122583373, 0.0039153562834285775, -0.02068978222296181, -0.011212493704443426, -0.04134959387909704, 0.05858536779549405, 0.0362198054201171, -0.03460811640709613, 0.021090616108797148, -0.0278714066322559, 0.04502557218330601, -0.1031305953000048, 0.0010556030781485519, 0.0036598303148203688, 0.07198965750633736, -0.0015139154783945304, 0.106338024402457, 0.11850596576119894, -0.09903482239316856, -0.014607209291718376, 0.0025696923337571904, 0.001764831043982692, 0.005418583328411428, 0.12617724837440758, 0.045024970093559144, 0.01170904850279145, -0.11781061889123336, 0.020578419880318017, 0.09682445072703051, -0.04072161541849537, 0.016911391473027036, -0.05381953821659536, 0.06300365821016687, -0.1173091754146232, 0.0934953151656104, 0.07420750205951852, 0.03421132772849578, 0.004712949733634611, -0.03610178535965015, 0.04315146914431398, -0.00393534777458589, -0.013584484920456523, -0.11240070741431578, 0.05082296188344627, 0.09591910226107901, -0.044959364996306275, 0.06851730865353962, 0.05880526611994965, 0.10890501919088394, 0.12992881222503028, 0.0543536096129639, 0.032816573132466116, 0.15218562554221812, -0.048533339134772036, -0.04540646466877871, -0.005757840694990041, -0.0391807293435606, 0.07001274256933958, -0.10313932538146872, -0.02791989535461816, -0.07895342056968381, 0.005966555597004627, -0.07408178619212841, 0.1206692957702011, 0.04785807375156046, -0.05810151746099705, -0.006539344677339133, -0.025320328234880427, -0.10118456404414773, -0.12030804490002239, 0.05034655172708979, 0.06436782312548708, 0.011168411450092454, 0.09628798971671383, 0.05676183741377201, -0.1431396748620438, -0.10623982210748911, -0.05086795397696932, -0.0874357219584402, -0.0588421060485521, 0.06046403989237864, -0.08200300900481952, 0.08363545538231773, -0.14729747978599214, 0.13435323081237274, -0.032222169116247035, 0.03733686856311638, 0.01893408200345385, -0.009523257178090874, -0.0897638255076732, 0.025369100865752624, 0.028186723333511795, -0.017815229703733615, -0.022278117581208956, 0.12931663296863255, -0.02280450555663727, -0.11256654894291199, -0.09076599812576353, -0.0008118797911841197, -0.07471543952620768, 0.0663866454964232], [0.06638865083639066, -0.18963427144917616, 0.015097262230921935, 0.14404805592079362, 0.06806642228923367, 0.11550826824886543, -0.005342087359347116, 0.0036244250245663304, 0.004152122205503609, -0.07101113497164464, 0.07149721522023834, 0.06438716238485002, 0.00019695657922210277, -0.031246659473720774, 0.042939593543274396, -0.04691147766070923, -0.007265810941317273, -0.04347034365267663, -0.11763576557546494, -0.047011494421565214, 0.004923968462201449, -0.11434283247522012, -0.03931489417023313, -0.0021293274231659613, -0.01235255842847631, 0.0014704273717655637, 0.06216024328594159, 0.004823065261381868, 0.12086903103827429, -0.13424353448879678, 0.11857904104881624, 0.10726740585068151, 0.03894025832448285, 0.03624281125170244, -0.045155537731324455, 0.039306521484451434, -0.0050137613267814945, -0.007354226315295522, -0.026340200364884638, -0.031859698944977054, 0.08294328265606156, 0.13497344750497142, -0.008888605546672083, 0.040885683634503955, 0.14859876752671902, 0.024891858444320795, -0.06450567781104573, 0.04399775284018859, 0.005445177647619726, 0.027522950042461008, 0.009444036857298907, 0.01328067058014576, 0.02788694834444887, 0.09502278895574728, -0.006228886297822896, -0.06169508134769053, -0.16063809594785097, 0.04528174532761708, -0.07046421774531222, 0.13753386282923583, 0.015069530233875186, 0.09100503543270543, -0.00345835478953421, 0.06227421682956719, -0.09847912783399179, 0.1618689080186621, -0.09270675143802122, -0.046034196845430815, -0.06522701018906982, 0.01831049295339014, 0.08724172400805419, 0.0658929526771522, 0.028700707689330383, -0.1299753956771242, 0.02080231752183697, -0.025184177717293962, -0.10282350765855641, 0.03276424318572963, 0.04322768171802379, 0.004338503837685208, -0.145762504217356, -0.08701878876590942, -0.1900790654005639, 0.005417807156376232, 0.08170723386076899, -0.04496299249564349, -0.0053778253104744544, 0.039718177085274496, -0.06390397966284085, 0.06756041097207001, -0.007715901627672352, 0.05418310259683192, -0.045748709812195434, -0.1588310637463938, 0.10861520620681815, -0.05595509801392968, -0.0485882626170876, -0.08250484424630812, 0.14143813948834508, -0.025692942197201755, -0.13312300054843304, 0.02676152709177241, -0.07457220504925294, -0.03655031308430586, 0.004396294911849304, -0.05240917551123512, -0.03532926400787189, -0.0565224821713974, 0.006980723853077628, -0.057557918985319194, -0.10963640794857403, -0.10528128960811071, 0.06583589026737319, 0.10598821061060584, 0.0043267313487031864, 0.004279732833273204, -0.04780139294537092, -0.060580050102904376, 0.06258385519911727, -0.015835431795658987, 0.08601952094147221, 0.0530523308089452, -0.006841332663346318, 0.040138938624003494, -0.05101969944310249, -0.12720724043807405, 0.17703255902058987, 0.038193843441694734, -0.01446725514972854, -0.10255978777769473, 0.07059574204727241, -0.016594638731815402, -0.00976137596760322, -0.03348273610393601, 0.09786280102043143, -0.0208158547817108, -0.06859417942253877, -0.010561183571801646, 0.015524307053338357, 0.006960837835951587, 0.13809564090540263, 0.062339407167679314, 0.03828016423974017, -0.06086427670742808, -0.008551824311719025, 0.015728464909746335, -0.002247238533576646, -0.1418111432739899, 0.045991560826055336, -0.11492852860629733, 0.09596305667253296, -0.10784208806959596, -0.022589998705905237, -0.03547398680924656, -0.0676700856951477, 0.03189412806975276, 0.044797381841410785, 0.13350409276592565, -0.004724170913385049, 0.05930198185441718, 0.03718766242087161, 0.011597541502720247, 0.03848126953695356, 0.02668138134784661, 0.004401780239088383, -0.04859805642576293, 0.15279914913348613, -0.004023015274407334, 0.07284463173632882, -0.035023633899021404, 0.014891826539238024, -0.012671403517643733, 0.04619095570441659, -0.014879883966353683, 0.036242966765573675, -0.01940601778489575, 0.011920150084384028, -0.050588550428219865, -0.10148553969210822, 0.003977548861775473, 0.041318462417579964, 0.06807841421624627, 0.1310607081175983, -0.02117690299718164, -0.09393512222389781, 0.033022959641742046, 0.16848023659817424, -0.04000373867156133, 0.04608626356601174, -0.031691683044319796, 0.03569498033217302, -0.04790640502909656, -0.04078086135531091, -0.11924200289958331, -0.060028569200359636, -0.029555480958572036], [-0.046280105178392004, 0.045846221656784814, 0.06837188528407978, 0.003634984670837876, -0.0728967128899758, -0.045297680299660865, 0.03523106592422106, 0.00950928666760304, 0.022063334214386405, -0.07451346980425813, -5.949940835018683e-05, -0.05751336872559202, 0.1438528204108053, -0.1365477246768718, -0.1268273095885975, -0.1654168416888854, 0.10386203434356069, -0.06419516044841403, -0.11741514421396995, -0.01686640266609111, 0.018841192975586937, -0.012737738133714344, -0.02458427618635533, 0.03631789595762072, 0.07977050131426577, -0.06402626797295734, -0.05114524216541752, -0.04475047423850628, 0.08023125814535582, -0.15077938946426914, -0.08958685544020414, -0.04478742268685834, -0.03770262488323108, 0.06547441877704084, -0.042705607173746385, 0.042566478994653656, 0.027294082760010985, -0.04645600181947252, -0.09205283891353756, 0.08906232743505847, -0.11512554186255089, 0.1050329726686019, -0.04729454779604206, 0.13688882940781205, 0.0398093570564863, 0.020800683633983318, -0.0042140240563056305, -0.03609655814658128, 0.03676834186553602, -0.06961955984196404, -0.07474386877163854, 0.03607775117281074, -0.03493239617964601, 0.0438459503642724, -0.024242761078914488, 0.023821449330945557, -0.030582133032574732, -0.06660604150995578, -0.0006455455375477732, -0.012840501198695618, 0.030243946479491197, 0.02124910092480248, 0.02807104151268196, -0.1907403476163383, -0.05637648018282713, 0.04439605720528588, -0.0650848031262336, 0.07484366156710923, -0.17014265353554484, -0.14021921916535798, -0.086074765433674, 0.0070338232427527405, -0.07379900545714008, 0.15616710053699442, -0.1251280419485756, -0.08276396494156439, 0.1075222502201326, 0.06795757442466627, 0.0033350931915519123, 0.00893553067829843, -0.002183732858447513, -0.08717555621989903, 0.10477613346686068, -0.037961039989269786, 0.08409433137284467, 0.02857005033819279, -0.09303202831996851, 0.10616892365490534, -0.049715933361915834, -0.05259478856080036, 0.0015733824335782286, -0.09570061287874458, -0.0460178625477713, -0.07503425088766116, -0.0425593904477305, 0.048082768501543534, -0.03878872217707014, -0.035766239572049885, 0.009739684311384502, 0.11181980285078112, -0.03349502114729578, -0.11848214455910472, -0.12811047519990706, -0.03742112159635362, 0.06494716200318852, -0.08662476908017397, 0.04828793174960101, 0.12321367707845164, 0.02705101725153411, -0.007458899911313023, -0.030641297175132802, 0.03675766411886019, 0.07100133188387331, -0.020518905702351327, -0.07078726416003574, -0.11487168815622857, 0.1618416047869274, 0.03651693702204074, -0.16943379504352668, 0.0394730299555607, 0.03036840823502818, -0.052597794430056036, 0.027242607192637592, 0.09159049116423236, 0.041747808586970074, -0.08733258382658587, 0.0170924974811601, 0.09699790301864764, 0.09420257464013851, -0.03617568071310421, 0.07238130945557482, -0.03387035452793062, 0.006096729902307716, -0.03164690343685045, -0.0016536804570346955, -0.023007745240811457, -0.0038586417540113814, -0.044706858549432134, -0.0860315775703802, 0.11235874837883618, -0.09530858091473204, -0.00504707408608003, -0.19496922890717477, -0.026274325593731298, 0.0845078400771586, 0.038910616341969635, 0.15591877325510486, 0.09866308417807633, 0.05072841867644463, 0.032007040186667994, 0.058864876147363576, -0.0657712959849108, 0.08584981214047553, 0.04587912672512586, 0.039498876934752514, 0.05248801956156051, 0.04120702544137118, 0.007137662651615049, 0.046217927780551754, 0.03340298017456513, 0.08836967738970203, 0.0033039239480306313, 0.05058448448689233, 0.09633384556754185, -0.12966800609030066, -0.23258915351142787, 0.0033971402595147386, -0.08323705935987259, -0.03002766569632751, -0.17725810201306974, 0.02927642898713069, -0.024480711379483572, -0.03337703192480679, 0.04377784633305246, -0.07403558343378226, -0.06941102784626814, 0.025870684759535953, 0.1272286189223517, 0.21855061653767438, -0.01136732179303895, -0.01253404123489288, 0.07856861107901637, -0.05002783322506318, 0.036526172829695676, 0.02831807082232556, 0.06999719472633213, -0.11269255610611704, 0.11993003590560619, 0.0849521238118261, 0.018353865589034526, 0.04563004443611187, 0.04825330597555273, 0.006787499792632549, -0.010539137658299681, 0.036678056675749936, 0.08572701653088527], [0.08842713032380052, 0.052414110918520516, -0.148441807562396, 0.02744781949821401, -0.00870648022611098, 0.14238848048601951, -0.1385854968607141, 0.03877284988941805, -0.11624261096444052, -0.01850775258041071, 0.08602427606975885, 0.040546283755771566, 0.03237280839400499, -0.08006763181219921, -0.03182453967181626, -0.09337523375707935, 0.08454683542736391, 0.10283291407542879, 0.013292415913755507, 0.03725088134317395, 0.0807940017360152, 0.046285893804621864, -0.039558711435393426, 0.05996487988052432, 0.1040631082622203, 0.033458594205226476, -0.08424197155341333, 0.039893154611607876, -0.007336036149035377, -0.09761741592503227, 0.14706958086917063, 0.0044157128974081535, 0.026062783592711164, 0.014916701610666614, -0.11683531945284205, -0.07660854175190977, 0.06011484981168368, 0.04697497030010282, -0.09189296237736176, -0.019894097294331087, 0.041793945108554637, 0.1738829689797257, -0.05795881936886522, -0.061941662176562225, -0.20616154419861188, -0.0670178647344076, -0.06825406236937209, -0.04748069769988366, 0.011170570103729712, -0.07360843817814902, -0.047736717487836526, 0.04575234774919183, -0.038995441569704574, 0.10921289988760434, 0.02491346759736252, 0.05020555305716801, 0.06376053833390799, -0.11707469456441062, 0.10597234874733678, 0.046203476239330375, 0.07576716068074284, 0.051811758898801165, -0.0804251440318253, -0.09630813171835953, 0.0723295534729868, -0.034027765523076944, 0.08911832557472259, -0.004870947851199796, 0.0025773328646580525, 0.02656340631767214, 0.08929277828735938, 0.15790257614116504, -0.005750105708659419, 0.10483355642368795, -0.030711555204571913, -0.00762523271872851, 0.030309263422522097, 0.04688219236533461, -0.046178547727323806, -0.14146726829937614, -0.23789030756944443, 0.09390619834807507, -0.013205132235700202, -0.024857492708384266, -0.03739750559768041, 0.004289540284537598, 0.0030050109747901035, -0.01525379810059877, -0.01726935793300809, -0.0768144466104677, -0.011149373093380543, -0.0612243106556345, -0.024863504293362336, -0.05538508870662145, 0.07354169567847904, 0.015473798546781443, -0.08294651783718117, 0.08252258633917621, 0.037777270361236154, -0.03896222664446258, 0.1271447069213692, -0.013103200330012225, -0.07971095804779763, -0.02916300542305076, -0.002477150456866593, 0.0798931376552367, 0.09820417352087311, 0.07646607647098592, 0.05488177307068055, 0.05966903778196937, -0.04623920736985047, -0.1358428661369842, 0.05094847208287216, -0.08252514918761933, 0.06210088449770951, 0.04147795043084519, 0.033178603384667674, -0.07809217176130472, -0.06658138858964449, -0.016737482193640425, 0.07965251620627498, 0.12792163707203533, -0.00936451410694191, -0.06580018781867492, -0.0015028776431634293, 0.012474065139999782, 0.012225948067040015, 0.0021487347916780944, -0.0410697714285509, -0.05706324892075807, 0.11548280348521728, -0.019576491501252607, 0.07136734251881782, -0.052797676194437114, 0.010673189390882729, 0.00897857196117614, 0.04598479942270434, -0.034735790421910606, 0.05988444699472716, -0.07968412849231794, 0.06771434099242557, -0.06888800453238696, -0.01172122278027325, 0.08100296325502272, 0.13936261468981836, -0.0980151052429788, 0.024602918835217816, -0.08127280516576388, -0.057109836826322286, 0.12115167724960343, -0.18141108913748327, 0.025003190824888076, 0.01593033719349092, 0.04687956277059132, 0.05514141962008981, -0.07440847116863086, 0.057665234547934215, -0.022989621841926867, 0.0023019123296836317, 0.13692506223108733, 0.14932578040728198, 0.01365827372535112, -0.06014385020879721, 0.008199063304823045, 0.09101852540194014, -0.07338786732783183, 0.009534752620696545, -0.06974092457436087, 0.09259454627252524, 0.03824412031568467, 0.033731193836577106, 0.043355360358943856, -0.09556874362848344, -0.06273816820777313, 0.0497958008890738, 0.10406633073620902, -0.009684401071805883, -0.07037576244287945, -0.02946392518436137, -0.008073378778106837, -0.012344668651278392, -0.005243595195255566, 0.06102669815770048, 0.08857663673617915, -0.06935593787982991, -0.05488068228617688, -0.1480310707920491, -0.08827939782459863, 0.025034304137068874, 0.08547664006740834, -0.21049838435857135, 0.028995133932624324, -0.04141990440674625, 0.047356125689958374, 0.004012746329228319, 0.021471247881483357], [-0.14433853711251476, -0.08313879537034166, 0.04683181060332645, -0.03138625972194888, -0.025376677152379054, -0.07378876166752538, 0.17371409882712927, 0.0009004375013404832, -0.009849702932788477, 0.08225543070336272, 0.049103950874866936, 0.08494610521638872, 0.08289171480736508, 0.1656784221813602, -0.013468360900267581, 0.04347109877260974, 0.05665252202366474, 0.04831118670157623, 0.003623551379450537, 0.08270543921902547, -0.017003285844537364, -0.10370692220068023, -0.05260558930904411, -0.05846410920249271, 0.10435330999100947, -0.0468939317839868, 0.08544450034302548, -0.13863156713007244, -0.04473251370954707, -0.08418427168960775, -0.12890301937281365, -0.08550647623741575, 0.03333183767974093, -0.09815815415360028, -0.10339892743123272, -0.01737820807901779, 0.04741432420734878, -0.020587142184057883, -0.015770058090424952, 0.01630063126292683, 0.043284566676301706, 0.07958092830156774, -0.04551435459510223, 0.05871938026490004, -0.0020394259668508456, -0.08746827917565295, -0.05226514145212097, -0.18290007134926015, 0.06442380743484716, -0.01836489505193917, -0.07496669641890397, 0.10180508193603914, -0.0503849222182408, 0.06335026823748906, -0.13491565282823867, -0.0606760083001451, -0.09684241332641073, -0.030733259482133984, 0.018109242736248938, -0.05101292543897875, 0.049564447979289945, -0.08169535494334756, 0.008377784503169365, -0.03678220971682383, -0.02360598422779566, 0.018448709075749498, -0.08837627147866897, -0.04823824625666487, -0.02202600883412475, 0.04640513020189604, 0.020363221169254823, -0.027615698939516518, 0.03314670695368431, 0.04097104226935895, -0.04556668292181684, 0.000914483270902472, -0.0547910748439621, -0.04638836731661356, -0.05296876025080587, -0.11120075181506908, 0.11215844914625306, 0.014698324149998065, -0.018905378849317325, 0.1627144584494206, 0.017038505928654506, -0.02970064363494541, 0.03449553898312707, -0.038053626370285934, 0.007163152847145655, -0.12587651857513235, -0.008322953150935668, 0.015031407078117174, -0.07742868342953985, -0.03070061760231377, -0.03123014190059751, -0.152657729594464, 0.04646413353058258, 0.003388369163451935, -0.014480824831404091, 0.09222710711253392, 0.010589113651438371, -0.036554479965319624, -0.01277809821630265, 0.09696735354334256, 0.040383157855769576, 0.021508067095978835, -0.031147130106052533, -0.05921917949918374, 0.021911606066704597, 0.0344268995954489, -0.0005822899557062199, -0.13414017729758346, -0.011320666982084265, 0.07757226254996469, -0.10613824446882533, -0.13862167758501273, -0.018213072754759665, 0.09633668784530765, -0.020860347091107987, 0.07561693147240749, 0.035359483982289296, -0.1045120971732907, 0.08056235738817573, -0.2183580379039303, -0.010360814364874077, -0.044650036329457125, 0.09356513934423558, 0.06376876428420114, 0.10938829178622525, -0.07831361446724876, -0.037555807769735675, -0.015310833062596505, 0.01010243357041408, -0.042382941197020234, 0.12425613117722122, 0.0441620820482754, 0.013293629726274628, 0.02873751378675266, -0.08982958939024896, -0.07056440100321476, -0.003200441099329798, -0.060141016860729236, 0.02488658171532448, 0.09799778278772421, 0.008754421401469717, 0.09973724112021916, -0.04150952493769221, 0.07105380736905566, -0.09627423180118537, 0.005031218388220069, 0.055178838020116895, 0.06618390484875436, -0.02358108962116513, -0.15691314415563398, 0.09521747386583514, -0.05134839346815826, 0.06271860757546747, -0.11956757037824016, 0.07110248528763462, -0.10037022235548383, -0.0010980782713818468, 0.007463732233782543, -0.05062852968059778, -0.028061264153669184, -0.027660627879953967, -0.03665564569954676, -0.005932422230452516, 0.04342406180657412, 0.033582498256373106, 0.14719493292305344, -0.0005860027444637003, 0.06731958884537242, 0.06684202402189544, 0.021821673139704637, 0.03419631109453331, -0.0377132234357308, 0.10281331202628326, 0.22766796793032182, -0.12678876417141735, -0.10460950068927005, 0.060202247669545725, -0.03813291460812773, -0.07832911566624974, -0.00820211799651521, 0.028819572785084475, 0.02630416361129196, 0.04468977724388119, 0.030849809824655947, -0.11492544348576872, -0.028057613236662178, -0.12708227980022746, 0.005675725232967284, -0.08214574283968495, 0.12093590387586066, 0.017517436929870327, -0.03829152592753607], [-0.06133155673415772, 0.04208308450066647, -0.033720949607375435, 0.12538017769702509, -0.06589560273472063, -0.07635574687549566, 0.02464439357394083, 0.14386448233205137, -0.04442900888792613, -0.002152049333866149, -0.08205273316983014, 0.01679850798288438, 0.09921843645459157, -0.009057398685536627, -0.004501432474169032, -0.02108573991498507, -0.09168926283822323, -0.13290098736042236, -0.03276836062326108, -0.08475660675987316, -0.08080157792862314, 0.02271156506029257, 0.011204701099890333, 0.05555780787505522, -0.03335986723755035, 0.05969201839815783, 0.10512373302309756, 0.05079153601142961, 0.015181743045761425, -0.06860065538750296, 0.0776790670794782, 0.04810976386385152, 0.0988859667675953, -0.026358593196667505, 0.024442696913535726, -0.006273049878399655, -0.1438791261793657, -0.03404382651084546, 0.07334874921739752, -0.026181312272234226, -0.0016512967671446365, 0.026252465208317498, 0.017456437254461936, -0.08888724242187439, -0.06935214567073424, 0.002791912635396377, 0.15596538813650418, -0.11521819536201076, 0.07485066173473084, -0.020685144996417746, 0.05470068322602529, -0.05564216091473401, 0.029791797790957503, 0.00874003809117556, -0.09797222684165952, 0.002053720205211712, -0.0038005581755330333, 0.019708364687526195, -0.023788195997295702, -0.06209018608964973, 0.02696255318367295, -0.00871007545756212, 0.036237005850923314, 0.06788686849892595, -0.10440754341747414, -0.018679550368708865, -0.0020867371034908795, 0.10781328514731153, -0.13370005800584267, -0.04677081525437962, 0.07463427453563921, -0.08067413972133093, -0.01241519874720329, 0.05600260123041907, -0.08726726870712187, 0.06933719994545713, 0.010387188713180999, -0.05113752878717805, -0.11672808623360431, 0.05197919462874507, -0.02153115616334631, 0.039963737957105235, 0.11412450370127952, -0.0053379471662120615, 0.04120810547568073, -0.01643499266933173, -0.08193946795785068, -0.004198402276811022, -0.07436902855107198, -0.09287298088630261, -0.09209764068285313, -0.00411754607473444, 0.014273083047277197, 0.08544235643108278, 0.056007246582530104, -0.034485346570587265, -0.02189196913073986, -0.05820918462446809, 0.01598905451296916, 0.11142737071580586, -0.044446002853552886, -0.10926767648430964, 0.018349214546260692, -0.022099961941709923, -0.061476218155668574, -0.00647298799079827, 0.058851728357518264, -0.022800360771761962, -0.006103321015800435, -0.0006696149284766063, -0.015039481795155029, 0.037981631480668826, 0.026533072609547473, -0.051805063656304995, -0.03154854900426702, -0.021485776796553186, 0.014238721657200996, -0.0013386640539705763, -0.07083620471650963, 0.011871029296174356, -0.04150462193353882, 0.025045425341994935, -0.03751755614575001, -0.04152359659702112, -0.10648903794550864, 0.03338368975585863, 0.006725038013163962, 0.14828032255132928, -0.05813565547439523, -0.05813106211411236, 0.03799942802793741, 0.12693340163627287, -0.05339957201293389, 0.060890840275804235, -0.03309287990788604, 0.016224222327425257, 0.050831620818756, 0.030321635655358357, 0.08634910817875838, 0.03293623589972922, -0.019422413786745536, -0.07560616909675336, -0.029067143819226787, 0.03426469656107508, -0.07623682265611137, -0.07281308693499904, 0.024433659299682952, 0.022134210665582396, 0.019514763947000406, 0.011021535495524882, -0.022829339537451115, 0.004478416283057033, 0.07330752908392715, 0.07987160008703521, 0.06428911038776111, 0.04566137886601878, 0.02212391844910753, -0.00442493066541191, -0.03219403735830769, -0.02296576781235013, 0.05346523019082885, -0.024919123819767863, -0.10416554151927167, -0.009979292311884217, -0.03155822427460372, -0.10384513317078813, -0.07116999546535466, -0.12463477267502693, -0.06358020418696438, -0.02598482758708523, 0.12229422715303341, -0.03462586392773806, 0.19853558022222872, -0.03833451388615569, -0.023061550106745748, 0.1316783013308754, 0.002326031479433482, -0.12891761147069905, 0.05611871519780968, 0.03043029768011585, -0.049007288136230766, 0.10294624166901505, -0.02542633515537589, -0.10255604954430635, 0.00956533561537088, -0.010947891535064645, 0.09248301999270127, 0.11733206396456877, 0.01871239141145572, 0.09986825450045497, 0.06236944788271721, -0.08267029226096698, 0.057532124425987846, 0.1666326214751817, 0.00959232463004346, -0.020289954624580303], [-0.04477328577850745, -0.08699927597422881, -0.024285182463802138, -0.12106757983186059, -0.03492500790946723, -0.005936272524946454, 0.03780465021932208, -0.14832241301481686, 0.013933478282929304, 0.09617478695097259, -0.03337982723641298, 0.12146050093016687, 0.04436169333470492, -0.08635381771343575, 0.02715641048520501, -0.01215288242680021, 0.02480638640154196, -0.09148234889887562, 0.0005029506092898805, -0.07354951556522782, 0.13027631138470408, 0.1012029236884419, 0.14159360669796017, 0.026181778250792313, 0.08238526816258733, 0.06163428204532114, -0.09481638257054964, 0.03829306292592606, 0.03026775667130835, -2.4091864380617186e-05, 0.06374183007640796, 0.05555290447894912, -0.23228054934780198, 0.12498338887998316, -0.0017813641636884635, -0.1263563516847366, -0.020581035892539293, -0.03194003915353271, -0.027207615457960237, 0.04603357417926427, 0.0011606558563154433, 0.02514830819396924, -0.02013326713460938, 0.07488958232187527, 0.08724680130116033, 0.1777193145950261, -0.10304749822890509, -0.021232813106888473, -0.011044394283388288, -0.1763685559800246, 0.017589416911467128, -0.05874627080279876, -0.08117471367640401, -0.06943200119615732, 0.13037824410805565, 0.06444186748232064, 0.038372241877586866, -0.08390381674352926, -0.003779302535102035, -0.03657541151070307, 0.018702803400915954, -0.05959971614855224, -0.01308204482130121, 0.18731905233467927, 0.024203190326196916, -0.02992291103844191, -0.0822757842378314, -0.07860473960103209, 0.14332593209339634, 0.10403204364490266, 0.020070597241016255, -0.11557454373110584, -0.10390604064538861, 0.08455663121357208, 0.017329338727092893, 0.09615926721789525, -0.075597318741906, -0.1268974830280168, -0.07862866516373147, -0.07443833641726924, -0.0474591393406213, 0.04360983880860595, -0.02353609880829909, 0.12400501459176046, 0.11781659318588618, 0.055589679287892636, -0.006891247331561794, -0.05852538406832651, -0.031200218112690217, -0.10466840623268188, 0.12782864069222016, -0.09607164511688521, -0.07238561801127809, 0.00877274052079885, -0.04484672468040864, -0.011415374886101086, -0.1966963215932698, -0.08200698304135848, 0.0764888780915471, 0.013256785118781571, 0.000907369814247359, 0.05158146763775596, 0.06389875429200241, 0.02226169459894889, 0.02137046795594842, -0.2060082328779244, -0.0645939818419406, 0.04229564448476162, -0.0020192607601391046, 0.11881467928334359, -0.05366263547860696, -0.011779602953801392, -0.02584353155633172, -0.03218845071868506, 0.029330482941599328, 0.026007687517113073, -0.015683330216693544, -0.03662527861797216, -0.07056084561556192, 0.03818010263170663, 0.18799204603906722, -0.0994112983653191, -0.20962656349706946, -0.01448917101500708, 0.04820695463630827, 0.03730663781903756, -0.04871800574174788, -0.07458487700749002, -0.018508521958207, 0.1395049984707, -0.052999387733621554, 0.12566351456491104, -0.02553414677033831, 0.05592649864509377, -0.11503571879520202, 0.13503091457078364, -0.08844720709729507, 0.02699718895910976, -0.08183093012392334, 0.022146857990591753, -0.0006990863209275662, 0.1193582099990909, 0.014345585828700016, -0.036429584367001534, -0.07008490829022768, -0.10685694252131442, 0.07428385772734022, -0.13357895516476342, 0.019659842093847357, 0.06862839573855754, 0.08698438520687486, 0.060808265845391694, 0.11353404310630953, -0.0341911863272559, -0.014798724260941656, 0.08840361956359331, 0.030529392036892603, 0.03992541464123849, -0.08218645433893723, 0.07005820968279607, -0.09685104788224419, 0.07594300696789942, 0.014991750872792546, 0.06808340765033222, 0.03596595702251623, -0.04148874023402039, -0.03796454996984565, 0.012273737019622104, -0.015257180658768934, 0.05151956350127837, -0.006068725510080854, -0.1765505027269104, -0.01890187682853468, -0.08496831804666603, -0.14177596669946235, 0.05122054368826712, 0.03370903050598833, -0.019294173174607087, 0.08439227116713033, -0.0902782642126122, -0.08813994178895468, -0.010855881855993135, 0.08240601233932439, 0.09360339504101961, -0.04179910199979425, 0.025829264568350153, -0.0383683663282456, -0.04432344843713062, 0.20630873273209904, -0.08930065484305122, 0.04064698864933722, 0.036436909881554715, 0.007156443777228981, -0.009449571728958318, 0.05444389983030068, -0.0382743275112707], [-0.01240141296848555, -0.030173743070059537, 0.12697666006678507, -0.007227158323765086, -0.016207493952300086, 0.008662649865669378, -0.01244204099398675, 0.0008465841004568276, -0.14095901225613916, -0.04002194239663903, -0.07843287306782666, -0.09073238123343502, 0.05575264771888134, 0.047221296427624945, 0.01240331792776523, -0.03551227645346263, -0.028174064226022536, 0.09645003993950024, -0.07503027835082288, -0.025328385499618158, -0.03170418255137847, 0.021740442049838295, 0.013864869731864625, 0.07503241943369134, -0.07162736514813596, 0.07784540991140979, -0.10387468092366678, 0.009882253730729878, 0.05310665744738265, -0.05222349047127958, 0.027045206858603815, -0.11696241733750029, 0.0036488708628400215, -0.09367050083710071, 0.008072789522732837, -0.02722579378586249, -0.0419684268458661, -0.02970900037464498, 0.021157215239435805, -0.0384730103213707, -0.0029495706784529022, -0.05490121667876298, 0.0052655255995793125, -0.02972016939780809, 0.0014940652726575514, 0.09187603717222535, 0.04133657107243968, 0.1297855518426656, 0.04019273088056588, 0.018222157060528384, -0.011084639824279166, -0.0666502047239697, 0.05381956197859326, 0.17003039340814088, -0.04559355229041175, -0.05459565043490214, -0.04192691585563108, -0.1264785464958313, 0.006233890815576686, 0.08045346319185982, 0.06827570925266198, 0.023290896344705693, -0.1808026858633041, 0.10622702629953173, -0.037193468852457084, 0.12240733202474394, -0.1170909561392993, -0.026983618047744535, -0.0743653576325819, 0.019870592127820923, 0.010739117961162508, 0.10530845022129762, 0.1640234450528406, 0.12381618310147176, -0.07092591334520428, 0.09719786932031302, -0.008041592619902555, -0.01416902911884111, -0.048329527476887936, -0.07492064742200469, 0.03859962098772339, 0.12908250429406704, 0.10011083871658476, -0.2211012280560141, -0.047197041455138374, 0.014190304976806935, -0.0310535376240631, -0.1032155200450021, -0.060433941339765554, -0.00020655990757409412, 0.013108456593088787, -0.1374282340496227, 0.09318534833863386, 0.014140365365869441, -0.007584185305099015, -0.05952691809128302, 0.053311842369856824, 0.04482295219717184, 0.11085699438567587, -0.16240546899929348, -0.08022574086886954, -0.0855157146693139, -0.044197424681712325, 0.10029254564081658, -0.06039629087100046, 0.0031978099720784835, -0.026093115419758034, -0.09050533425123018, 0.058477116016501414, 0.09544901189889875, 0.040905560147195534, -0.10723741156671014, 0.06791439178174803, 0.01031156298239419, -0.026185888999706333, -0.029181825308196477, -0.07298428142885491, 0.0059703171344011475, 0.0883032305112587, 0.0024599539394929044, -0.038783753691824706, -0.08031586753827344, -0.057242477805378104, -0.04399941711732017, -0.06078942338047793, 0.0414903557073458, 0.0741487063096822, 0.11777603680712329, 0.0349827728699269, 0.0037677020107020707, -0.01443665653769975, 0.07944245100808929, 0.028254874613291143, 0.015867960791975614, 0.06287245239301474, 0.021618080234252175, 0.09781636341684191, 0.03719938951918211, 0.04879979577041957, 0.03663994969767661, -0.09028407398839991, -0.11725794123443158, -0.021433289841490195, 0.049179980800928086, 0.030174579175485876, 0.06007133952651313, 0.12560064938674945, 0.07862109009593884, 0.07644256123039177, 0.014927194202503732, 0.07213642543583951, 0.08460674699866415, -0.009214861040215834, -0.00851368379944896, -0.007608849272274471, 0.06276482544122795, -0.048368754999472775, 0.07222309210302354, -0.046632334956160336, -0.11912589355970149, 0.021884663717440484, -0.08483324517918482, -0.12091950918496244, 0.05145362558814055, 0.13572760469187126, -0.021794079570184956, -0.059628920452430074, -0.08560063425162355, -0.03316246874825313, 0.0034433600118764806, -0.06711254008362286, -0.04065912573784035, 0.0072514901693024065, -0.01468172264443241, -0.059758468089418044, -0.0891929887402516, -0.12400394295683836, -0.05776368070147061, 0.024359752962230738, 0.033166828516917685, 0.014879610206440705, -0.07685509918814573, -0.004240061615040811, 0.05070517033019259, -0.04764015679431159, -0.04354092640257267, -0.008821410741864816, -0.04973191987121949, 0.0640027219002616, 0.1223617450008069, 0.07861203377678379, 0.05211283782286326, -0.01865519351653676, -0.11534215815047437, -0.03715145823147129, -0.07695371990446409], [0.0022872376495503646, 0.19348980701048613, -0.04417565754536377, 0.10274868963291262, 0.09224305914147339, -0.052574049450164105, 0.06738608444611964, 0.07146773827139635, 0.05065308704650395, 0.0033485751799850042, -0.021518894781837817, 0.07238789878117746, -0.014444133242624786, -0.06486270604158245, 0.03178017976682138, 0.1537289014873431, -0.02513289350476063, 0.05975196970233135, 0.08198972117569917, 0.03419233646318397, 0.10570406428612443, 0.006960636740539944, 0.05323464768128061, -0.02986352649998727, 0.001626184607130134, -0.011134612116001816, -0.052873521057893946, 0.10415577313033572, 0.028005955910306794, 0.074666124012635, -0.02604474135545945, 0.01958801260739331, -0.04613770494241493, -0.04885593281081716, -0.03746312522462771, 0.049764732668060856, -0.024122550507588724, -0.06268350586079383, -0.08001660210680225, 0.056089244511692324, -0.11458151745639757, 0.09734363337831028, -0.17049950025831787, -0.029239872663521467, 0.024986533924867323, 0.08188080260456548, 0.039586932043248486, 0.03638618622851293, 0.057397822779445676, 0.004290675983134404, -0.048739313477379746, -0.035048111003548876, 0.0005762534823430246, -0.105938707687398, 0.14822783153974306, 0.1043949552105641, 0.009038183996601933, 0.01311168181775477, -0.014351279394491977, -0.041294150626403306, 0.03553340065681988, 0.04601063486361606, 0.002622187618314161, 0.1107951047141826, 0.1370281561672608, -0.015122975939773041, 0.009198139762730696, -0.03208271329855484, -0.09292235603962089, 0.028729164894449884, 0.07431232944072735, -0.05618416478910028, -0.03901583012468389, 0.003123054990409852, -0.05720762031861739, -0.09592520739887773, 0.037944038612298316, 0.025668480875114353, 0.052085301225671135, -0.09263829426827601, 0.014285083854824278, 0.13318217752786451, -0.03967224170282118, -0.005225730821683568, 0.029612263196432446, 0.046146078681120646, -0.008537579015158427, -0.10162394029021832, -0.14053455975681992, 0.09614403633132172, -0.03129106182500562, -0.11661743763383327, 0.11903305611878073, 0.07627611624633727, 0.016781948487016776, 0.03973115421629224, 0.015854634224068933, 0.007473111979178838, -0.104716184287762, -0.012124253835231538, -0.08207384831051456, 0.08664414640614287, -0.037875307599745944, -0.06017812962170883, 0.05112266010473599, 0.13128553005305196, 0.0430087790706432, -0.030307467278360554, -0.04167189114758639, -0.03918419898306879, 0.06837494978053381, -0.07615874418542479, 0.0021188724612358233, -0.006735601358605292, -0.03720358869376466, -0.022972919036757033, -0.19336051954137307, -0.021539262826267412, -0.04077280272187283, -0.1129715143982063, -0.001773099829265377, -0.009078965818206008, -0.0753175283792749, -0.02006970366384035, -0.06272542912860304, -0.055336408331154524, -0.006209553333599552, -0.10381686519664157, 0.06730041729928542, -0.014767250061393048, -0.008947261352742425, 0.04647991363002813, -0.09636090265866178, 0.06316567308360964, 0.03192105051693039, -0.1517399841314799, 0.01575381165384389, 0.09148973861890901, -0.024250402179296925, -0.0560958671587244, 0.06699590992426781, 0.09420938519563993, 0.06913358575627811, -0.027736051045973802, 0.0031928604755095983, 0.08535327024970894, -0.021756117976961958, -0.00447603071302013, 0.056819546946278957, -0.02134298187999942, 0.0897406613675459, 0.024146934604103165, 0.09955324429421399, 0.04900473098067926, -0.08798679251400249, 0.05158107002351433, -0.06090680207485136, -0.1047250536803096, -0.08272881552560775, 0.012870892361070606, 0.06950961175542872, -0.005141343875231938, 0.008486759833929674, -0.010708808116818977, 0.05732155412972234, 0.007079643343325446, -0.014996413970143356, -0.057331796987166596, -0.07029824425639468, -0.08453512196778208, -0.03483672028580463, -0.028589836970557343, -0.050523044368917504, 0.002986422720018372, -0.038715377520621125, 0.09252862586711673, -0.011149975714168153, -0.17434941765350745, 0.09861182606311202, -0.014603915149581597, -0.0477613974921486, -0.011367993536977355, -0.02652407233576569, 0.02267732867008271, -0.024678512922200763, -0.04670701346954717, 0.24547295305961664, -0.02143275928321533, 0.09437869946127189, 0.09144754836614688, 0.1893519570292587, 0.04138818661745981, -0.04540451485754085, -0.1476277100364182, -0.05266713987623442, -0.005676919713781113], [0.05926914266238979, 0.06321853289725798, -0.09115751724152826, 0.0657078798490788, 0.01615267121811348, 0.0024919434067834506, 0.034162580770218325, -0.04098792517327866, 0.07149609468717938, 0.10191379482032938, 0.07394006203651023, 0.022280711474316112, 0.02214831113058522, -0.010378867489858097, 0.050175442451975825, 0.030495169674827377, -0.025268635337741225, -0.10116968205930806, 0.030747922511393407, 0.03227474980717934, -0.08299822921018088, -0.02541301304463607, 0.07049933580771091, 0.06708565930442073, -0.013029616803594666, -0.06701482077089277, 0.12813971313255007, 0.08974514891422536, -0.13589619392631264, 0.08746659554710493, -0.14582516786060162, 0.02725552818013996, -0.022427842595252236, -0.11927785548678888, 0.013138325479250259, -0.0625395294043259, 0.05371927850246952, -0.2002985939834036, -0.04770539273775506, 0.059934105070780445, 0.027879159669610392, 0.0072539011150347405, 0.04742178326315947, 0.1277857304386716, -0.01600654017033058, -0.025489606554780657, -0.04455221131924716, -0.14838441935293717, 0.0202021797612132, 0.05485434414907356, 0.058544746446025295, -0.05496711773121729, 0.006007899468376153, 0.12978050334596014, 0.025207800799563255, 0.1745423810846687, -0.0126511557607018, -0.043422855524252825, 0.11971336242096375, -0.013053101205597209, 0.06649287521896681, -0.02922810219491927, 0.027437962966051888, 0.11025745955020481, -0.055145567352606194, -0.14206521081412188, -0.14448941738671828, 0.006683728411449239, 0.027225474899754652, -0.09197185496871481, 0.07637882513189358, 0.19109732948115485, 0.03646185020694358, 0.012494609884550794, 0.051545123695960975, -0.05184147335069379, -0.004877419724878596, -0.08471210710327366, 0.03452478511752253, -0.015808594754512705, -0.036365830664498104, 0.007985276882312249, -0.04608888328448736, -0.13926970247826687, 0.02454838238676694, -0.014062433788174292, 0.010833467557908998, -0.02939074556786144, 0.08466910138663304, 0.016325127244384435, -0.028416754202065103, -0.054300978758922924, 0.08817237926581459, -0.029934505202449644, -0.05750888300754078, 0.018554636864153255, -0.006415196103592072, 0.0036172397696254688, -0.017247194415001936, -0.015215246320565427, -0.07720473685418022, 0.02110222144292427, -0.016005332809553015, 0.06344790152854304, -0.0640831441758341, 0.007487437485514991, -0.028434964522429322, 0.008551532216722604, -0.016329214565981427, -0.006655879498125935, -0.02820188588972002, -0.02964094261106563, 0.01636564654434504, 0.012313116058190993, 0.0727809793462794, -0.08423875127665573, -0.0016827306507958034, -0.05703651098214839, 0.06280811515242538, 0.034604826682038105, -0.02843789310955888, -0.03654612431594673, 0.05896956102276237, 0.10181165395352475, 0.092326465989816, 0.05779338857200707, 0.06066396181333784, -0.0208071065752455, -0.0699216216573921, 0.06304981676603598, -0.0840986375545641, 0.02650884001430652, -0.006221863363620264, -0.07149094777235296, 0.07588235623651991, -0.027759096437735373, 0.08961547070122178, 0.10994483277363723, -0.020737241448791927, 0.007739221770164121, 0.009864390324746238, -0.005774268809615854, -0.022487205326149968, 0.05491173607539583, -0.12031560217450411, -0.011963087847807918, 0.08731741653768428, -0.11925200852452247, 0.14258501674647725, -0.03377079359599302, 0.10975111826477799, -0.0646993601343362, 0.060098275920910195, -0.0021290924122313094, -0.012174814550131146, 0.016769099414764097, -0.0053575518296785085, 0.011558574086401813, 0.06922577530069611, -0.021989712069467236, -0.022948160119262227, 0.08268823825274267, 0.013641390558648254, 0.0022628065441587454, 0.07876645830331613, -0.008198098971220856, -0.0011789477290918098, -0.09534872349639312, -0.017925941128107827, -0.056791320216656976, 0.08249666242973859, -0.162423055915085, 0.07240605387821626, -0.003085031796458422, 0.002252114630752617, 0.027048840601746338, 0.0025467789453888796, -0.032918978543217875, 0.11892693035617437, 0.04102166621958433, -0.06473109178614261, 0.047324309587134794, 0.03377161884712156, 0.030564853424435063, 0.058521728453074205, 0.050081333273615615, -0.07637881071140135, 0.08702875409159644, -0.04200419463141154, -0.025657434913210698, 0.09885539381561326, 0.11161106527902206, -0.016182999071635774, 0.10030780190141333, 0.046852321137521205, -0.08583130923606287], [-0.03095735185728288, -0.09499379022907406, -0.06935717047081515, 0.05287454648701793, 0.0075650300730171795, -0.04808267599959269, 0.12503819131503638, 0.01563368613709613, -0.08203513525634389, -0.002799480032862027, 0.04046274965803969, -0.08847801625068002, -0.0046951193229652, -0.016421904505238512, 0.08961133542361406, -0.10316957633739512, 0.0032170866576131793, 0.06093028698970135, 0.05406457220980888, -0.02520757895265588, 0.06986215643039359, 0.0969581293740093, -0.0616794027672444, -0.15176610508579294, 0.027576540226328685, -0.05476045419254838, 0.042687809510518905, -0.005273563776542618, -0.03108175712451161, -0.0007964013067944865, -0.12027135728272367, -0.059353030638799376, -0.05068646387053516, 0.05228981833665579, 0.053470366079686936, 0.09749171108183817, 0.01979029378162331, -0.011187533373271259, -0.060532071879018094, -0.030127795307898806, 0.06912322151176044, 0.032878418843913994, 0.12031358613619605, -0.06928403707702158, 0.0615643764965099, 0.04476131398843888, -0.056968058850430166, 0.1530113272206934, -0.04406689049080197, -0.004678149469683919, 0.07979688779764756, 0.07826308500379484, 0.11654229342362343, -0.05142155320257802, 0.11634427817657107, 0.14739735891173789, -0.010220810851825026, 0.045962059600582604, 0.04750701490259023, 0.046456568880432494, 0.02518755419040097, -0.020076816905459614, -0.03805394623862944, -0.2174917628943778, 0.06378370796762456, 0.01080688095415121, -0.05430279006331071, 0.15562948243190985, -0.018167714851491882, -0.05719873430994843, 0.0402733752351007, 0.08780106229289925, 0.015555668988673237, -0.04276485700229272, -0.06114161646836528, 0.025017738120899028, 0.073665343994322, 0.07654054839404857, -0.08828734028485509, -0.05926128301341892, 0.038690005071755004, -0.13700127436996107, 0.020864920141476943, 0.016228045869836772, -0.11827964091218714, -5.349974951812386e-05, 0.07119466479141669, -0.038697989481944764, 0.008524031602258708, -0.04008587982660493, -0.16493349891354053, 0.054439151797690814, 0.04852959510941649, -0.020475169423063367, 0.04142208084022228, -0.044754205543576786, 0.12509871909262038, 0.006482566655936454, -0.05823522114722344, 0.005039828818156047, 0.017181214355934456, 0.021235681037492547, 0.053068707574972646, -0.08173161967238134, -0.048726718760385486, -0.03291814390700035, 0.0176510279122437, 0.01685129974649379, 0.06349273301263754, -0.03242504735476223, 0.0001269432300845342, -0.1832626229141115, -0.08150882928031099, -0.0873113369668916, -0.011150254294738182, 0.18971611422036486, -0.009342217728723167, 0.04598473884095075, 0.060217175506367286, 0.012169523190673088, 0.03489414519512352, 0.017626825146664044, -0.0021086645974785234, -0.06514090812482241, 0.17977326480888398, -0.08496130424390944, 0.0623281362664853, -0.008814015080521546, 0.06045769032068153, -0.09920314219387132, 0.09104152424190544, 0.11419010013051084, 0.06146161539897335, -0.07298355701403787, 0.14628183520983953, 0.023102046725496594, -0.08556333262738787, 0.11157064786082554, -0.043698478394547796, 0.01687478007651446, -0.0003041366585257415, -0.09561400046681576, 0.014257226012633606, 0.1513913994184111, -0.01897186694083953, 0.0800775134084384, 0.035871811754844905, 0.15515919121105037, -0.051818551962116946, -0.023388531993349417, 0.06499636934455133, 0.01073771856645712, 0.08502200168075078, -0.007746707322179756, -0.12629949323042577, -0.07193798063179359, -0.03174665507742028, -0.07107268453078876, -0.07412747964396524, 0.07973053358071913, 0.061867582374722126, -0.12383458074698342, 0.05167866156855721, 0.05441747492572179, -0.017255693474406777, -0.05034875902588894, 0.0849293912325481, -0.05625265816821977, -0.06657287678416748, 0.0839067757301407, -0.04286391610628534, 0.005094193811287807, 0.043738596163272726, 0.022565603347598544, -0.006330196328563597, 0.068856098899386, 0.06878210743551512, -0.031697945404664196, -0.017863724577559723, -0.1408525481062588, 0.05057512579987228, 0.10116933599036006, 0.06246026507188148, 0.06129508547606073, 0.018280174276748513, -0.008480340680663044, -0.051030995444003135, 0.002270082982747113, -0.05965681135712024, 0.11491026732882478, 0.08617385400163097, 0.0013573121499029278, 0.027262684698162454, 0.017279826749149838, -0.00021879083983888226, -0.09903694261256693], [0.03271577537374703, 0.05808769507543708, 0.06631164465724167, 0.02584767609053499, 0.008746683928934662, -0.1378221539322703, -0.05179494407054741, -0.023686238632884753, 0.03197614164978671, -0.00042431363852992983, -0.12325830165227204, 0.0413814920134348, 0.09514899626534208, 0.013663303943927037, 0.03911175433511965, 0.010413229317237097, 0.03842661575557718, 0.0950895723229636, 0.2191456689775673, -0.03522522764132113, 0.1320337970211859, 0.01891144177379377, -0.028769874033894482, -0.013551171773961606, 0.04073245581012293, 0.023152799149179785, -0.048572712893334244, 0.05027579999861162, 0.10112201964260607, 0.007429325967092604, -0.08025741369424992, 0.020025465466661726, 0.0554210097517091, -0.10931844237983655, 0.06559008296099007, 0.10144284118039737, -0.018562394149655298, 0.058111254847132414, -0.009100171188707876, -0.03813860638893031, -0.07724199046260553, 0.11899804650693592, 0.03154592369942101, 0.0020736513295979593, 0.019469289192023658, -0.057875893248539964, 0.02116511458997587, -0.10875700164776139, 0.038382723976842156, -0.052335424524226286, 0.11353674520155797, 0.06783095458837578, -0.14692805269513295, -0.06948545951690897, 0.046028935803559844, 0.023728628960756348, -0.13439429813060888, -0.013159936015139526, 0.05475151777911701, 0.07256695983096602, -0.02479030035567491, 0.006288852857184643, -0.03513742510116302, 0.05065022495447497, -0.0860424050836038, -0.04811935554161097, -0.01865291235612826, 0.0749789313207892, 0.0024208499520966447, 0.04873917088992108, 0.023390737905693838, -0.05843201141905511, 0.061211449555974295, -0.041770739364442346, 0.08786447950138214, -0.02307205961007934, 0.026825440143788314, -0.06019633135098229, 0.09767426674094265, -0.04678574823095812, -0.014132492273950603, -0.08721080586317555, -0.02677343980355405, 0.034842893303045165, 0.028359299817061423, 0.011765016868075937, 0.07660319152018792, -0.046100410567329456, -0.03511935391011491, -0.019524245967200864, 0.18961136045696902, 0.05560949125588163, 0.02363079973385481, 0.06128360110670725, 0.01589804688209656, -0.13525318365131803, -0.01255136149999129, -0.1036045631674773, 0.0690477158113255, 0.13761871294729466, 0.023228310537741218, -0.04352031089082531, 0.0001064554119400526, 0.13846055767928933, -0.005894949194286647, 0.06880857639476884, 0.04819206438458293, -0.02068162247389972, -0.0968617382958294, -0.0052788625588792845, -0.01314685426217238, -0.06931452443794199, 0.028317142973447937, -0.009198011200644866, 0.031925469744028316, -0.03748631210901298, 0.0647040524858328, -0.008491367694910195, 0.012821045209295183, 0.04289493962870566, -0.07855839523287952, -0.14941442754597947, 0.15098221947496368, -0.05933997532296083, -0.07902998860418821, 0.06899946377268228, 0.0794206854702295, 0.12116784918260838, 0.13098687619117097, -0.025707148164332026, -0.1223009858674524, 0.0011853435135136005, 0.07810812719661561, 0.03113524078794618, -0.265007469541526, 0.0029963246385252486, 0.026453765251532865, 0.05030270791630199, 0.07241407302167237, 0.07634134620889671, 0.004667061646464913, -0.11795946635208458, 0.002170308711324262, -0.07995795621823291, -0.016085973245957987, 0.0032869760346914, 0.0847101725949948, -0.013373864191090943, 0.02330086057032373, -0.13818888853274247, -0.0017952063517873145, 0.020442594243511806, -0.1651414814360405, -0.04129677993318201, -0.02265247881209585, 0.12228635390517194, 0.07007738275567325, -0.14771209856148862, -0.04280774318366792, 0.0012880959931786027, 0.04336004545308405, 0.0076480508303831156, -0.05198883500366692, 0.026374707128245353, -0.11100688018096434, -0.014841016309486378, 0.1663994389565774, -0.08459667734494303, -0.05990683669356271, 0.03143410996938776, -0.04051199399271016, 0.0013278027903926362, 0.04889324608159739, -0.017899308338853476, -0.04638145637762073, 0.00939685603251337, -0.040884240032796705, -0.04351586161747026, 0.03992598881392839, 0.03582519407919205, -0.02507571577032839, 0.10015087213558185, -0.056152430725100524, -0.047637182977139106, -0.017499153139373638, 0.007040821455329877, 0.029817846938875972, -0.021070281277772752, 0.03275202057294629, 0.07462121881116983, 0.0281230106437375, 0.021093101260160712, 0.06864426453801, -0.02578255124887365, -0.026944439897523008, -0.0018299796978163882], [0.04241325879009602, 0.030357821338818425, 0.04960209652202931, 0.09695810042859859, -0.035651355960665605, 0.04551010290066678, 0.07962688321133078, 0.013138841907770472, 0.009423519762889014, 0.03768101599430651, 0.19727534982043077, -0.1768576860861458, 0.08587777580398515, 0.017325610538451757, -0.05430397691080251, 0.054192303704587705, -0.05715370544531675, -0.035507587278324725, 0.08736937927758916, 0.051511662275144504, 0.028378104984150637, -0.03093644685380744, 0.003599940813078907, -0.0665132578286268, 0.06383627866990235, 0.06249500870294037, -0.07522511259144704, -0.0847074380295877, -0.0342488363683269, -0.042459983095571495, -0.10195013591308032, -0.029346141349116662, 0.07191086976808782, -0.04588719861607321, 0.0019848287710116583, 0.052259380614731274, 0.08948602076670957, -0.061976058636227314, -0.011634224515127698, 0.060879064804680263, -0.08890634853541338, -0.06911417183184054, 0.08948991629635865, 0.08764865209725321, -0.12558259516804215, 0.009516421553615774, 0.021708571088560277, 0.0453496127274325, -0.07564310054622886, 0.08638204596509663, -0.0025121745486037235, 0.053519783729933525, -0.08724269666534781, -0.08416094547095458, 0.015921595406088285, 0.09943217800506488, -0.03710269613144627, 0.014100447506446463, -0.03335908207033682, -0.1328397076589712, 0.09430304147009241, -0.05898114975207229, -0.04604561710437399, 0.133437877214131, -0.046480430527118005, 0.07553379435041643, -0.010255786379268972, -0.0602026605057245, -0.05609816979018609, 0.008303824719024092, 0.09017317447837526, -0.041257665356373464, -0.031971316086220045, -0.029370722705606124, -0.13538089775204676, -0.013602007932362247, 0.06267404015889336, 0.13749266878659142, -0.03157488271223992, -0.04592993419195208, -0.12678236285718028, -0.020417077795264162, 0.0569601203675683, -0.04802902771483819, 0.023697938021105286, -0.08633715783425513, 0.04644677903363152, -0.0500082443642391, 0.03085660081787414, -0.08095126164323237, -0.008075564031121139, -0.04655559499456251, -0.013472683166088318, -0.06672722554835607, 0.16749261874784957, 0.004155223715340713, -0.07328878429125242, -0.05445599836093875, -0.05498205133895182, -0.07132095670686452, 0.06390834010910272, -0.11241320335413478, 0.006019672517578265, 0.12709856692245397, -0.2056721868064951, 0.08614535812737098, 0.038937181097676556, -0.05253198259822306, -0.07852318322405563, -0.05105372446144589, 0.02112509444764561, -0.003829458013605711, -0.058899500200277156, 0.06891281228918972, 0.0012175874147962828, 0.025196706966857618, -0.08117749900251832, -0.09268266540349525, -0.026541447770005715, -0.09257799581598271, -0.10822808234814206, 0.14511176745379373, -0.11926881890210378, -0.0165438001943285, -0.0051316671263177535, -0.07045992038552445, -0.10812927340593474, -0.006762856423328375, 0.03708247726730601, 0.05073822636050468, 0.015779515258366624, 0.06420507148459215, -0.0439382293459964, -0.04597108563460305, -0.010394847543941849, 0.12005495649031565, -0.08416645765356233, -0.025393498527615528, 0.13088728995864415, 0.003942057181744035, 0.0008582564111929067, -0.13853117592415376, 0.04673880300014936, 0.01724378435464817, -0.013224607391836687, -0.04709257274351665, 0.11659151149884131, 0.12739904689449477, -0.033353287586751296, 0.055962514353503724, 0.03609514457933408, 0.05511201229917898, 0.02054800050792029, -0.04901766672177803, 0.09996022108611888, 0.15075274862621532, -0.039112021931330225, -0.02261543930210244, -0.06159629711769111, 0.13362786613202499, 0.04737790691734556, -0.11031277223714887, 0.07294907633327596, -0.0005949923306580932, -0.11155166267023336, 0.015359576763197907, 0.014950665353411859, -0.04915380519034629, 0.03152851094439154, -0.11085240707929908, 0.09192392966775557, 0.029111816198889175, 0.009027377549090833, 0.04504649850613986, 0.04524478483038652, 0.0020100187269365332, 0.07495004116019333, -0.027616192876700855, 0.0686271761152513, -0.0835373497966375, 0.06410079010583111, 0.05361682211136345, -0.0907026665577734, 0.00464705160453631, 0.061030184869583955, 0.03715905767394608, 0.0005877233898635632, -0.017078771397236108, -0.011219246906850845, -0.012435656446734663, 0.06754887238257894, 0.11325308400757353, 0.07058760499729075, 0.006001302024911955, 0.06573602041190309, 0.03948359338952531], [-0.06268611744745306, 0.05809378178987305, 8.86816623019636e-05, 0.05355656356901007, 0.041255729707594904, 0.0784873432318543, 0.13353142742914023, 0.04966498911746205, -0.12112924005324355, 0.001695803947686029, -0.07080385799728674, 0.03517720390062382, -0.030000271013509616, 0.048942182926740664, 0.07083786878844588, 0.03410372632464845, -0.02918563044685795, 0.011453556142576619, -0.06559562139530616, 0.014761971217758681, 0.08192434679386469, -0.021395974859725095, -0.04412308443242905, 0.00668698399468631, -0.08830544419807036, -0.0716823500665168, 0.10529897645294244, 0.022919787957829195, 0.0391388695751189, 0.019319889682391622, -0.051556931989580924, -0.017349878215633677, 0.018557200062484958, -0.007847244199910269, 0.06088699958403572, 0.05041225572303632, 0.09864208658232754, 0.033984171884920936, 0.07595416755767383, 0.04872168653082519, 0.0459045584774845, 0.03788716188877279, 0.0592658842203153, 0.0415716093851071, -0.016017302594941576, -0.01461967789796401, 0.21773075698304292, -0.04373188328783195, -0.061267329381440555, 0.029938375644962902, -0.00041616141991241106, 0.005018016386654093, -0.026454690153594387, 0.04695358965985206, -0.046002014611200674, -0.03338056617640027, 0.0763011874638238, -0.07344636689930858, -0.0362623599996981, -0.09975499440421504, 0.054974045055251226, 0.12640789404393277, 0.049907053509634994, 0.019819684812498767, -0.09934706630974424, -0.014155546418338251, -0.06690048197684396, -0.04466395669451572, -0.08524692639112409, 0.0028101309030884583, -0.04805497192457603, -0.008448101334854963, -0.043945127473960635, 0.020827381456839815, 0.03218293893192377, -0.026416553154053724, -0.05773759388916868, -0.007313628305659398, -0.012274803674183503, 0.051830336469675935, -0.08969400678455496, 0.10712952592792527, 0.0846257666935603, -0.08332118930505612, -0.018283791135616092, -0.11327090445885761, 0.1480850907630332, 0.061853300827334236, 0.05102533249213095, 0.1225894826064836, -0.06052765034336091, -0.17460492041279357, 0.08926721448073793, -0.059144065439321346, -0.022634025323184592, -0.026902905851842674, 0.10254328024019693, -0.13162815045915463, -0.015794986702171956, 0.0009593418235938944, 0.03374779554078421, 0.12450515942632263, 0.04277667164092902, -0.07031511928580077, 0.025245897084467676, 0.07784081883349799, -0.0527315723566388, -0.041426713675270954, 0.05527477701722708, 0.015541529911868284, -0.21124150551876855, 0.003934917557255038, -0.03542668887566252, 0.07099661287505013, -0.05228864617734924, 0.034163981392579874, -0.026319796000179894, 0.13228416832520085, -0.014379044663227458, 0.016893401238556968, 0.036334345998988216, -0.011712833666808652, -0.006721982908795294, 0.15398834469276762, 0.04593128266692872, 0.015023342342768503, 0.10094976718344731, -0.0012392625675027187, 0.054769749386972044, -0.03460851668522248, 0.02141998513647787, -0.013548798127663257, 0.008919941104965664, 0.0867917932557335, -0.004353423033991477, -0.07935612937674372, -0.21112047095976086, -0.01346980732835826, -0.08871476490076151, -0.0032506119071096934, 0.10927414095339655, -0.09620582849542048, -0.06310914793172678, -0.0044925834359838155, 0.15195997337373995, -0.12440787539304743, 0.0445871996084965, -0.003218865776466136, -0.045956961013663165, -0.04048652489097439, 0.08422088695112748, -0.06915208425432941, 0.0762191765631561, 0.046225596814409076, 0.024664997978013997, -0.04724022604926341, -0.0478313155165847, -0.0075029704123677635, 0.03585851737698259, 0.048900841918564766, 0.015507059789061747, 0.0019338989494234967, 0.10947848196048865, 0.019006602075679738, 0.06428784091801489, -0.09626149787261802, 0.04815809330582432, -0.04963036295041092, -0.02275452793485769, 0.112194429759173, 0.051940060581775395, -0.06841684595836152, -0.007050946213255959, 0.1437906533023922, -0.11893082360645933, 0.004339833273696467, 0.07464565545895308, 0.029464029240828683, -0.16940113089875952, -0.02502628802479763, -0.0289730104894413, 0.1462066715104167, -0.0031655478237537214, -0.0058079790430353466, 0.027221765073689636, -0.05456943474748714, 0.09720161878832131, 0.022659884077118133, -0.08895682242002674, -0.06775241361960523, 0.019799189544204277, -0.06623619815809118, 0.09541650241207253, -0.14147493496033017, 0.03933117919250482, 0.0050777636993920945], [0.08809509380878426, -0.07125070958707443, -0.027594281225970123, -0.07469352493544873, -0.08956535036120757, 0.06996101318537544, 0.0020710601523713144, 0.06648795665593711, 0.13837064141429187, -0.011051687706583602, -0.04978227620393098, 0.002391740612106169, -0.0776334676220627, -0.06405575253250735, 0.06571450617582512, 0.0490848219730955, -0.001089736768144561, -0.012461110251029138, -0.11486996634366402, 0.02537160979547928, -0.11577237389939606, 0.12115767244385042, -0.07569523830734635, 0.06322718261206724, 0.050770002851736246, -0.012553333866346928, -0.06077064706904802, 0.04593740850448721, -0.01497008110802114, -0.13870410249555856, 0.12426293516044182, -0.08829418670803116, 0.049940746584227966, 0.12709931290747592, -0.07004611898412014, 0.05413089954576955, -0.05862319928548402, -0.022878759261863755, 0.05654607817162957, 0.08583430230535415, 0.04900828957631644, -0.06666885730464855, -0.04054989239603434, -0.029203831322683903, -0.06323270777561556, -0.028108370794645652, -0.03264943530585193, -0.12337221286346363, -0.030633185234730045, -0.03306755645089303, -0.0003592416313714934, 0.02961902140424588, 6.546740406998606e-05, 0.09786058579092015, 0.019515280309606257, -0.1242099347051527, -0.05330165610637901, 0.015029739113926304, 0.039725104215794706, -0.03133005577899705, 0.03231892974252479, 0.01613818456473378, -0.04691299337954186, 0.08818053843484223, -0.06211959387806517, -0.06947245211112969, -0.001610238534595985, 0.08635988387983953, 0.09000625604515712, 0.036376481314170296, -0.10635808482184984, -0.15476817115097616, 0.0488128129899734, 0.08942065079602997, -0.049906741715852826, -0.08642749289634966, 0.010140658320529383, -0.11000591779059082, -0.029397261606459592, 0.04034570522264327, -0.020070891561750095, 0.05717643620755251, 0.14432367242254918, 0.08231629241859979, 0.049047945628584555, -0.1443302820275424, 0.019343115145334322, 0.08423547178126775, 0.007750775941059331, 0.0486276850563153, 0.15651174432365056, -0.08297641752937342, -0.03957346610694978, 0.0983082842648784, -0.05135284291069389, -0.08779707264587656, 0.03393803295262011, -0.003142850159792286, 0.010234016530572813, -0.019373848925393088, -0.07763495524701347, 0.014673413181986847, 0.11147978214126884, 0.0499968550058608, 0.16059522955588967, -0.12181678468724515, 0.050543030811992705, -0.0746614289196007, -0.06395889734627919, -0.045169974924872985, -0.06746975385355411, 0.005641951698858503, -0.044332719180329334, -0.1185561503173415, -0.006071206105485739, -0.07021198126650147, -0.0007888617920923847, -0.03533721383539773, 0.047178768673764346, 0.045310549199196366, 0.03625784660507003, -0.025249630230423665, -0.04202488152609057, -0.05424423791385479, 0.049987033319349776, 0.051460630958677395, -0.057763957165260615, -0.007657563762139859, -0.014262698873022584, 0.008892811107659623, -0.046686825764146074, 0.055204781513119174, -0.044661032038782675, -0.061040592908113096, -0.007817549320298515, 0.007372453143568396, 0.03480395315215051, -0.022510814362455524, 0.11025853323953015, 0.05462310466413241, 0.020334603861506196, 0.040598514311174096, -0.05505337901098977, 0.10042408351468993, -0.023676495113074812, 0.06773296907375877, -0.07361939244958032, -0.09390253380379422, 0.1164009197577869, 0.0211760609323282, -0.07820089462106501, 0.0796983788776743, 0.05333217330311213, -0.12652010724238205, 0.068500124797781, -0.0015807052749181815, -0.08443660660896758, 0.017061606990445555, -0.0022660664679931245, -0.023148072569998953, -0.03296421034679283, 0.0032748524022625995, 0.03043167089496056, -0.04776960733558061, -0.08550582656217812, -0.06539001533332145, -0.03512887070580702, -0.08297606879539192, -0.055242366140462934, -0.08493112971975482, -0.00483010815066579, 0.030788411651922285, 0.058665144279277305, 0.09809764800428512, -0.06017403137161652, 0.07098130117551671, 0.03531563489249635, -0.1629639452592573, -0.14365515383024924, 0.07506536504682298, -0.13499601004930753, -0.06321818345703756, 0.040036777857858204, 0.030212088689186765, 0.027985582671823928, -0.0758816471439882, -0.018543653620136127, 0.047025580639626925, 0.0262441563014071, 0.004944925462695996, -0.0402321671163017, 0.030744677659356654, -0.016416390297503004, 0.04645845705586664, 0.038890085918781674, 0.009731180145668606], [0.0159646644272053, -0.014780138859444857, 0.05391163350331755, -0.08567752740845126, -0.14255455677615217, -0.02299565871347041, 0.0029189151109146154, -0.11189709645693074, 0.044276691605599355, 0.041580414171912994, -0.04856868281908973, 0.10903191189464381, -0.030161291925152173, 0.060302007766062884, 0.0850987913200551, -0.06619640668425517, -0.030617372254096536, 3.5148927704174524e-05, 0.12099258655122795, -0.06175454171352895, 0.1546712823919237, -0.07689110807752678, 0.1597558439871862, -0.01929426859690807, -0.005695722028753077, -0.027871145343425614, 0.01108112332933456, 0.014048573808915764, 0.021976120675773207, 0.17916947662591406, -0.015568465038648352, 0.08213970879342038, -0.21260084754576597, 0.09174532558550322, 0.0018921926672413809, -0.029747375639967124, 0.09590403620485878, -0.01955580448110502, 0.04542530395416507, -0.09847603237588222, 0.1092258857631887, -0.024559599338402606, -0.10454690487617249, -0.06125205728409207, 0.029780082822205435, 0.0290855691832757, -0.012328092563858018, -0.05973702872163704, -0.08898196168814029, 0.041245892772764664, -0.062478462015288755, 0.09099502553972118, 0.023956311500428266, -0.11461478115949485, 8.769527601918024e-05, -0.058163832874275144, -0.1349456147475668, 0.10711463559909086, 0.25644772842994285, 0.06770188362676763, 0.010485277396980587, 0.02348450038707421, -0.06567123628892611, 0.044828413663253706, -0.013512040412860202, 0.07918358849160057, 0.02416696732091645, -0.13419736275620725, 0.025986281546746384, -0.11850677293016777, 0.059674080451839445, -0.0608629593574148, 0.09582199882242193, -0.04806276294605271, -0.012958051484506884, -0.003999946575249114, -0.026537357704057147, 0.02238741742256693, 0.03117993599479443, -0.063886247223965, 0.03442691373705131, -0.054962192234748374, 0.05904672722071466, -0.03261937790040384, -0.113982863177189, 0.011277098900794346, -0.0034145554777829817, -0.07899331020556263, 0.13210922282251197, -0.11298712495318908, 0.13042672206923972, 0.08433483874513006, 0.02013803482039772, 0.029211845463481108, -0.016724630679352058, -0.0598686365409457, 0.012359412562381895, -0.05258552231514374, 0.06281963936888932, -0.08743555877960078, 0.053693902372372405, -0.00555200315381178, 0.06618704141276373, -0.10508300003120784, 0.06782854170049955, -0.17884178805797815, -0.06427418789203039, 0.032904468760901764, -0.03505187348942005, -0.09505001409132925, 0.06391533915481624, -0.010023732699445346, -0.04495411791172401, -0.05320005742000486, 0.050285722405845085, 0.11647264939443451, -0.14668949260182917, -0.010591535717603424, 0.10474459837263064, 0.04452726769154503, 0.02856966838281719, 0.022697132393358375, -0.03571487423308093, 0.046100571983458724, 0.07339607034636099, 0.04383726752488779, -0.01861389485656898, -0.0018420969346245471, 0.11480812535749492, -0.020482250887301785, 0.15049969228611618, 0.09622932837278525, -0.023627765999822786, -0.0022097582901752354, -0.017678830221886283, -0.060129145955363894, -0.04624699839493453, -0.08309901945660034, -0.15027847064409705, 0.011001197244222985, -0.041668003363758616, -0.11944840065357708, -0.02941097018807017, 0.06500775646849714, 0.04176206529606148, -0.01956027413891677, -0.0369921776055821, -0.1303464462473699, -0.07821927700469247, -0.06531964411842148, -0.021998968485389563, -0.023145387203566643, -0.01114457600413021, -0.02243723177634903, 0.08845218383397324, -0.0015685432849494119, 0.07398642565772376, 0.022159694959123982, -0.03654814208581897, -0.047251725820607667, 0.03841610521806592, -0.028577775421698353, 0.062013980073635545, -0.010485699328297774, -0.017435130185075927, -0.12363200481207014, 0.08840765281296524, -0.032512447972249205, 0.08467589445750234, 0.19138151906402182, -0.11597692525673699, -0.0568072335517382, 0.026496065331809215, -0.04750402738469025, -0.030582336271520478, 0.10941408466340279, 0.08351831972322035, -0.08553101137767767, 0.031944482971538554, -0.008548669420957208, 0.06296822566022792, -0.17085987341360118, -0.09531501443891856, 0.011706378027000206, 0.021171893512927215, 0.09332900947974604, -0.040004595652395704, 0.008477114232963953, -0.1533330542169748, -0.005755363917885808, -0.07080250902925551, 0.013925309918415106, 0.0658625092284776, -0.0928752029152627, 0.005269086907628267, 0.05337084308963727], [-0.04764417398609775, 0.07938360705531161, 0.07584807407619025, -0.04457990699732514, 0.2016032945519651, -0.01926475734837283, -0.02483032984069041, -0.11510627771544207, 0.08720547590281835, -0.14291002899557828, 0.06582634868708274, -0.031901838391031445, 0.01629316038940713, 0.0863608823894394, -0.04439155891131865, -0.06638987484669434, 0.14712722808475456, 0.10441244073203143, -0.038985442292651544, -0.04596102123994768, 0.022458245470239856, -0.008955595275842283, 0.1502802933318332, 0.09853632409972071, -0.04873361765973397, 0.0033191388891806745, -0.051362315752256436, 0.03147496562329382, 0.03011290600850461, 0.07508932039027803, 0.0595511560753689, 0.0412345840714727, -0.041211961431878816, -0.09247988216805111, 0.1475771440001048, 0.014100788382274, -0.001896709039498146, -0.09900680837104728, -0.05843638483183065, -0.06606308422269451, 0.05224568717532019, -0.046034932994544094, 0.08644083564235944, 0.08609434351918716, -0.03824322016900887, 0.02523444885652603, -0.060054180239253845, 0.00600168299452256, 0.08311760255551347, 0.07998109935855453, -0.04065946143619272, 0.17221441209578303, -0.09188767083409177, 0.018457905421716495, 0.16598216320625278, 0.018907803610945833, -0.04308960918001568, 0.08439596713314658, -0.09397300154019435, 0.006566522532839413, -0.07188274986535542, 0.005167200110609959, 0.04381904071725035, -0.050544582106563984, -0.006297918661975859, 0.02429387186187457, -0.001878261458240687, -0.036428764927713415, -0.016933195045316145, 0.07913229948689142, 0.02958902782838483, -0.026935069108603302, 0.03202172661611999, -0.020327090738264903, -0.0702465365585976, 0.03546141133083169, -0.09616529003082372, -0.008064429473501885, 