[196, 150, 10]
[[-0.13006928872759818, -0.0047259094802150755, -0.08805324180819894, -0.07557395520826134, 0.055008349529401986, 0.05600440183386103, 0.10698781709791179, -0.042270707057058474, -0.04564108128054644, -0.019903291282146556, -0.07257397111154167, 0.0240095685365216, -0.03586903470089683, 0.00030344892204087675, 0.019616293232629377, 0.00456031666031572, -0.08308269409556175, -0.0675764570380196, 0.006165504768321461, -0.10427102455570193, -0.04866697988439194, 0.11847417318549354, 0.06930974667718491, 0.102844328561966, 0.03793420856888405, -0.0635040797076295, 0.061494927960294904, -0.04950346287250192, 0.13375503119929427, -0.006495951976155922, -0.003500033281583447, -0.09009482816187554, -0.0148111584810762, -0.0008687759098094124, 0.10269826415925239, 0.11030052059990525, 0.003892374365765496, -0.03713505009345426, 0.008625829113351382, 0.1274250899466026, 0.1020317397505094, 0.014198594146656748, -0.166511286109297, -0.06796187621224667, 0.13171317315800382, -0.030162664875606034, -0.014209120863164693, -0.09502066490468045, 0.11556627533459393, 0.06961568690192704, 0.010525435790049765, 0.024100500899731793, 0.1191114136171491, 0.038264483341079326, 0.014865174753938436, -0.03882815727157227, 0.014446355929493903, 0.01913589295497821, 0.05473328669498295, 0.013618935015681732, 0.04200622558342789, 0.03354652093396951, 0.10536971350007396, -0.12786902621876123, -0.24224693709586542, -0.2307182357452808, -0.09897269695525887, -0.1383318858841751, 0.001092907846502025, 0.043540229518293824, 0.026726531812970862, -0.08568766766265647, -0.15405310620121046, 0.01875783132975974, 0.14486309832942817, 0.02837663743139999, -0.11260840535454891, -0.032897539601079114, -0.04264114332589263, -0.1031975057136638, -0.04698344863493971, 0.04165538680183752, -0.07834837929268992, 0.013296584381607532, -0.008672948036614584, -0.11669714301944165, -0.06542354350449053, 0.2830919103734965, -0.06604357569644304, -0.12663466591820058, -0.06836757030152382, 0.10556705958638746, 0.04646985282061679, -0.015332035278919008, -0.023486792072022495, 0.13555327408904497, 0.03879009119361112, -0.0730352292605241, -0.055849593678094195, 0.07112932879843897, -0.00945641960495019, 0.12482537873815461, -0.011782531959166589, -0.185556646718052, 0.14172805618579373, 0.01934994368183242, -0.016289839292311672, -0.12758918695993976, 0.007837261081884895, 0.13240822942109923, 0.01923418498114474, -0.0782394390974601, -0.14332976891515892, -0.005154292755579098, 0.06237108457107232, 0.03384759284488832, 0.023789068838740882, -0.019851950023036868, -0.01899926697498315, -0.05328605057010628, -0.0204159518708216, -0.09072414894827693, 0.11839291280015339, 0.0598121632489807, -0.1403232351102292, -0.04343966292072571, -0.06243224950299088, 0.042176167667094214, -0.049411301407953606, -0.121252363345121, -0.06542722917537983, -0.16257065824662784, -0.27743035788645853, -0.12054063919311021, -0.02026814716959382, 0.07269875472997862, 0.17558135222938742, 0.06637262613338654, -0.14883559439524213, -0.0694904589103358, 0.06129172001707071, 0.013818776755142393, -0.0978889523833562, -0.013636974416228465, -0.1667145006460178, -0.12857900648527457, -0.15437496553274413, -0.043556523684489666, 0.1437397905663366, 0.10065521849804626, -0.008548316072376733, -0.023592396459533253, -0.02590933612615418, 0.04916393232687349, 0.016830475313348314, 0.18836284907616546, 0.10101992318156736, 0.07841237880429647, 0.03072097312821367, -0.05256577865568223, 0.1191079368666135, 0.16634737335376223, 0.08957893251050432, -0.12653519429391977, 0.11573750632592769, 0.0073690504387164445, -0.05666256418822294, 0.07362313763705808, 0.08228095661108331, 0.09796022330747242, -0.13613624918939246, 0.1797538307079343, 0.04108899430814527, 0.06358027425312852, 0.032772225037723715, -0.02973170637848781, 0.028620875080162787, -0.038918941297703964, 0.03967147651370898, 0.03982604424341108, 0.06897156504346241, -0.07545670003153447, 0.03539477976805127, -0.05116956424688554, 0.0034401546804116072, -0.024468792779557293, -0.026620768104072545, -0.0006246309621118388, -0.040568013251037364, -0.0035045552971828433, -0.01989030590607124, -0.051426501515616466, 0.058031565602885096, -0.15239835235511612, -0.06664458218182635, 0.0009697384230431452], [0.18283432890353696, 0.05827659905492629, -0.2111006942877045, -0.09435343390042401, 0.020442527274289343, 0.20057157770334477, 0.04163930484904233, 0.0066740818148431705, 0.009287769815753766, -0.028859233263059766, -0.12646484318586373, 0.09776351003766325, -0.053252214113646945, 0.0949193940703404, -0.04702685994746984, -0.001060416717874738, 0.037948076492627526, -0.004740970303255045, 0.09604744828386669, 0.004126972794895838, 0.06347678092027535, 0.09161481225734702, -0.047794699422983, 0.23644709293013264, 0.06648648440860017, 0.006642391304286985, 0.025746871364562593, 0.1144152927367331, 0.06139646296683551, -0.12541570826473408, -0.054640635673831865, -0.19619791695793695, -0.003954520098417408, 0.08457890404086676, -0.03632656502215175, -0.09394449791271062, 0.03621449630421965, 0.032335473508683536, -0.024746421435582647, 0.007793476600064608, 0.08901033372685918, -0.05455058372860908, 0.004624817173808461, 0.033238235575133245, -0.10342573309878035, -0.17514401599471793, -0.020093483233295267, -0.08853941129834206, 0.06955554243257711, 0.3205401025996854, 0.23364247286246775, 0.015225841282659648, 0.06470245809133297, 0.21173358835167844, 0.19634828245174923, 0.04558587571418891, -0.03943435638019509, -0.12144785572457792, -0.17251656934046153, -0.10623914162178084, 0.24341164185038658, 0.46967982386938467, 0.41365415992131166, -0.17022249813997092, -0.15718001177177743, -0.2251543907095522, -0.08588683233729213, 0.3707919746419849, 0.4679714356370564, 0.013873480872889138, -0.03935284253171617, -0.0558100514909693, -0.043693516226846627, 0.21482859979407787, 0.47568604734041414, 0.1967689707780231, -0.0032729259861782817, -0.5736128563106637, -0.5150732355508195, -0.12089572840191437, -0.04621706936052897, 0.03700857226395416, 0.2897124477797313, 0.07452376027877908, -0.04913603911081347, 0.011077755962595307, -0.043066772176426536, -0.009168659311695863, 0.003310675215164602, -0.0633653430333621, -0.3498101491199626, -0.5329726133954027, -0.39417849672955546, 0.1343476586131273, 0.0665672362272915, -0.051145663372059225, 0.02967237910385272, -0.030852323215865087, 0.02398304180993747, -0.10098886211792563, -0.12949214553470698, -0.15415028697303068, 0.15849876934352494, 0.08198903347363931, -0.21274297826114755, -0.22999035097111822, -0.2917362834785969, -0.16367211598996276, -0.19176111446208322, -0.01982835035017715, -0.006725844032716943, 0.0911262640107126, 0.047851739419333905, -0.10384897598614404, -0.02981461281017467, 0.0921312042728252, 0.28302229150036656, 0.24030787048914914, -0.023964430115106794, -0.2580045649275484, -0.06347068537428896, -0.04015566769398466, -0.16508244816368564, 0.014667694281170684, 0.10635297451835164, 0.06709191823018985, 0.08195892560974158, -0.12373080422310026, 0.129711575092648, 0.34756372941354047, 0.2725023154791854, 0.5996515029472782, 0.05524797336452444, 0.03456657842024685, 0.3582157026814397, 0.06817404263219222, 0.08661558103335534, 0.32164248654685523, 0.1920389255294558, -0.04733466729264173, 0.06952046661350897, -0.07076605415221311, -0.039798182115138483, 0.42535388627622006, 0.5035893743474824, 0.531474228970478, 0.30302402014253793, 0.22194710123776312, 0.060193654866091, 0.18939895745466567, 0.28958705821540315, 0.4391841433234552, 0.0038185940581161094, -0.0025606003353882234, 0.10845559537406683, 0.024436970021105793, -0.3103916905147114, -0.2093217388200203, -0.09302895874369754, 0.0861110520298199, 0.13896693335190155, -0.13707033945263633, -0.25227751841983737, -0.04799661062943266, 0.16799511784308652, 0.11730164862851267, -0.04786180546537995, -0.11420202275246401, 0.15353766261050192, 0.05670814298877882, -0.09987278503987933, -0.25779507787548206, 0.016898049757417797, -0.06586678315013389, 0.06991019780113583, 0.0695182734173456, -0.06454029600654426, -0.09755537819131146, 0.014519449882636013, 0.02409338932100106, -0.0004572664332152511, -0.06614585193866224, 0.10071355945551304, -0.041536775163956166, 0.04018234656998329, -0.07158795816454035, -0.05808311204230597, 0.1210354553549331, 0.0809975948027179, 0.14979342438286303, -0.04564327704100264, 0.025487039028092226, -0.038323835221846486, 0.11785926667862773, 0.08232710927786453, 0.055689078446414644], [-0.0054326382399635595, -0.02553254061274395, -0.034137166710569086, -0.0762459119085515, 0.010002084281991922, 0.03494065522656081, 0.11837577642651977, -0.05714238348665981, -0.012228309897111869, 0.07777485370091837, 0.08126631409133098, 0.03775708419966244, -0.027795857306561467, 0.09396072780852707, 0.11431838097282193, 0.05577441241770147, 0.07531753693918943, -0.03243939856146644, -0.06517948425871185, 0.016947227019201174, 0.03803473686253785, -0.05865445429514142, -0.09259760265629975, -0.13248030695757818, -0.17228191709813484, -0.13833095515777008, 0.05586079397527599, -0.004795109025308821, 0.08531046228933654, 0.04401508438364942, 0.07341114534343875, 0.0381835987392468, 0.0007562224772200702, -0.09399583463853149, 0.035748812292972304, -0.22022953556451252, -0.25262025919929587, -0.29240412847038044, -0.192928452130751, -0.2477358051922722, -0.10268249012412795, -0.07765349783913197, -0.04750808760595721, 0.11293439379269199, 0.10714388895843012, 0.11845018402484683, 0.06490454158188688, 0.23175639934327574, 0.30361554295885285, 0.34485046984913886, 0.38327395687064814, 0.27634686760128535, 0.12289281468333194, 0.2183396490923601, 0.026895078756326418, 0.059214731228728855, 0.019687931157460585, 0.15616351022534783, 0.12992300728769557, 0.0727909745409953, 0.14119611764001108, 0.047230355735717225, 0.2818790788134837, 0.6079375560466578, 0.5565620144617199, 0.23230157213619795, 0.20285052013623528, 0.047990519366057555, 0.24673567825745588, 0.07820637598150526, -0.00029108895366767814, -0.0011558950965467486, 0.16170565281268176, -0.17368444965632132, 0.028523974036166917, -0.03778101299841658, 0.07671570123523877, 0.07765900538973133, 0.16544538562235425, 0.15670065706914393, -0.040885630117764235, 0.09640910764635745, 0.1354853975015127, 0.1805006162803688, 0.04034354206460959, 0.014671253249229396, -0.11300770313101768, -0.068082944913937, 0.029351336795261113, -0.025956062801180714, -0.20873237171319187, -0.1236095280467828, -0.3224830048241446, 0.011380613995262762, -0.15187414353911768, -0.1887600695807266, 0.10431000516380799, -0.042857054072793735, 0.07860869639160654, 0.023083095523737693, -0.07565717161344096, -0.014152173585577842, 0.08112016870082957, -0.15381711608590512, -0.4355461263966695, -0.7689963724229463, -0.5247920496501827, 0.08942262439143986, 0.12361852045323526, 0.02654570795911225, 0.05311883219793124, 0.0039323639873998515, -0.07474891949190139, 0.15166943046414824, 0.006274888381243219, -0.16101554633570084, -0.45395181661799766, -0.3771442899389781, -0.7271843585764425, -0.770144170122092, -0.0801187695987842, 0.1809306106563103, -0.015353303268197772, 0.013585293245284298, 0.03757287607056466, -0.04978507894120001, -0.006350380278941999, 0.06171916844764143, 0.1684991033979745, 0.001399040586115495, -0.5314956428919314, -0.6627510048783046, -0.6797803487188417, -0.19322020466825837, 0.18951177067315686, 0.25690654859940665, 0.09620158100116222, 0.08116009440728295, -0.04402993501329564, 0.05302320860279198, 0.0764718331473155, 0.07426982042722166, 0.13825487756933524, 0.09494836722226806, 0.2015445451039728, 0.04505391804668952, -0.009917707572795902, 0.010066689997529266, -0.07170604690985893, -0.07882869728515317, 0.12499609847308775, -0.08435155972010003, 0.09030640282431174, -0.055931953713316364, -0.04917160195778149, 0.04386073780142395, 0.15034220995069505, 0.1625260713941169, 0.23796536813495345, 0.2940610266575431, 0.14674451551288478, 0.07237825547502763, -0.0473056547482345, -0.06739430010236618, -0.03687576883561987, 0.06423552040127994, 0.05903256654556957, -0.033794190353959606, 0.09645535330240004, -0.025608992882991, -0.009316306830518782, 0.1627192850448966, 0.09809976109709827, 0.2709840694350899, 0.3658955608385582, 0.2279358498817124, 0.04880189508997456, -0.059928414322317075, -0.07861966523942, -0.06245174285587255, -0.0033920001312473516, 0.06402996613839756, 0.031686724760037185, 0.0332116496985598, 0.0350844500562352, -0.13592527722169798, 0.10230711677884578, 0.09516745493332511, 0.14423114848232063, 0.1251988519332347, -0.03840334160352702, 0.16897509013867448, 0.2035434078831334, -0.022573160524120214, 0.031584137769510696, 0.053106901695525684], [-0.0012742084524351492, 0.021818431022545156, 0.12450781611118052, -0.00612984035459789, 0.03146617371124354, 0.05634630642942537, 0.002823276544249233, -0.019997121346625273, -0.027612540047777124, -0.019892604447330136, -0.038765312584441, 0.03317220501621791, 0.14018086691274362, 0.14331889434174233, -0.029762268174583346, 0.031592975402834914, -0.10158763406145951, 0.11741920774128149, -0.00029209731442770496, 0.040310062684043795, -0.01534603571356956, 0.053760836761721637, -0.04457499738050379, 0.021460784227728895, 0.023103272802366466, 0.02151620575283741, 0.07325280324056106, -0.0010887148245354117, -0.07284238139765033, 0.037597262631167985, 0.06712877816775302, -0.10269049379056269, 0.03670160978784805, -0.043913440656766216, 0.07832143514172397, -0.07116973284136671, -0.03820661797385073, -0.05647931556137175, 0.06636919002830896, 0.09432841683580238, -0.011630579805865012, -0.07325314182935952, 0.03156998591402087, -0.06828144763827752, -0.027925893582572102, -0.04378063029856473, -0.13395415426763652, 0.02509008746792041, -0.022173800556595635, 0.07707467150519393, -0.10210817739098918, 0.051961848654117966, -0.022019061643601952, 0.15103912905349465, 0.053931304007403494, -0.047409032666664, -0.06865159381518976, -0.0005097082145273249, -0.03915608766942478, 0.021925258422998653, 0.05506203798275499, -0.05596280057831918, -0.027374095465248795, -0.09212688539995223, 0.06011029944861846, 0.103298437020513, 0.17509860816252495, -0.052744161045081665, 0.044560740634200006, -0.04649742242399016, 0.07968766691846253, 0.05433013405472965, 0.0232417561476072, 0.08108014902791866, 0.005424708570532977, 0.03040971081773823, -0.18802801952635181, 0.011103321603784185, -0.14139572708836493, -0.12610202947152513, -0.07162944043773467, 0.15182696292478437, -0.006294193351352665, 0.020440684225261886, 0.08255193391412106, -0.06715424730912783, 0.0051481134098090514, 0.0752284053098178, 0.1232760453989095, -0.1473228563718579, -0.1924776072531489, -0.09024993884816652, -0.15044967076781324, 0.025248999163366478, -0.024501770932126108, 0.0977321193693098, -0.08329094956287032, 0.02504212857699527, -0.02961283341188263, -0.05921834691243128, 0.022141239898485, 0.028382226746661188, 0.020791944774491197, -0.15924771307692429, -0.1029107317335284, -0.16306051431931146, -0.017216273905469495, -0.06124936770363984, -0.12686171516875436, -0.031276254809608446, -0.012785202779792912, 0.09386968682096045, 0.03580301357496824, -0.03238800184301385, 0.12218612631257919, 0.06951625994930855, -0.014622552828194461, -0.08945151590120652, -0.09951808147992454, 0.08396560194417332, -0.07277007953003993, -0.10339527227428377, -0.09153475933788162, 0.08401798309179115, 0.0909242218078544, 0.03163358884013194, -0.12033834924120516, -0.023991798585842935, -0.06687731077874742, -0.05070078723238756, 0.1464099446099017, -0.12835320107141118, -0.055108389178273015, 0.02794013765931398, -0.13276372577156767, -0.04797885744159461, -0.010550213356283943, 0.04150807624966689, 0.05537810987932495, -0.08023637943160435, 0.08712001579256452, 0.013600361702729456, -0.013145246464925915, 0.02726193127861578, 0.036414325306199084, 0.08477244144484004, 0.00837673311861188, -0.007854854699977458, -0.09380897060829331, -0.02370128660714124, -0.03120389925331837, 0.027429467567201563, -0.06854370339558266, 0.17056314110343837, 0.03663388280553766, 0.08081295346434411, -0.015325082796864996, 0.08227827842878786, 0.08082764191509018, 0.0013236186714651133, -0.09089426508511052, 0.002002555351496017, 0.0464977749351032, -0.04683794531872075, -0.05249811204030948, 0.07770008412935137, -0.007477003636874913, 0.0386022733622018, -0.005945347943738068, 0.007540084696872456, -0.05137677919747143, -0.09610096479307935, -0.007314426766198435, -0.08023405705366868, -0.09842007582683904, -0.02922589518714518, 0.0283248284072204, -0.054388621333591396, -0.08082665148712444, -0.07691727309883939, 0.15025648884280932, 0.005788452334695876, 0.0016164536104778626, -0.11034606806688149, -0.021236448765985003, -0.0689571032498159, -0.046337054784324025, -0.0955947435984827, -0.042737169688449754, -0.08654636423937075, 0.039702008239773275, 0.011598835041836845, 0.07132461544811221, 0.013668184223453922, -0.009467650588949413, 0.04159031272971761], [0.12226406290915116, 0.10143175376988459, -0.049974948040461285, -0.08563085466937588, -0.1055891034355093, -0.006773062881891342, -0.021577250515624646, -0.053576903315213434, -0.0767411825580539, -0.0881956852560049, -0.04840472165545866, -0.06223049171845361, -0.010673501072934348, 0.05308265252779196, -0.09205953105872049, -0.055859263981424045, -0.023275191352479057, -0.037469609055158136, 0.023731454877257505, 0.1261306766442181, 0.1258938983723321, 0.168343261245908, 0.22330943609568563, -0.026080950058249022, 0.19802244156332954, 0.17939745869948573, -0.10009587719628157, 0.03543969482856321, 0.1068308299808126, -0.05562947000240229, -0.009591165471365043, 0.25044271874230184, 0.2705974951703893, 0.1579851176213638, 0.17196822999497735, 0.16976855904934496, 0.002889673528540297, -0.215785382078088, -0.11524039261092443, -0.27674447885002756, 0.09502632310674017, -0.10423996656247403, 0.005380270865411868, -0.07985375538423772, 0.1631763600761765, 0.16812122200483895, 0.17050490652815722, 0.061474548595339434, 0.0625096892819902, 0.2637244994537556, 0.18647814579464891, -0.2332168959741007, -0.14588061446935668, -0.2497094279894913, -0.22909889379094453, -0.018621735310202496, 0.10167743728197609, 0.022645633957869102, 0.2118986950233843, -0.02737219780391344, -0.07681118846686338, -0.4383628789657755, -0.18131751412525346, 0.26390358529957597, 0.13550069937267742, 0.03057658745620449, -0.09208777102709892, -0.1901540335865673, -0.27267680255831866, 0.1398131877549159, 0.009387205207610569, 0.004847808777938481, 0.003787880129795206, -0.1842319076844401, -0.23626351028495, -0.6805663137943881, -0.3025844665074315, 0.3519318588647212, 0.2700820179570254, 0.15297393798303952, 0.1965567273694633, -0.003099145311673828, 0.045373943852896025, 0.02465909719021004, -0.03852288191492922, 0.08041622190927597, -0.06864782519997645, -0.2306637073962252, -0.36958964212715717, -0.4917853930294491, 0.18174008373801667, 0.6664681067236768, 0.5480438914263682, 0.22566647830051542, 0.012336166007232818, -0.1473595420326987, 0.0023005083571804056, 0.008307140796021342, -0.060103470546378164, 0.1243799186673565, -0.11583642623882796, -0.4052000971452147, -0.40268791149619004, -0.18020494123887051, 0.5441700486340685, 0.7801953486960793, 0.3763964012275204, 0.04399228908081082, -0.27347912700106686, -0.2901734214415341, -0.15745727314464153, 0.12592715353259804, 0.12631249817199486, 0.15268348418443964, -0.09671952814425937, -0.012378835806181201, -0.04383001946787592, 0.38023134416212756, 0.803653764569742, 0.4974429358558753, 0.14727774906416935, -0.20475225688729343, -0.08422298285586877, 0.04342660837861428, -0.04538235192693545, 0.038852877561279885, -0.06667914630982275, 0.23524509504389277, 0.044462317468915116, -0.014940417864589384, 0.009801058106084483, 0.1953216049460428, 0.3365856393034967, 0.2496081495112642, -0.13606990844936442, -0.14429119599673149, 0.0990852784111941, 0.014849987694456002, -0.010821163507572017, -0.04637961074317345, -0.06059557751908565, 0.1247778390328372, 0.05149725483743283, 0.08609703961846832, -0.21923949455912362, -0.18382931960429494, -0.15562585314589916, -0.18636471153632495, -0.07696319845181782, 0.1550985535341725, 0.21681678580286995, 0.03720258987907659, 0.06234273932310404, -0.052415814218507426, -0.011384861911768789, 0.04529137863183953, 0.2582813622768679, 0.20134903327908493, 0.0003317721962296208, -0.12985694661687294, -0.3381556692217113, -0.07071024078827504, -0.1545399453133161, -0.199782780093092, -0.08912218095073579, 0.0190111519717261, 0.10157089166661921, -0.05468475324551153, -0.14655983743005116, -0.04328270712920789, 0.06274923599999487, 0.06429103018816035, -0.01947648373292809, -0.2203403974952389, -0.0361077102915073, -0.29658187156738336, 0.0413504990847664, -0.03578330921575505, -0.007129661770993494, 0.004473756044419791, 0.04674201400277942, -0.05229849150677765, -0.05466017848101416, -0.08071731165620287, 0.0064611354806987905, 0.020649153639778022, 0.11986089798120883, 0.11396480897056799, 0.1312160406714988, 0.06314473784353354, -0.001099094537237385, -0.022316070281314, -0.08409549446536518, -0.018252476543002567, -0.002352745303237809, 0.11732524260704758], [-0.08025108827436357, 0.003962499872909038, -0.02172044620867182, 0.015339310724344449, 0.011814067165934661, -0.017996702856871823, -0.07024463433909657, 0.08220068872301274, -0.1479223941558006, -0.08158626794823247, 0.008333606072865108, -0.12500943507865092, 0.09041501349888008, -0.04588838114023791, -0.020756425370775624, -0.059541592898209816, -0.05796756027552969, 0.007330276185806786, -0.14520661919265782, -0.2954931614251759, -0.23813862807869549, -0.2826132708309717, -0.22203914537902594, -0.20875353466603508, -0.1703772503958712, -0.0278237011708109, -0.005537927094217302, -0.051396314330192976, 0.06724583938240788, 0.034032696097445914, 0.06417667014797601, -0.15680887022379678, -0.13228960859837252, -0.17936773496490557, -0.2995423843621359, -0.03902842509475906, -0.12154118599316903, -0.15644398232597995, -0.04256495488345249, 0.20002593914787267, 0.021573739570319946, 0.059422272497623295, 0.02126179389531412, -0.10668116604409121, -0.037683459128432274, -0.019515566173452643, 0.004446876430280412, -0.15718695106357786, -0.2722672115705903, -0.6005641042567504, -0.6271008667786543, -0.13567785755481884, 0.18390687834425978, 0.25958301850518073, -0.04085604908419423, 0.067749686543728, -0.0036780699169802152, 0.1424779648218633, 0.17212872062523105, 0.17403008702260886, 0.047018620811466204, -0.050210508109684256, -0.027412886142667826, -0.17207965339625314, 0.09112932692290113, -0.01893609989386217, 0.03920794427461648, -0.003695167793456582, -0.24333083022755392, 0.10320729323576643, 0.006700628986855801, 0.09193069737846059, 0.07321371532876991, 0.016532238153536605, -0.08061386346480887, 0.11222219727237502, 0.049900781014290505, 0.3401604197266172, 0.3508481162391916, 0.04219898007603849, -0.04060047426518834, -0.061092349245154026, -0.18863680515197592, 0.08208550258785317, 0.001999948971021786, 0.0954258551997658, 0.10322550537051972, 0.1782661977838806, 0.04738859441911547, -0.13653393976694805, -0.22149184229630725, -0.055846899905353575, 0.47594004064299883, 0.03424789831510599, -0.012245654009999468, -0.10924337215881462, -0.16343563521383447, -0.04209878312247502, 0.042000228695779365, 0.030272259877339048, 0.15275697032810348, 0.191053802006206, -0.1187368078676416, -0.46970988486943455, -0.3291273120182007, 0.21311304462105574, 0.4538558374634418, 0.17381069645909816, 0.342421648236804, 0.009922312960816549, -0.07684199615749965, 0.0017067292425925597, -0.03851125185032662, 0.00910223137151166, 0.002930512289911454, 0.01864422247503048, -0.09472091267149753, -0.063364631936924, 0.22511145597747156, 0.585215250515164, 0.19688378004452783, 0.06052795035127953, 0.07663584522276944, -0.0654110903580394, -0.11264886081470286, -0.01566004892436109, 0.08167593522119959, -0.02405674890393872, -0.24752186067357057, -0.46112955467689953, -0.31286924833597374, -0.3527780287797523, 0.1623087166787911, 0.08401573922620462, -0.566746074047667, -0.49725185219615453, -0.4884571177214902, -0.2949921137877848, -0.028190935264451513, 0.07853004628624596, -0.024811800316568648, -0.005132081359079983, -0.3294081736838443, -0.6202122767970732, -0.7259197186543267, -0.6755646973239758, -0.5035087656629893, -0.488164851130047, -0.37683629218749615, -0.565149427730812, -0.3945697568624937, -0.22616604939788335, -0.07529304730236874, -0.12866060063867948, -0.08538680504447095, -0.051439367408384104, 0.006294259704960856, -0.037310214949609066, -0.19972848287882783, -0.2016759352049053, -0.31030749329535506, -0.1448505778710362, 0.16090868587543028, -0.01373903750626648, -0.03186435476437221, -0.19943900059208555, 0.040659199344703356, 0.0528399977086939, 0.07075499981783444, -0.03352283361046663, 0.06991681890203867, 0.01487307658725623, -0.01862467911718365, 0.11701138407658133, 0.053359777532012966, -0.025564553471389535, 0.039785949115070135, -0.09650561557781792, 0.06817113120246288, -0.035411213895776825, 0.07206992945438177, -0.14258590790496545, 0.0794532543153921, 0.0022549485712707986, 0.04748841145425318, -0.07282535996197204, 0.0876478211538046, -0.14508521649410888, 0.04696655911264853, -0.16949609102910546, -0.020370841396902626, 0.06823923438707248, -0.10542464520550393, -0.07069300292993869, -0.021179544231015993, -0.11252265694856561], [0.10595151293783926, 0.004448005786780959, 0.10237601728259087, 0.06146225933788496, 0.05897886371746869, 0.05137179172080145, 0.01487228548583469, -0.06595928958276076, 0.14177669968072512, -0.16023459129639225, 0.10977865011831221, -0.12315409249841036, -0.10378033836256817, -0.019244574286532038, -0.153103538550504, -0.025701894877533157, -0.005111108987344686, 0.04641109065929671, -0.018284307941184894, -0.10540088107181866, 0.0631722138496478, 0.0679117825656408, 0.12610978582897767, 0.056297047718665554, 0.08821898706960452, -0.025328422384501344, 0.003768207142408958, 0.04129600011540185, -0.07647385310246904, 0.012047884842504571, 0.05943397930862776, -0.19826144243919322, -0.09720311998057755, -0.1900489814626176, -0.10366727689814322, -0.2637703850574444, -0.2530176925170368, 0.1440456984710041, 0.010363938044010037, 0.07357347457556666, 0.07645334606785291, -0.07801180510014785, -0.055910679319691355, 0.0269112615773613, -0.2554823122260814, -0.3954870938405315, -0.1741948841971814, 0.09632293485623929, 0.08465664777377008, 0.4490277460255789, 0.332558452344693, 0.25167390663880906, 0.11080987138210538, -0.029974517565736453, 0.20170918351305894, -0.043570330278489985, -0.08762274322418612, -0.16800901871177334, -0.34867029463595306, -0.18168422030834336, -0.060488960263638376, 0.24797380993791518, 0.0718122587581946, -0.5169524577092668, -0.4087143480871156, -0.45189610137145464, -0.36484603373616104, -0.3172159535413838, 0.19785921880535468, -0.01963117768186214, -0.11582313215177506, -0.13725086740758957, -0.21240266496154073, 0.14543026603907752, 0.34984820257240545, 0.2923019686653775, -0.12958331085819813, -0.6080667637671162, -0.6337365124132972, -0.5569877420698728, -0.5536873730781828, -0.39829956248921666, -0.29194473009317384, 0.20547778091019248, -0.05737652549189455, -0.1343601186963936, 0.03197644692512347, 0.3901409355163658, 0.32670171611231297, 0.296960986160589, 0.18575746777420107, 0.0960672566271906, -0.029197073624966742, 0.29556974851225215, -0.09087331513216479, -0.26951769721059077, -0.24720299351999003, 0.013179514787437473, 0.12273757510325473, 0.1280999993795144, 0.06336892020438738, -0.09301774184107421, 0.2839377830243519, 0.3865737967131757, -0.033491802270271855, -0.26993891375581147, 0.19624767459969572, 0.07997598427339905, 0.05497651933501616, -0.20416248948768462, -0.05859454396398943, -0.12486235511119845, 0.037445036303108754, -0.0005131720584195959, -0.3654477009473252, -0.27228456516467686, -0.011978402988393368, 0.1385236065039809, -0.309754048221937, -0.4062570252661528, -0.00824772727545316, 0.1888862528911159, -0.07153119304854762, -0.1626451124452189, -0.1473308379371212, -0.15073755943830178, -0.10868732633937005, -0.060996647127537995, -0.29048516041457273, -0.3436116811833868, -0.2371229398691465, -0.1569401028416608, -0.26970027445969413, -0.26926403855752007, -0.04794428927510105, 0.05676573725473688, 0.04049126551226504, -0.12536836319160632, -0.12475100935715921, -0.12283670303422949, 0.04307604808801908, -0.18386123211452823, -0.07279454034181991, -0.2936438583672256, -0.32150678398088767, -0.17522747932363394, -0.021373019109802018, 0.20113533371483935, 0.044638879475653315, -0.054979231043561394, 0.01758025460724039, -0.02791675817881924, -0.1591156377801601, 0.06923352745020121, 0.12758723570379835, -0.06943821356958056, -0.03216979558486721, -0.1299146395746679, -0.025589179809627254, -0.08571710978115685, -0.11687508459659994, -0.19508273022263803, -0.1720367576873306, -0.14621018951109954, 0.07875858355825097, 0.04824278976435255, -0.10042657158622972, -0.06791920021624392, -0.005343806895880011, -0.013884844530540235, 0.011690332151180483, -0.07959585185051868, -0.03366604425998246, 0.23297522542877416, -0.03748202853428926, 0.05362942626035016, -0.05951385148206691, 0.09636743048853731, 0.06409261657220038, 0.11960593892644633, 0.046400207103609724, -0.04832891971660693, -0.03312617061050954, -0.039730564535918854, -0.00889361252716726, 0.09820157789622608, 0.06581914971029458, -0.05213419831316132, 0.027004365974374053, 0.04704179784201616, 0.00302570038542636, -0.047302333538124124, 0.007755968887910396, 0.00603873040438311, 0.10135182367445372, 0.02158842812332074], [-0.016814750321235916, -0.09948186009509359, -0.02636305933260261, -0.009674785576924508, 0.14667857040667864, 0.03857428399110518, 0.005863699797179737, -0.03532861431581636, 0.06659819706936834, 0.06975982770540505, -0.07653118381967441, -0.07973223952797522, -0.05499770578979951, 0.006547029269203759, -0.041470299761420255, -0.026483512870219945, -0.03929256103706906, 0.009828974885269806, 0.00043788320767773685, -0.020841444993016205, -0.08352708646448348, 0.02906068491918312, -0.10634764209379097, -0.11028698372886717, 0.06948680226554078, 0.08059038399264978, 0.04558971644063951, -0.029715360176046174, -0.005531077053270275, 0.1211320038317202, -0.03734906994794072, 0.01622413267454965, 0.004240776177335938, -0.05151651678260313, -0.0753120117950601, -0.017342686577101935, -0.10772755303926387, 0.0914322223274144, 0.07011634538976125, -0.043673618485693594, 0.021022335215249117, 0.12512196429577307, -0.05602194331149748, -0.04230338861503818, -0.07987185933361787, 0.054329880081570726, 0.079804840270582, 0.033854040695110915, 0.023243290110200217, 0.13325140302365412, 0.0032516932098050127, -0.09535102814695377, 0.0684207211750964, 0.10214238083910795, 0.01029138385473138, 0.008216903977892022, 0.04455867366211435, -0.044169350379795136, 0.0178743791929943, -0.04360151053601941, -0.07787479948759823, -0.01103908367931715, -0.001459222022099009, -0.06827568388130185, 0.021054398363800762, -0.04245737934147167, 0.10732777100858855, -0.12801355953575053, 0.03230343374886559, 0.036634089665839614, 0.09114992499329518, -0.0903197767062328, 0.03484331348043566, -0.010438654519913193, 0.03418824655031563, -0.022248416241092858, 0.09106452026642631, 0.047759255740910216, 0.020930165918035728, -0.05815177056278811, -0.07588168480143274, -0.06374999241324476, -0.06216181068924707, 0.05939446801187612, -0.0076194594392998615, -0.010302871431153809, 0.0973966817339727, 0.1265784111226059, 0.05114929289413819, 0.09795358424270757, 0.049873029375074616, 0.05067091147207603, -0.12852036087980495, -0.001054624547245699, 0.07242916994530665, 0.10718037068822855, 0.013633196863383872, -0.01994917741248601, -0.01126652764263038, -0.04112966910582154, 0.0573862876876616, 0.02796804200885809, -0.06332537688246263, -0.032633402333026154, -0.07634890668312146, 0.014592464677286213, -0.13654375979020064, -0.015783429375145687, -0.00922065091712884, 0.08144372405887242, 0.005073680615994647, 0.10613373296142065, 0.1184426171492885, -0.10205480130406423, -0.026009957049289986, -0.01105900381927102, -0.01254660906997498, -0.015111188428301902, 0.09696122649363098, 0.0070536155241758035, -0.029943068998993762, -0.14408259796985032, 0.01440114739733644, 0.09786934459341794, -0.03979328386142909, 0.016590771600789655, -0.053777937674102, 0.05780898172835256, -0.12680271394769854, 0.08637448878924926, 0.06969775487472979, 0.03740752237505951, -0.00043096900433594237, -0.05194302338898723, 0.024646639699060943, -0.00793114966751466, -0.0035904469093937853, -0.1087885656986132, 0.0482193403773109, 0.09544400962257664, -0.044995370024999315, 0.06306999587855941, 0.054570726693798456, 0.11031558556141124, 0.1286436900256693, 0.05716742108753569, 0.03989575755615342, 0.1573446435207795, -0.060081529926604524, -0.05034379005855528, -0.002673119260548568, -0.03728908350457366, 0.0689440268221666, -0.1034391944025677, -0.027927153559441954, -0.08217618638793503, -0.0020798013612515973, -0.07802790259255765, 0.11238717871094465, 0.03515809578482712, -0.06499133361658362, -0.015258344286293156, -0.045053419866570625, -0.12229009944482465, -0.13063083947077397, 0.048231057307544574, 0.06392265773260945, 0.011126842772448521, 0.09628798971671383, 0.056624654278174945, -0.14637302623905235, -0.11295201527262158, -0.05545313495466043, -0.08536432499694017, -0.05330332852717594, 0.062442601400871045, -0.08108750716182535, 0.0860335731411439, -0.1455299433347735, 0.13426712096464796, -0.032399774567467725, 0.037298070669777576, 0.01893408200345385, -0.009523257178090874, -0.08953541150954836, 0.026993009599821, 0.0347013143559512, -0.003902171335211085, -0.00598333535292879, 0.14342756850221913, -0.00979036209998849, -0.10575365216974585, -0.08836540983042031, -0.0004494573553126723, -0.07471589276745177, 0.0663866454964232], [0.06638865083639066, -0.18963427144917616, 0.015094569750299774, 0.14256862424191266, 0.06579399071674583, 0.10745239703855462, -0.013579644201138066, -0.00012262055271322134, 0.0069515854574577615, -0.07344425757926365, 0.06961057754339153, 0.06401407875283838, 0.00019695657922210277, -0.031246659473720774, 0.042939593543274396, -0.046875007742376455, -0.009545729826411123, -0.05238215264215736, -0.13642753860981421, -0.08254529961551789, -0.032285192047403086, -0.14613648763590603, -0.022362946822259505, -0.05422482678613292, -0.11538252910332414, -0.07476971492799375, 0.03853273996152045, 0.004949618244270484, 0.12086796497302874, -0.13376344717765062, 0.11728208752525543, 0.1308327740634485, 0.10593187723396691, 0.05565951276156385, 0.027829304230156674, 0.18739894638376464, 0.13758712743107554, 0.008474778344322179, -0.15831980188204817, -0.11308309228950673, 0.08335094325411085, 0.13877824717455967, -0.00873777951819183, 0.04404193483643415, 0.16859584332803385, 0.11262188626913475, 0.022079619575469184, 0.07887933671447998, -0.004990983266785847, -0.06763445249003808, -0.01829454788819392, 0.08382890781933491, 0.07756294403894994, 0.22628213261277505, 0.10366207158588654, -0.04749717439482444, -0.15885013182158647, 0.060419285676018654, -0.0027915223430666626, 0.20920927461117456, 0.07240079464529034, 0.1476916128508175, -0.01196120382921362, -0.09401134185626092, -0.08979733258334437, 0.38792191276685833, 0.11304728821896745, 0.20783181839223258, 0.19128788010961933, 0.051292914574512134, 0.08837271064478468, 0.08775804677006684, 0.04767506508895536, -0.21490995438514604, -0.025149520866928822, 0.029251882055754488, -0.10749422902219298, -0.2340848736431946, 0.1140809761141821, 0.03254509396386747, -0.16854619241450644, -0.10237608219007469, -0.09241906540801532, 0.029696065337552324, 0.0820232924217346, -0.04519706674613609, -0.05859417026751587, -0.09445325085592643, -0.12830924969273988, 0.21508368806031655, -0.1419004722623737, -0.3259362615673739, -0.25323369909537935, -0.23514628360193318, -0.031522598424936966, -0.24752708192920406, -0.09786758574725606, -0.06120343781323715, 0.14179856938500277, -0.027658068629514417, -0.12299522706098366, 0.05508129144998922, 0.007400092920749016, 0.0496383069214211, -0.20070010991751738, -0.4460990914012057, -0.2299713088815577, 0.043621163888231056, 0.030293328905815615, -0.041727964521930914, -0.09607934117641276, -0.083363745454046, 0.06589983561840718, 0.11966084150141032, 0.16232880155288595, 0.11020310067749291, -0.06885532424071952, -0.22584652499646934, -0.12770630923748413, -0.24903635068973715, 0.08819957022924375, 0.11361574709550501, 0.05783671550072133, 0.15029223114873205, 0.03793664599730059, -0.10810786765767452, 0.1772459507340639, 0.06333812668689434, 0.22397370101051223, 0.10624424150455665, -0.016482026400079525, -0.16583762734811672, -0.1682969929681623, -0.06462542790235029, 0.10152047410770933, -0.04175879433641302, 0.027365519863547027, 0.15559575509446832, 0.13117244050048443, 0.015906657233653008, 0.13835693776577457, 0.07946072723025661, 0.16188380452336737, 0.128848374364615, 0.18881939827905264, 0.13244652555939548, -0.08547900089358536, -0.25804827504124106, -0.08553774947328945, -0.1102693356831934, 0.24107957906956337, 0.06251857336956494, 0.03306501764227568, -0.03251609882168337, -0.06766302240577707, 0.041038898427527684, 0.027193182925173472, 0.1384960499044267, 0.04223548814713935, 0.1438726012555736, 0.07277024131243397, -0.019541852296984925, 0.014395293134651835, 0.07406766447125651, 0.10450458669416471, -0.0038943127395006565, 0.15857229305886003, -0.004588047254624068, 0.07284463173632882, -0.03247089782236693, 0.0119365399469929, -0.02767373916471244, 0.05048907072630296, 0.05653862591034494, 0.15593512979274726, 0.07782543877371449, 0.018471446255538183, -0.13606891850036387, -0.18145568785552962, -0.02289521194879353, 0.040068556303677914, 0.06931056077476734, 0.1310607081175983, -0.02117690299718164, -0.09618102248721148, 0.028406421200980345, 0.15681187878031672, -0.031847889220675524, 0.05201684468448721, -0.045740863685602734, 0.010658100515822196, -0.09028352524456595, -0.06518387783110685, -0.11994373272509203, -0.06014706613477762, -0.029555480958572036], [-0.046280105178392004, 0.045846221656784814, 0.06837384448341695, 0.004100394872283459, -0.07232631763858416, -0.04442225901946617, 0.03623320888877557, 0.010468619539017341, 0.02267915019400204, -0.0744926860933436, 0.00023109762374238206, -0.05730115350849164, 0.1438528204108053, -0.1365477246768718, -0.1268273095885975, -0.16544596558521163, 0.10389282312216677, -0.06282386975516546, -0.11339693539781195, -0.007926768928310353, 0.03196944661544239, -0.00033787291572143127, -0.014702052289939713, 0.04182714260224486, 0.07867451014328745, -0.06550877360386125, -0.05134974543562124, -0.04471744433112762, 0.08023141788165705, -0.15091118329108616, -0.08791603571511289, -0.04020298782418724, -0.028690406592628382, 0.07447759170336966, -0.04237409456237075, 0.016359227296233052, -0.00574934260489449, -0.0726636442443855, -0.1125776432098226, 0.07715209940457819, -0.11566442470742892, 0.10567544391771021, -0.047297003181790954, 0.13670129828713043, 0.04599473938119897, 0.0342392293989349, 0.01370023666207014, -0.015606011975719423, 0.05570827974021806, -0.06451121286849149, -0.07632202603366241, 0.023045875989612205, -0.03446546172975471, 0.04946092122717523, -0.015201492481092876, 0.023757825660091415, -0.03038680995415989, -0.0638049015781327, 0.009278420988985068, 0.0017311780623920944, 0.05281187992442996, 0.04928465932244101, 0.04285612126838064, -0.2124929516889116, -0.09001809831297888, 0.033065668735047155, -0.05266624948284813, 0.09843824896824675, -0.15394487985047817, -0.1393912947749942, -0.08583278112108236, 0.009864330935154065, -0.06308695531374764, 0.17732624714041176, -0.0879036863281932, -0.06022611018014317, 0.11026317407584238, 0.016201116720851713, -0.033209642560388775, 0.013556847126154402, 0.02667657498085315, -0.053324838570774254, 0.12259175984726352, -0.0361752660600412, 0.0842455752570706, 0.030599755513347062, -0.08413876467220742, 0.12485076093438356, -0.03633502872922443, -0.05290130619818826, -0.034190712797202955, -0.1348261346704636, -0.06666240149263228, -0.06371399520700216, -0.03130099152837564, 0.07078481312497596, -0.026212735101218094, -0.03251214429833503, 0.00974370648301823, 0.1120925534013494, -0.03473309979586407, -0.13152011048698753, -0.16103234588488088, -0.08439727872889699, 0.016801019214949857, -0.13326694833253216, 0.017731942956007427, 0.11756414894233402, 0.00955186299031662, -0.0019011975602100048, -0.02746065640006336, 0.03706804414796066, 0.07099251490163805, -0.020694262071192154, -0.08118923221060104, -0.12639863070832943, 0.14078470030959653, 0.009051625740420389, -0.21888478860011293, -0.02338556313396574, 0.005822385059404179, -0.07225840192873098, 0.015333864528048196, 0.08889063718256947, 0.03776503678565405, -0.08735350155091819, 0.017157721475504723, 0.09667575694242214, 0.09438288075330625, -0.03565746466189429, 0.053092225885836515, -0.05559208774351405, -0.05256099428117972, -0.0644662815759903, 0.005358193602266289, -0.01688323558728239, 0.005143598539032295, -0.043886544900293555, -0.09420511112368703, 0.11173272020678779, -0.09529007342199175, -0.006157379483285812, -0.19182055757900598, -0.01334920656358604, 0.0765590080452493, 0.02358795183297325, 0.13226315816339226, 0.10110750739403444, 0.06068350528315841, 0.03970121697985344, 0.06790056795946817, -0.06518855524246518, 0.08171748990096851, 0.04542748620721559, 0.03949934835217711, 0.05215475175897098, 0.036060046637901626, 0.014011039120761076, 0.042215148295000095, 0.03518049859056928, 0.10481437458562944, 0.02201584623547501, 0.050202892433404506, 0.08741038175254043, -0.13524997926489388, -0.23554291082187426, 0.0012100101630317548, -0.08348179340561782, -0.03002766569632751, -0.17669532688857825, 0.029510547868923192, -0.022037821999594646, -0.020408959949718548, 0.06686112610793411, -0.044306492389397274, -0.0457683657805266, 0.04267100191917303, 0.13246730460108486, 0.2204663955615094, -0.010449698061898497, -0.012875824253622752, 0.07845173550385309, -0.05002783322506318, 0.036526172829695676, 0.02847360093611261, 0.072251110307692, -0.10518785232390297, 0.13171005234021227, 0.09878606410771694, 0.03223624683913544, 0.05586382862151852, 0.05246575006799725, 0.008377919251926401, -0.010078333869819156, 0.03667179120335167, 0.08572701653088527], [0.08842713032380052, 0.052414110918520516, -0.14845899213307853, 0.02442861767782077, -0.011943535898281033, 0.13479546296037306, -0.14854753376913676, 0.032237313401881344, -0.11880324348494412, -0.019172932060698585, 0.08449462715821839, 0.039307875760959565, 0.03237280839400499, -0.08006763181219921, -0.03182453967181626, -0.0931612189423771, 0.08441145683466154, 0.0934233490358325, -0.014096907703345716, -0.011097592768908933, 0.023656814915615207, 0.03391655516454363, -0.02513612735463355, 0.08068829959963023, 0.10788114617413763, 0.033604038590504606, -0.08399252984612178, 0.039731748556249606, -0.007335882033535492, -0.09674265200345729, 0.16542648161575804, 0.05112523346946414, 0.10018383638820913, 0.07440222244828859, -0.05027060554732764, 0.12429985086747965, 0.25919361471226193, 0.16065225965019334, -0.02264125717987744, 0.06574066994329401, 0.07917221286356291, 0.17048359810028904, -0.05775896950088191, -0.05204292816931103, -0.13870993847094348, 0.07972952372541246, -0.0022320995508023317, -0.17972194919687767, -0.26746822292602096, -0.5466452330494567, -0.4542060759780452, -0.1220211908055823, -0.06582712892883519, 0.2627020195894498, 0.07688240812481069, 0.05813139423657715, 0.0648463832060769, -0.10302000129081325, 0.1645348567014479, 0.08411675283261241, -0.028313225743729603, -0.20025419630366714, -0.37410465767160517, -0.37681882930667593, -0.08474610281790562, -0.02320857711239928, 0.08428029298817917, 0.010189133410047626, 0.0010986875091006714, 0.02164506307907119, 0.09072071073876058, 0.1664413523767235, -0.05128241394906291, -0.05834163229808758, -0.23866183396488386, -0.0698156452706766, 0.04195017791476002, 0.00884182215708481, 0.16578220353108658, -0.22044143805680882, -0.36744696065505494, -0.0016309233215709732, -0.050057566799431547, -0.027427879531009728, -0.03716223542616448, -0.0065798719020170445, -0.07417453427011272, -0.10929255571130424, -0.023128345480494354, 0.10897411632016214, -0.020968971565712306, -0.25021001233253815, 0.007178510914336201, -0.23008284072951576, -0.008686680805711017, 0.008190413777946829, -0.06576778882953839, 0.07560372399029285, 0.037960572935597625, -0.041186757672845686, 0.1545868210326742, 0.12378808409561026, 0.004084983417571673, 0.07037295980966393, -0.25835297065474155, -0.05329962903243269, 0.09616972330126808, 0.21434696859127084, 0.2594050892603774, 0.25632335646364757, 0.006689386292708206, -0.14324018716454495, 0.05111120413367182, -0.08177848551989601, 0.13527607230238803, 0.1313957299743633, 0.01164468620274881, -0.22759353004308266, -0.06576385276518157, 0.10608935892138291, 0.05573876652231482, 0.22698154125351708, 0.14505097025744407, 0.04839779080977194, 0.017508589750347137, 0.002446774227665312, 0.01252449613525098, 0.013076609228317049, -0.0300874066121101, -0.08671173079847974, -0.04163497122055975, -0.22516198122535203, 0.018880601634687508, -0.0230689855899828, -0.06505776456757657, -0.07617105139572117, -0.025535185311471326, -0.06222274744196382, 0.03241092142158254, -0.08308260360574839, 0.06801970946331304, -0.05165973486087712, -0.021955383922040897, -0.002088440929845011, 0.0641675500777285, -0.13242172635828445, 0.0026076052720071115, -0.09948272266206026, -0.04320833352750525, 0.06231522099101307, -0.24492596894050847, -0.025375559685441362, -0.0053920235979609465, 0.04659211529280296, 0.05516204368608341, -0.063565446020149, 0.07997478063856325, -0.029109613706597537, -0.019202200463484295, 0.12146778801970952, 0.10439312388777795, 0.030702715295157734, 0.04238511338753197, 0.0072126710044256226, 0.06823607637087262, -0.11079880801573051, -0.004446749104128981, -0.06888793318417923, 0.09259454627252524, 0.0404217707142535, 0.04227684506810718, 0.04984065986308229, -0.1275662217442964, -0.0787674247434349, 0.026660896313658356, 0.11831719049610473, -0.042860511351100944, -0.20107550005911048, -0.14882333484683866, -0.05392801572568559, -0.019992417827128885, -0.004619939713868641, 0.06102669815770048, 0.08857663673617915, -0.07464740992241933, -0.06964270044776673, -0.21311262538049083, -0.1704026408402242, -0.06872916654436442, -0.02381922326865228, -0.3288113553833628, -0.06657047030902437, -0.09345378086626058, 0.041501927271530084, 0.0038730730312046386, 0.021471247881483357], [-0.14433853711251476, -0.08313879537034166, 0.0468320074240247, -0.031360960043718654, -0.025341829121557344, -0.07374198581083963, 0.17377755801676034, 0.0008979288737693448, -0.00972124501411331, 0.0822662407208913, 0.04911844484686755, 0.08495876153093022, 0.08289171480736508, 0.1656784221813602, -0.013468360900267581, 0.04345506399520371, 0.056741284345263286, 0.048694716554320935, 0.004818371783588554, 0.08550624755629452, -0.012649985914936244, -0.09847107563609743, -0.04643369411764382, -0.053832029830792084, 0.10597900728004193, -0.04640137928993329, 0.08555054936238078, -0.1386250998885437, -0.044732476481282056, -0.08417122966073987, -0.12705620231499545, -0.07973210296979633, 0.043921464023414965, -0.0917996093292521, -0.10292680384114537, -0.021985316005509545, 0.043563268053826994, -0.022289783297797638, -0.01632101241289347, 0.017496579307254838, 0.044957058077944125, 0.07979945410005208, -0.04552467596372982, 0.05891166615473939, 0.0012929138672132493, -0.07904632577469736, -0.04233500494080227, -0.1796853784278034, 0.06228723454014847, -0.021565100076588843, -0.07963554387810697, 0.09749082286320117, -0.048318313447702856, 0.06749095635114828, -0.12966263933695177, -0.06006185148829254, -0.09688429234648266, -0.030515306349184652, 0.02088395588174481, -0.04965039474954397, 0.049823228863326734, -0.08592523187743233, 0.0009306125181232874, -0.04841409668873748, -0.03427644452596484, 0.010044855425118304, -0.09186969971930033, -0.04638223583813267, -0.017857176398231197, 0.046785580429929946, 0.020321253574789384, -0.027507046449995347, 0.03240814770173597, 0.036336624012142806, -0.046771462851779494, -0.002315558668443014, -0.05959253209582821, -0.059297076254127175, -0.05794129782263631, -0.1180573937731804, 0.10361191784646456, 0.009328062516711113, -0.018445337187314424, 0.16305344895741303, 0.016999650919249532, -0.029774487597104937, 0.030815256632882003, -0.04310315167603925, 0.006618221352473492, -0.12149077614467503, -0.008838747139734994, 0.016187727169420265, -0.07047398966778927, -0.028632564243091695, -0.03846158033960927, -0.15923908266489537, 0.04569420172881909, 0.003977907592249562, -0.014487593789129793, 0.09249200952565112, 0.006293940479436503, -0.040840345354700325, -0.017852615581848825, 0.09492506902608194, 0.042439900970053526, 0.025458886420998948, -0.024258049583849008, -0.05353777573746039, 0.01597600758359204, 0.028109279976794514, -0.001340910799460888, -0.1337462845154202, -0.011321327840020103, 0.07841932042332944, -0.10723088143355794, -0.1396109668854757, -0.02627569527107332, 0.09086374088558567, -0.021862634663155602, 0.07165035139641536, 0.03678949577104828, -0.10392139730961743, 0.07923572839366479, -0.21981831577405156, -0.009276545949726156, -0.04424407610687836, 0.09355951353279857, 0.06555146473452385, 0.11387107036029369, -0.07571201110745802, -0.05057098144799634, -0.026144570237761705, -0.0009285760748021905, -0.04872370785983256, 0.12597648440606884, 0.04940518414688369, 0.02029577783043652, 0.03216201781523858, -0.08728983856731926, -0.07044827202036315, -0.0031956131626475477, -0.05832043888487917, 0.02940742703030081, 0.10447392148892183, 0.0055063494280404475, 0.09036162909080638, -0.049536169265518154, 0.0693422646491766, -0.09435735177898948, 0.012534228690392297, 0.06360520953231806, 0.071183571021378, -0.022002874231168177, -0.1568878969352452, 0.09521805171894508, -0.050363807547728706, 0.06366091800124828, -0.11649051409618548, 0.07114688861138536, -0.10368517311662223, -0.0058590099418124155, -0.00023792624089939943, -0.05660275422750712, -0.028329648257541185, -0.023396385089548884, -0.03365355711965855, -0.005421301868927679, 0.04338375960127855, 0.033582498256373106, 0.14734753917912197, -0.0009116266606370745, 0.06719312191739357, 0.06954914080065216, 0.026850129331058174, 0.03717427452968906, -0.03740683884162936, 0.10365633835818375, 0.2286057872650658, -0.12553059820974144, -0.10392590682045973, 0.06028280787048009, -0.038130162514143674, -0.07832911566624974, -0.00820211799651521, 0.028847517701488825, 0.026459250230085014, 0.04576734820496414, 0.032980791186868634, -0.11317843257687275, -0.026761990849879208, -0.1266540732688402, 0.005782620407389567, -0.08189828291501386, 0.12096667956039213, 0.017514114486800906, -0.03829152592753607], [-0.06133155673415772, 0.04208308450066647, -0.03371762444568238, 0.12618550769573636, -0.06486827691357244, -0.07380064681194498, 0.027535584805288556, 0.1463502807578227, -0.042453721386664055, -0.0019243231077027913, -0.0813032796929031, 0.01740210140641126, 0.09921843645459157, -0.009057398685536627, -0.004501432474169032, -0.021069927812544405, -0.09144840507170682, -0.12850893972422378, -0.017433997536693897, -0.0531816369990972, -0.030943982221190394, 0.07297304744626568, 0.060469684018170926, 0.08470207896966814, -0.02366929305866209, 0.05963363178251253, 0.10449094599701896, 0.050977899035957196, 0.015181962988655736, -0.06880525303130923, 0.07571030918983566, 0.05275872301631898, 0.11672945738137168, -0.024025779332112158, -0.001438497792203407, -0.09408359685163653, -0.2672698505082273, -0.09142751640271139, 0.0487855054582009, -0.03982482831345733, 0.0004162940626259214, 0.027708630869038037, 0.017598421241236256, -0.09045572170735366, -0.07318061907061026, 0.0063570764756304765, 0.1774840675627945, -0.09880169382239007, 0.056367551598373776, -0.05894037368673591, -0.016037357702730848, -0.09059977944944454, 0.06146861071696762, 0.012652859859837986, -0.08221595919349385, 0.0023618268119538475, -0.0026305691534636148, 0.023554754122081786, -0.026532308906859297, -0.06027315324249305, 0.027836516577186433, 0.011118795426421725, 0.018778738206465053, 0.010368384961409904, -0.2417462239064179, -0.15464507070666544, 0.0033219675228353287, 0.15085897232013826, -0.10029344071631757, -0.04336497486056711, 0.0757016250237969, -0.07007216814660068, 0.0040074147923901005, 0.04017991450262046, -0.08021727545523386, 0.002915417781262901, -0.05482695810105971, -0.15876761641379958, -0.2900562941664049, -0.043288559190360565, -0.014227855008311946, 0.05266444971412123, 0.12321176852912764, -0.004473057408983172, 0.041932272286054575, -0.001773129916325259, -0.06992172323803071, -0.021234370552703555, -0.13458849275936816, -0.22752536409739987, -0.29748493197647485, -0.10329014178212746, -0.13081823550995356, 0.059033192001133244, 0.04236034029772455, -0.060506159598371675, -0.03352140740711068, -0.053910033186957806, 0.016004378771384584, 0.11874670621085591, -0.04906843427653383, -0.13478479012830516, -0.032288386626233005, -0.16437391001790302, -0.1900563292514741, -0.12595740367545244, -0.07229776015724021, -0.0726201346706287, -0.024133043610225027, -0.02139556421743402, -0.013571186355328843, 0.04226635157801232, 0.02642009811462646, -0.04724558212749123, -0.026243004161453365, -0.013829603290884594, -0.059376300135219426, -0.1191349549690188, -0.18333556486306213, -0.12427755079883177, -0.14214527504744834, -0.005331669178652832, -0.053022149003335683, -0.052647432100431546, -0.093852180008299, 0.03769049323826395, 0.0069691067962775214, 0.15354147880370636, -0.020499426609730313, -0.0261096599230839, -0.02426011909605628, 0.06512427963346419, -0.1212040882783321, 0.008961477825754429, -0.08471991405435665, 0.024365069205727695, 0.09110675284272172, 0.054514207111512225, 0.11440299919755449, 0.03382263785862549, -0.019564412127666787, -0.07630966546419139, -0.009411458900638799, 0.07121407960854739, -0.05954501984818793, -0.10252453483237578, -0.020226225251333343, 0.008249032987684772, -0.021232472627696536, 0.032758315340316355, 0.023258362797440747, 0.051206169429024756, 0.09710869958280494, 0.08000444705853496, 0.06428050584898788, 0.04183222755695134, 0.012894178885390314, -0.0002512873292213461, -0.03985598323598604, -0.10902930761231527, -0.056396199318708685, -0.14003205406568495, -0.19163380267866903, -0.057549756368723275, -0.024939607213308086, -0.08123853356752239, -0.06112513874502905, -0.12448336555786958, -0.06358020418696438, -0.026760245566358754, 0.12652792414308114, -0.029486635039894352, 0.2000317598819483, -0.03491927321519181, -0.009622716839970803, 0.13942709893571348, -0.011353726293680469, -0.14246481930461752, 0.056200381205926436, 0.03134315223797136, -0.04776149531522812, 0.10281410614766362, -0.02542633515537589, -0.10255604954430635, 0.01172559867886476, -0.0017350309544582451, 0.12229328937289652, 0.16048853119612272, 0.07112873179400364, 0.15097120873108827, 0.10437429042650857, -0.05825846617454717, 0.066831944343532, 0.1681031528287559, 0.009641987302953898, -0.020289954624580303], [-0.04477328577850745, -0.08699927597422881, -0.024306748676556918, -0.12433792513823601, -0.0379625750045124, -0.01188519448250863, 0.030131226934213974, -0.15520962116649678, 0.01095414064787154, 0.09552640632112264, -0.034536387422921914, 0.12066459600219517, 0.04436169333470492, -0.08635381771343575, 0.02715641048520501, -0.01216685987400335, 0.021303672434000193, -0.10407616318851864, -0.02286623043850693, -0.15253852641806118, 0.005253697732666547, -0.024427275959088945, 0.05697511791879061, -0.016391250031223638, 0.05877583141334502, 0.04722282220118404, -0.11002937219381997, 0.038341183522083, 0.030261343821428442, -0.0029472614791443363, -0.0044955214431620415, -0.09223377495831508, -0.3010094391628821, 0.06250148114716267, -0.09541768332885982, -0.15395427262328001, -0.06781948737197645, 0.03357799273738548, 0.05247966440713011, 0.19231358607085353, 0.0724393691505157, 0.027233369199349926, -0.020431500252615035, 0.04512904627941966, -0.07120087866864082, 0.034411544896823666, -0.17465797372952654, -0.051136876822687555, -0.118027716693617, -0.4049091479372831, -0.18228934647235667, 0.04692746392218492, 0.03994930367531484, 0.10031568721270272, 0.3828795328039055, 0.10787135582821489, 0.038480865353587336, -0.14864977569395638, -0.18509953091100134, -0.14130844026362335, -0.002604536529748842, 0.08358656711763857, -0.049313148088118174, -0.11597611082587721, -0.20628749482588976, -0.1941360508648832, -0.1046432923200889, 0.10696973267570946, 0.5853137328567498, 0.1852169432501853, 0.01861670756552109, -0.15602064916741581, -0.20354477607900506, -0.03105273834653342, -0.07174025773557963, 0.02095119160307989, -0.17094503418176027, -0.3354922589249772, -0.26230715058002146, -0.6433653785859463, -0.6514213415671665, -0.45201982782979555, -0.08514034815177164, 0.1549694091119581, 0.11416196162287176, 0.04220050046322093, -0.043029684501476456, -0.23854681775729394, -0.339338829371245, -0.2610092480558344, -0.1519251465475482, -0.2345556629166968, -0.2081958890043746, -0.15482202328205347, -0.49307749074985413, -0.7152754979961732, -0.4951908008610843, -0.09195990411212014, 0.07620474526842723, 0.003466279573400783, -0.09195157627011512, -0.10857006894300426, 0.039348258722642276, 0.141214010641528, -0.041128503376779035, -0.24423343527774838, -0.018196078641053562, 0.09225703955106203, -0.047245509804810876, -0.24304876982069143, -0.1744595876908576, -0.013160478902105354, -0.026552311080932783, -0.05688149078259741, -0.003714696753164393, -0.05231672521917181, -0.18074456059682587, -0.20310421170497872, 0.037994072051423744, 0.23702224325188354, 0.17151076272032278, -0.08263797758988632, -0.3335063707482395, -0.21700219542797686, 0.0742134196078573, 0.040232142555828465, -0.049494066704837754, -0.12216600740381825, 0.06364453873118933, 0.28938682146124317, -0.18686515262847087, -0.021506547164894606, 0.251558394082082, 0.29204766466402593, -0.30470246077918983, -0.020099990889051463, -0.20304573175819018, 0.06528148705099755, 0.054469611856154426, 0.028373542884063192, -0.0014184750508186258, 0.04404630234026784, 0.011295071706333348, 0.07942087479607943, 0.16673119221021623, 0.0017850240447814698, 0.1774034600782706, -0.022129955203955425, -0.007181454212475227, 0.11283349978771665, 0.20551812160552616, 0.3125277050931459, 0.21976483174831984, -0.029992442254056815, -0.01488788874094059, 0.05874975297151584, -0.03705387168917995, -0.0955213401021458, -0.012259442752598637, -0.11934677607604656, -0.4512743568269531, -0.2491518973116832, 0.02197440385768457, 0.16235376333888552, 0.24565985146890656, 0.10946900274956858, -0.0039487973799463005, 0.014895213567274806, -0.015257180658768934, 0.04980988515941151, -0.00802042088114047, -0.18531493175121316, -0.04656617099515577, -0.14434635682523972, -0.236107429317706, -0.036961838626412155, -0.13602885799508013, -0.11930454846722136, 0.03756413602841062, -0.09277993860135168, -0.08477591597768047, -0.01017661253945869, 0.08240601233932439, 0.09360339504101961, -0.04244786693333567, 0.013443084121380323, -0.05654628593819328, -0.07407570263508324, 0.16638265711594022, -0.11998379430940496, -0.00264354562517208, -0.013127865612839984, -0.008057399766043064, -0.010062460398631798, 0.05444639851408986, -0.0382743275112707], [-0.01240141296848555, -0.030173743070059537, 0.12697000936340005, -0.008700656862979356, -0.018013505654894256, 0.003240227694977546, -0.017954238091789615, -0.007750755383169556, -0.14054225130928102, -0.04115693236809327, -0.0797502272044311, -0.09099633383167385, 0.05575264771888134, 0.047221296427624945, 0.01240331792776523, -0.035673938959217916, -0.03026382319045516, 0.09494162785825669, -0.0652412900648448, -0.027301349445748354, -0.07024957526593148, -0.05604292574493268, -0.03147486555651625, 0.021744307002398797, -0.11429853029681802, 0.05730805266130688, -0.11178781941526936, 0.009924065379659995, 0.05310427426231936, -0.05354949789553606, -0.015527852086982739, -0.1448933566634555, 0.08408617656550493, 0.008847535240789581, 0.08725327319286423, 0.045160955113052625, 0.037731276907390435, 0.08430652954407925, 0.11170845460359871, 0.09847017235266757, 0.050018871284329344, -0.05079344356002317, 0.005444172682792158, -0.03734214305090302, -0.037564223920902494, 0.22379585101041768, 0.17317916887421347, 0.14875179603251987, -0.19006892015799648, -0.6299627142654123, -0.4270528709694425, -0.1007245635276764, 0.1506786937175597, 0.4863268754558747, 0.17135044557185622, -0.03073598731860801, -0.036672508873222216, -0.13395249924151784, 0.027163963039725497, 0.2430700004678629, 0.3656797980305308, 0.3068197273659497, -0.2901071345140945, -0.3449900544822005, -0.1930008094960973, 0.23332319299252285, 0.020555452674412802, 0.2336608274372425, 0.20429332637489417, 0.0569611033609495, 0.015775476552518215, 0.10627151428038478, 0.12953109379120237, 0.14400849462418783, 0.17582386656328697, 0.23305858369944288, -0.038630084253895865, -0.3989312556517757, 0.039763694047849525, -0.21046370976455728, -0.16146109696483885, 0.04618037183660864, 0.19747348536042292, -0.19176104307585107, -0.046023309230605214, 0.003509771089094289, -0.19899968086886252, -0.2682400828979638, -0.17503796783919048, -0.05107028367895246, -0.4012478134558444, -0.6457321878232991, -0.028656097353953195, -0.1543452977025798, -0.19199097834727888, -0.24924224045834467, 0.05000659311797365, 0.055840816190241095, 0.11070315301369434, -0.1740530667733888, -0.21490162268764548, -0.16389428620488602, -0.16944677733666064, 0.02558169130551436, -0.28675583439627794, -0.07401147399139076, -0.2377839588067434, -0.08517553502865072, 0.02582478547184499, 0.14469868228688754, 0.12484208847793118, -0.0883230674131193, 0.06721139912702438, -0.017666329009893997, 0.030645142304305283, -0.02975122588112403, -0.22488871540615626, -0.2005587037670398, 0.24831500877467214, 0.06336399309296341, -0.14517713009929836, -0.15103704474957344, -0.06243864525018115, 0.05439748813950865, 0.11468747516516986, 0.06448383478240852, 0.07446457401447484, 0.06155605347265258, 0.1357494401385615, 0.14995320595987346, -0.21769158374272607, 0.004530826851842081, 0.23149655703422461, 0.14981344979179745, -0.07856566397307803, -0.14913375364111311, 0.08833257592705905, 0.21751774394785942, 0.24563604092223854, 0.04888015277463021, -0.09031924556849548, -0.18135950210631677, -0.017942454015133284, 0.16748310883683207, 0.21033146317504736, 0.28980173287863165, 0.27634121944214435, 0.13388516537670356, -0.03951618619865901, -0.057101604408350416, 0.1180633141356481, 0.2961800469525282, 0.08890465299907152, -0.0013192684107686328, -0.007648357351428688, 0.03288629821688252, -0.14387673586815233, 0.00777518491685661, -0.06397587727709843, -0.033007747039855435, 0.15445981970963046, 0.045030883763765975, -0.04649078370123943, 0.026603620770692636, 0.16724374729938749, 0.030190108601379592, -0.047898956574269916, -0.08660965606763192, -0.03316246874825313, -0.0013484751797883182, -0.12373149437313898, -0.16969111648650337, -0.11070634335238472, 0.03972294578311862, 0.13084293979430273, 0.13705000690393432, -0.11728983023606183, -0.25319964545143137, -0.1549712166143275, -0.042149409245625276, 0.009765686025462572, -0.0740951332990088, -0.004240061615040811, 0.05070517033019259, -0.05514370732113041, -0.05183018873072679, -0.02604667948571141, -0.027142482357525543, 0.08825027694958186, 0.12498715416746879, 0.05204079260987695, -0.03268814843849517, -0.08302953323683697, -0.1202903442703256, -0.037336512596814586, -0.07695371990446409], [0.0022872376495503646, 0.19348980701048613, -0.04417494268585861, 0.10283850270768577, 0.09231086641208522, -0.05254541665803326, 0.06749175758858535, 0.07180047758088275, 0.05078616696974882, 0.0033043864298955357, -0.021492661622636012, 0.07241807280165886, -0.014444133242624786, -0.06486270604158245, 0.03178017976682138, 0.15372115466644623, -0.025121446617350118, 0.060017391188952815, 0.0823751710844093, 0.03502079937490718, 0.10789379465019847, 0.010587746358052985, 0.057001368427262854, -0.02830682837446371, 0.0013598612962460483, -0.011659102473896125, -0.05298987328078615, 0.10416320087201193, 0.028006040598217413, 0.07467058911991867, -0.025395665549748293, 0.021545694791034437, -0.04470534603407706, -0.05002181734757144, -0.038371228114252434, 0.04950566538259369, -0.025096133108286487, -0.062221295182689436, -0.07892636234439138, 0.057014073901805976, -0.11400384215918007, 0.09747804928927321, -0.17051631428683967, -0.02940089320483119, 0.02586822739007389, 0.08300495185679654, 0.03692183387787308, 0.032883463278077764, 0.05879249554086331, 0.008064746596517574, -0.04788655638241855, -0.03391322680992167, 0.007742670361569887, -0.09997991349401865, 0.1500672270029309, 0.10432339627901623, 0.009011027577700483, 0.012974456018612824, -0.014206180218193167, -0.042352195424287906, 0.03628980729953994, 0.05186016087374375, 0.005178757211345984, 0.10922142629823976, 0.12936556258059587, -0.02037431235633031, 0.011921702236651349, -0.02584268863776424, -0.09219810579859652, 0.028224731256770937, 0.07431101786607909, -0.05615934459363821, -0.0378480065210865, 0.007450698591032546, -0.04518839669485967, -0.0912162553199891, 0.034227769865323616, 0.016054643063393437, 0.039801760787067035, -0.10033297134826975, 0.01748678661919728, 0.1415217978303692, -0.036450680097705045, -0.005147771118125969, 0.02962452161004882, 0.046601856649834794, -0.005525623641703944, -0.09126026442307275, -0.1308501032627878, 0.09000685706280778, -0.04006633259644144, -0.11845103371161284, 0.11441593368873838, 0.07236588107940545, 0.01957131018801746, 0.04977392992592317, 0.02044876123116707, 0.00839030265239148, -0.10473983295497212, -0.01178124799309799, -0.07809163567550569, 0.09642395953106243, -0.03693700953482418, -0.07181057385040476, 0.04695663979206823, 0.12950024774776098, 0.03647542458603265, -0.03407759640542311, -0.04271602938749753, -0.033520019203735714, 0.07094668553840948, -0.07566615618464129, 0.002106123904108591, -0.0066582543482798144, -0.03347276270585854, -0.01524579059788159, -0.19447471543209577, -0.03007375207701167, -0.047324921142068495, -0.11998644814222331, -0.008624766772669447, -0.01592613377027597, -0.07393245257413625, -0.016914034946698537, -0.06175477342139344, -0.055030849338047735, -0.0062087627671303285, -0.10367462817007668, 0.07231619304609747, -0.00925918906898725, -0.015948659320127685, 0.03455122224557349, -0.10638141220535025, 0.05949821114843282, 0.030495781382723377, -0.14884584392251832, 0.024350310139598135, 0.09402291617808563, -0.023473118383643264, -0.05609311897610987, 0.06698872119348971, 0.0941789259614081, 0.074059186044908, -0.020362631428050598, 0.0005544911132857737, 0.0736826360341232, -0.02809543427885091, -0.0032814918565850673, 0.058364547739698604, -0.016087917261746267, 0.09435744898291348, 0.02652836750637104, 0.10001773536758854, 0.04894517074256869, -0.08798715569176031, 0.05148406655909495, -0.06091179835912713, -0.09950093528210062, -0.08106037959703172, 0.01009950675148682, 0.06817087148199683, -0.006275862735722749, 0.0047227423331290715, -0.014183984993662848, 0.0569681522462731, 0.008005622594725391, -0.014740456561818766, -0.05733682461950835, -0.07029824425639468, -0.08445770477199505, -0.03560995092538159, -0.02959609496787001, -0.049256150515076084, 0.0077818001491041615, -0.0347058785125835, 0.09352058379444325, -0.010428107281611735, -0.17255072165153906, 0.10069455514025498, -0.013795916528454296, -0.04773822007610123, -0.011386538647068076, -0.02652407233576569, 0.02267732867008271, -0.024597030638050642, -0.046366121783128385, 0.24675761696380277, -0.018878755716218457, 0.0966998722374381, 0.09331601100470009, 0.19084453915879226, 0.04275726590059719, -0.044562187375972284, -0.14751296987600002, -0.05266840184723611, -0.005676919713781113], [0.05926914266238979, 0.06321853289725798, -0.09114987508767046, 0.06878473599199769, 0.021589179176651728, 0.016622368321890246, 0.050967697096912484, -0.032730327673648044, 0.07087616561489414, 0.1071915275091615, 0.07728619883039387, 0.02270770236856048, 0.02214831113058522, -0.010378867489858097, 0.050175442451975825, 0.03101833698236688, -0.02124942995803168, -0.08588187503532635, 0.06886700790099402, 0.11422440374770733, 0.051159593905279736, 0.16067221353086145, 0.19524177725808106, 0.30932646072301584, 0.26695561199565054, 0.10963144223612765, 0.177524853895873, 0.08959839757632042, -0.13589594759088297, 0.08645600755370679, -0.17398470304028188, -0.10241493657702946, -0.27040520200520995, -0.3459922115910199, -0.3821747780333209, -0.4709367700630892, -0.27240718758082005, -0.09434098398513949, 0.30244238421869996, 0.2936893344963642, 0.05096235905929202, -0.0031132376995762464, 0.04686565088029743, 0.10829453038914878, -0.15063244241567358, -0.3819575442922561, -0.5556313920701419, -0.6406567289420085, -0.4180876803778199, -0.2299995923293859, -0.22189714408050895, -0.25171685497154994, -0.15121966200403308, -0.17236476342819165, -0.17722219252702182, 0.15557331250519021, -0.016239407390770344, -0.10690457531085674, -0.13581636194431163, -0.2959897650833357, -0.18686947823732286, -0.17147740338915515, -0.024529298968883617, 0.2055169405950712, -0.41013150779652546, -0.7675213411477069, -0.6876940878615667, -0.6080561641920481, -0.40994864008517357, -0.1458361697952346, 0.07389577618982134, 0.1320436626090372, -0.0859660951814373, 0.13357874069593892, 0.31558006155444523, 0.03670380416907724, -0.0379932748013257, 0.21412830159721968, -0.3071135176527311, -0.23420779143114887, -0.17913063738240975, -0.17405485162704765, -0.2762140156526401, -0.18228749356700594, 0.022617775841377925, -0.02555591496115767, 0.0484009448353641, 0.3244723284961109, 0.45430595377300403, -0.1753046471026247, 0.06749636057477766, 0.43936465940915326, 0.3124908299799176, 0.13374350302322327, 0.16315184446195477, 0.2561193637644893, 0.05364900746398273, -0.02854411270200227, -0.017873224041335668, -0.022467387703313368, -0.14351103634229537, 0.18013983262166783, 0.20640034506625607, 0.07816348808862693, 0.1548982297021619, 0.48438709571801003, 0.24015654109741266, -0.2105543054052131, -0.05205541189924313, 0.0317259245250321, -0.022588953267632845, -0.07144528351767902, 0.016137795082285387, -0.03375318232445269, -0.2673872317540486, -0.23457233265862037, 0.2945822743417181, 0.32460649190517477, 0.2886485602067754, 0.45078596384399694, -0.180604420271646, -0.3582189241557381, -0.058664058076104204, -0.03566644894867333, -0.019664068510213715, 0.02388917904182523, 0.060014038680617145, -0.09408795009843655, -0.5884544413731558, -0.42834005990727103, 0.12782038495796755, 0.30321396040512677, 0.34375247912966866, 0.06244660552758012, -0.09982065037792712, -0.1244310244944521, -0.0796941187316816, -0.1361065144323908, -0.20626460462603616, -0.009541187080836315, 0.009233598839632947, -0.06416520364661199, -0.34685144505843046, -0.4732148353619182, -0.4523416557184608, -0.18100739391686946, 0.29686588068380265, 0.1138651764774716, 0.26621597723398643, -0.04380085531895866, -0.13051941990897944, -0.33010502814563175, -0.026240612879215846, -0.005530114676505014, -0.012212330873589238, -0.006947318010523842, -0.033760866040400475, -0.1851289273539481, -0.1858130689174116, -0.41262497958183536, -0.42370854562171206, -0.24575297272697194, -0.1239826012782806, -0.133872261594434, -0.09243445349822135, -0.0600981539306029, -0.0034127766551391376, -0.09125746139289707, -0.017925941128107827, -0.06120821974400602, 0.08746055886858295, -0.15213903870175532, -0.0031230514191620297, -0.2111813471516439, -0.32584143120642667, -0.2981307640589559, -0.1300877118593072, 0.04487989805889007, 0.21942824361728258, 0.08731238964615097, -0.06203480525201516, 0.04525204168104317, 0.03377161884712156, 0.030564853424435063, 0.06536693861237866, 0.059754709488898994, -0.038500737213710605, 0.1290693606828444, -0.01572281548884472, 0.016401891300903203, 0.14030310313590214, 0.1723055492049318, 0.02473200684879984, 0.10171937547687436, 0.046933404335451345, -0.08583130923606287], [-0.03095735185728288, -0.09499379022907406, -0.06935683122511471, 0.05291551044762823, 0.007599628676485419, -0.04814916323459708, 0.12502564433151137, 0.015498150632998541, -0.08174585152601728, -0.002860374110595639, 0.04049734880670583, -0.08843753374866345, -0.0046951193229652, -0.016421904505238512, 0.08961133542361406, -0.10317080412716627, 0.0031518583015833707, 0.06125210793561058, 0.05535877579384865, -0.022457306859600693, 0.07383978294556043, 0.1001345446080358, -0.054801521990336416, -0.14697023304361068, 0.02605982758160012, -0.05678400061402365, 0.04207906841876611, -0.005245137956137906, -0.0310817328854025, -0.0008376966026281594, -0.11959955418524289, -0.055734205405751525, -0.04202874220767328, 0.04621510263617338, 0.027940279630155364, 0.05559640829022286, -0.014280739658552985, -0.0266848073379832, -0.07176565228939315, -0.031069039632651636, 0.073209276598736, 0.033435516118855695, 0.12032714858826359, -0.06920880866490092, 0.06652237716640999, 0.0628285456297492, -0.03402433216192361, 0.15273291296986896, -0.07922201528030962, -0.06233097296145825, 0.041320806562876566, 0.06615313388414736, 0.12714984526075565, -0.030263534497668568, 0.13386413038907213, 0.1488783301232299, -0.009931808628133471, 0.04811812134230088, 0.056596215296113396, 0.06716362938697129, 0.050385121960388614, -0.012022355448354293, -0.0647304526698046, -0.2795843104255422, 0.022882740025585033, 0.006152317744102145, -0.035085347899097424, 0.18525663771475415, 0.0062463913833664285, -0.05497100745922191, 0.04056559222547514, 0.09069135602022232, 0.024340689318052458, -0.026630481968097013, -0.03635605721053536, 0.02752576370740791, 0.04813383114014709, -0.0028699567742492354, -0.12343034269699191, -0.07258753226328547, 0.05058130520197839, -0.12174042108961824, 0.033523095466265265, 0.018286245258839564, -0.11811873122350959, 0.0020043665096786587, 0.07734411106977696, -0.023866570032123224, 0.018892543799816097, -0.04933343540936139, -0.2455186654395803, -0.04423361229913332, 0.010782008253064865, -0.018459348965937674, 0.04682100355832953, -0.04057317100851796, 0.12920978029364188, 0.009141432869610411, -0.05822604374526607, 0.005664904145977459, 0.020680730997319666, 0.03303162972106325, 0.05141289099429206, -0.12006185813262114, -0.1342008296362258, -0.10770262624259958, -0.011898760578089008, 0.0409249498814492, 0.07559666764004219, -0.02370182131953825, 0.0038110933065846225, -0.18255184940966204, -0.0815443355350588, -0.08760797672521989, -0.006234969436553012, 0.2043296741755407, -0.015041297026196351, 0.011975516756500562, 0.013163908695926207, -0.043178023596500976, 0.013533630417199292, 0.02847074975160058, 0.004309024474727036, -0.060466154441872984, 0.1834714299613468, -0.08468623166953186, 0.062410907273761446, -0.009701335389879443, 0.07232385304796184, -0.08457225040595945, 0.06632420624244349, 0.08625232578751604, 0.011495538369125476, -0.1142949075755554, 0.1339477244585622, 0.02464138379942407, -0.07771361595332645, 0.11781535124027842, -0.041651841412859894, 0.016628858336459922, -0.0003043408459986175, -0.0974234365299807, 0.018899288060681075, 0.1630083661378665, -0.02381246571777477, 0.06400151554001766, -0.006023356713898912, 0.11853461796811963, -0.07408007543204555, -0.028209887105161462, 0.07389059011651956, 0.019307553837628996, 0.08717257764293299, -0.00797317542973878, -0.12630331527106808, -0.07299229456888649, -0.03903050882071743, -0.07178122921717366, -0.08228514939649931, 0.062430091868458604, 0.03289607616666724, -0.16053546936959617, 0.024982643227663817, 0.04100954280765278, -0.014743562763890865, -0.04790341702781856, 0.0849888538682716, -0.056467487978893054, -0.06657287678416748, 0.08418911869271703, -0.043033211547079515, 0.005950901387190633, 0.049690094490477114, 0.03251174243610282, 0.0010850600956206018, 0.07648481879258824, 0.07474969281385542, -0.033896276019106074, -0.021069362967692903, -0.14287075566507254, 0.05019129323525246, 0.10120247853675171, 0.06246026507188148, 0.06129508547606073, 0.01831284248225526, -0.006658980560884773, -0.047432014489416405, 0.009135605545282432, -0.05193375818312834, 0.12071116292439298, 0.0878783717003767, -0.0006340036934077363, 0.02566832731023815, 0.017261387262853048, -0.0002257587622677629, -0.09903694261256693], [0.03271577537374703, 0.05808769507543708, 0.06631145990430844, 0.025797063389255262, 0.008616569071052241, -0.13831801545085323, -0.05217342660559659, -0.0236866349534803, 0.03196969844975261, -0.000576873469605995, -0.12331203340796469, 0.04137159279440437, 0.09514899626534208, 0.013663303943927037, 0.03911175433511965, 0.010398572780274338, 0.038387759714353424, 0.09487867073302142, 0.2180922452846038, -0.038016469819345346, 0.12916461517862451, 0.016786508508844795, -0.029890981416524326, -0.015531387552909578, 0.03847408617267212, 0.021757759437195857, -0.049030607573399526, 0.05027732909307958, 0.10112207744480203, 0.007424269737159898, -0.07966417251879361, 0.021942409249063075, 0.057348054785158954, -0.11073910111073218, 0.06421306203050253, 0.10051698703019978, -0.01762624957932189, 0.06093003646255596, -0.006625827320127758, -0.035143128974990036, -0.07620962262326372, 0.11915286450138961, 0.031540093473794786, 0.0021148969974918177, 0.021252588579400333, -0.05374514498269497, 0.02284722580343428, -0.110116823039732, 0.036179454576467866, -0.05649266126232387, 0.11150154794337495, 0.07273481952467756, -0.1348039404906866, -0.05848938565306058, 0.04964585747917959, 0.023919086181627768, -0.13439070963275077, -0.01282520997664508, 0.05752185429982857, 0.07473897211337455, -0.021824181012459604, 0.010438493257011522, -0.03729902581401595, 0.04282947511009532, -0.09033105679439245, -0.04583036043885414, -0.010061238796102974, 0.08543817208359103, 0.005590523755423425, 0.04875501278021293, 0.02341567010122648, -0.05814118734050984, 0.06279853682246544, -0.0399147354705582, 0.09432807963491668, -0.020089081927292623, 0.022033034920603368, -0.07198320922809313, 0.09281840382626994, -0.04809642176300938, -0.010700334604611143, -0.08148439504952376, -0.02371921527729307, 0.03526863764847392, 0.028355463348640222, 0.012053720315996257, 0.07777777774481101, -0.04225929527361978, -0.032424907583294554, -0.02426101838792193, 0.18008183828338545, 0.04682175566156747, 0.022907042674608857, 0.06092481503178283, 0.016706118603084852, -0.13374738259138444, -0.011646197794686782, -0.10285775104921092, 0.06902595937477284, 0.13789921186551324, 0.025573438633090414, -0.03897506170289591, -0.0037551434096794343, 0.13027055469310064, -0.009287878875368904, 0.06618760028625562, 0.04732302841015161, -0.019549870941514, -0.09808667246835606, -0.007165623418763536, -0.013547960872708133, -0.06876497795753107, 0.028302028424001098, -0.009056348442623674, 0.03605904575859525, -0.03152593213832211, 0.06176628966246871, -0.010633783258778076, 0.016519426400964276, 0.044024719568661504, -0.07753086306991783, -0.15309111213305354, 0.14846349991699162, -0.061229831374041685, -0.07902885033336574, 0.06937727533911493, 0.07941587295492025, 0.12106026863116168, 0.13648282232178996, -0.020776823754038196, -0.13044198651127992, -0.007484498837673606, 0.07477626089076601, 0.02982693045442689, -0.2683832089869159, 6.336147539722937e-05, 0.028215171242023253, 0.049873362384139204, 0.0741986940282585, 0.07648431587175794, 0.004655072295026755, -0.11824048647901002, 0.006704206003309547, -0.07361004349800096, -0.020377951221667575, -0.009957358096471722, 0.07358799534255418, -0.020814928767791434, 0.018481935574199734, -0.13698295704809604, 0.001401299622047203, 0.024327913484671834, -0.16385586865982207, -0.04130129515386081, -0.022653571669979944, 0.12206179923902946, 0.06987236370649519, -0.14265815588058797, -0.0403638547747008, 0.0006463796336564952, 0.042266717866957904, 0.006857875763979753, -0.05298348208138593, 0.027311323661485518, -0.10837398910928465, -0.012761879293864912, 0.16675881500940296, -0.08462390933434084, -0.05990683669356271, 0.03141892906666937, -0.04155546643683355, 0.0002120849398590404, 0.050756807957447234, -0.013494019591062762, -0.04283122200811349, 0.012364847806410527, -0.03869963893480523, -0.041895442702388604, 0.04146539970494313, 0.03617131709207209, -0.025089684729118874, 0.10014875573204311, -0.056152430725100524, -0.047637182977139106, -0.017509425141324007, 0.007257645884824179, 0.030618939163236367, -0.019857028523038316, 0.03401258392948607, 0.07567748696020364, 0.02822932036687449, 0.020956609397879578, 0.06862595561829046, -0.02580437769812799, -0.026944831705587726, -0.0018299796978163882], [0.04241325879009602, 0.030357821338818425, 0.04961188138325338, 0.09893486639569046, -0.033583599165713546, 0.048680303202842244, 0.08472479688321294, 0.023988995697790408, 0.013822276183005563, 0.03723984117806282, 0.1971944516850544, -0.1765820633208136, 0.08587777580398515, 0.017325610538451757, -0.05430397691080251, 0.053947677948295615, -0.05781068207655226, -0.034724280075455576, 0.08740782721099025, 0.04252319411178945, 0.046598927266288025, -0.035368424525168626, -0.05844560599016719, -0.1983484972314949, -0.0360788927759376, 0.006188793456598489, -0.09224717217023008, -0.08446931062785437, -0.03424951635888598, -0.04201534220571124, -0.08704729379357959, -0.029359598586913182, 0.06297967574107631, 0.11122542542854265, 0.28625167566887455, 0.2890367126337534, 0.28723104241659264, 0.06475617919572284, 0.049880177890586616, 0.00057150414330666, -0.113081711402364, -0.0590724456583521, 0.08919768218228318, 0.09005249202607674, -0.11561852475780979, -0.027297334871888294, 0.016582138312697326, 0.22985616689355112, 0.1346140449020054, 0.17851686321032098, 0.15739383828193412, 0.24623175165580136, 0.1321640321411376, 0.0168502403336706, 0.12315609370456454, 0.11731097440775379, -0.03598050973493537, 0.04201870023517434, 0.04912391552258056, -0.10727588822878889, 0.11569662575455045, -0.05568043029764322, -0.1622416269518469, 0.15156788655357123, -0.033387976299017824, 0.26885865511628276, 0.308789473646342, 0.22008941815386543, 0.2226445948757123, 0.06346339998051717, 0.09137429358765001, -0.00427148268701549, 0.03870518099752424, -0.021869154401112492, -0.20770990088604432, -0.2555265466334471, 0.027804168967248848, 0.37462835527639676, -0.26892646620728383, -0.060192442255487415, -0.07078516288506947, 0.0629922082892855, 0.24179687685737386, -0.00919903096161139, 0.02455276394390024, -0.07762231338584165, 0.010450689696062332, -0.15374134569160458, -0.13237467607322626, -0.32562551687808405, 0.31925101043397647, 0.1541744705673106, -0.42741585762381556, -0.31216504092182845, -0.01415274916135489, -0.12931786390062935, -0.07525126073121757, -0.03830060319353527, -0.053528481330250996, -0.06666025550406669, -0.019767773166739434, -0.2979901907994756, -0.20049049711660416, -0.055359125472432935, 0.08736920556528774, 0.07924389559123352, -0.49393514535515437, -0.4210909730651832, -0.39293331956177885, -0.18691510008062998, -0.011900486418638256, 0.005271906598067449, -0.05783321644742832, 0.11403167365254106, 0.007423398248454949, -0.1379951850054399, -0.2282968756644071, -0.11306350233038606, -0.038237635271489975, -0.48051653064855315, -0.5148305687247893, -0.14320960698336951, -0.17546911889084682, 0.046362631484071264, 0.0003205820937656713, -0.06224802240745034, -0.10747438627504426, 0.0817123214860814, 0.20562295942231149, 0.21142368105068385, 0.11843889411930009, 0.08326161035015554, -0.28988926944203847, -0.4308571638177473, -0.060975156734476184, 0.2375283099994772, 0.16306595423504675, 0.17928002420295583, 0.15269040527858413, 0.0055072845714438205, 0.0014034311297313087, -0.05834800454014592, 0.2804551458727482, 0.47026674375679456, 0.47438066506412574, 0.24820998654663867, 0.07622075081195048, 0.0593547581266783, 0.09639212432195886, 0.34549851865977216, 0.3487999046169925, 0.1936903715110808, 0.0061302338103244565, -0.04932099770878799, 0.1000078380379819, 0.18792065351947246, 0.08453037127007508, 0.2028358588082499, 0.22765466927635247, 0.4486981571384678, 0.3795869869089484, 0.33673078427252284, 0.38882908480690037, 0.28689694993316345, -0.01343646627132977, 0.0135657221443713, -0.004328711188707486, -0.04926343285160407, 0.03152851094439154, -0.10508470574608225, 0.10023199968639508, 0.04762112718585695, 0.039159484668938614, 0.11816356309803357, 0.205384242412143, 0.13919043252529914, 0.12718588366365452, -0.038496509472114845, 0.03225018149735381, -0.09580746634875677, 0.06567837992132401, 0.054387838106329765, -0.0907026665577734, 0.00464705160453631, 0.058306826816157405, 0.027692743052296756, -0.005126137590012471, 0.005988693419785824, -0.0029710554734427336, -0.02757753148264854, 0.09803914383512592, 0.1097879392813597, 0.07445363761820302, 0.010070254165858706, 0.06560077908783181, 0.03948359338952531], [-0.06268611744745306, 0.05809378178987305, 8.396576194816121e-05, 0.05296892677428324, 0.04086371322857429, 0.07764208014320644, 0.13236795829880604, 0.0461320747026438, -0.12089272036204446, 0.002005584233813558, -0.07111630372513976, 0.03511471505000866, -0.030000271013509616, 0.048942182926740664, 0.07083786878844588, 0.034332076947194534, -0.03133001459086817, 0.007806920940849633, -0.06586202614150041, -0.010228870286749412, 0.027787745226774845, -0.07170502423806119, -0.05119212246540547, 6.79335850599606e-05, -0.0963987229051726, -0.08493970139950967, 0.09625350095336069, 0.022986859531133146, 0.03913517435309555, 0.017552752113084963, -0.1068829000747301, -0.08920895796787763, 0.0008897632396946975, -0.016339227154070827, 0.03511988353082942, 0.09620916973472309, 0.14466657262452884, 0.13802502934364885, 0.13999692456144572, 0.13980728674776743, 0.07673741329725074, 0.03835335359413685, 0.05884084577891988, 0.018627111056045493, -0.13752330602522295, -0.07680313904153203, 0.143586118844575, -0.12494024676401869, -0.20199979783171826, -0.1241021067741677, -0.10511660056598404, 0.042315153619051575, 0.007730707229141314, 0.20255449822598434, 0.1165182894413711, -0.013760353096543426, 0.07652191509832663, -0.1244326379833525, -0.17600176978651313, -0.13894035630864104, 0.0976168951310237, 0.24169935257039446, 0.006991673644276711, -0.20556227536396263, -0.30384842362268644, -0.18563925033900983, -0.1697904437234662, 0.10056548192508676, 0.23679252059918804, 0.047878618503041835, -0.04878447302255271, -0.0450975958290648, -0.12162403409122957, 0.007854502796696397, 0.08005672736445014, -0.06220327494213578, -0.2106552490426105, -0.29442341938918853, -0.24088073790277806, -0.33354793254367676, -0.5005045038221577, -0.11226711197669188, 0.1283352329803887, -0.06805187434383611, -0.02034367838107372, -0.12903630591208928, 0.10729284208648827, 0.030282501112393362, -0.07197219754469554, -0.02222638816644492, -0.3765100805661014, -0.5246786163879866, -0.25166225573560286, -0.20806115141912376, -0.22441271320478873, -0.2798854676756049, 0.022422753065762666, -0.13504300328842625, -0.016237338204424613, -0.010946673095381498, 0.011435510805492146, 0.1832282131542118, 0.139688168782608, -0.03753834934538623, -0.1852412838821594, -0.23025597583596505, -0.3323919129687697, -0.12384065210762775, 0.05350927670480596, -0.016593632233212575, -0.18822430943369695, 0.009382074376078775, -0.03608792533822473, 0.03294245912830632, 0.01940636128649791, 0.0800899186089649, -0.08700625627645094, -0.04887479014843435, -0.1330402662833111, -0.06951628959000142, -0.12398058100984517, -0.016981400868941062, 0.005057028673113261, 0.16354746507551898, 0.14170587298213078, 0.022529774783478864, 0.10052989412982956, -0.06890991992070428, 0.18737946177654666, 0.13728962172342463, -0.08141601834367011, -0.12221174825050933, 0.09509374639675162, 0.18130717369536603, -0.08752436575998766, -0.07094910049971428, -0.13302336851404464, 0.13504401164098356, 0.06267138561700268, 0.0035497321356480305, 0.10898075633648377, -0.15964513068036718, -0.0032888638638678366, 0.1534501693402158, 0.40031753189862723, 0.08902654775412136, 0.18099533383678457, 0.08628695056419879, -0.07025950142944966, 0.053278638424520415, 0.25292910584659756, 0.17655612688606345, 0.17850558906844038, 0.05110431903470806, 0.024611538614941725, -0.07092078833025856, -0.10190721024475005, -0.058371528418487716, 0.09396932754869126, -0.014737726880158562, -0.16732837254407015, -0.22698581947054094, 0.06313457859007673, 0.08468917263666208, 0.21250154141092095, 0.023293652453590417, 0.0782013365504922, -0.048005535527130834, -0.02275452793485769, 0.10997350512065357, 0.02176939842014053, -0.1583243663649903, -0.12044720881896637, 0.07363248499374266, -0.14706731514578994, -0.029602098181834565, -0.03748094088109205, -0.07124799398390809, -0.23130280737072303, -0.036593008476674856, -0.02663044488578197, 0.14725421331860475, -0.0031655478237537214, -0.0058079790430353466, 0.026119085528785727, -0.06891756315449181, 0.08152718065854675, 0.023244697083858526, -0.0941915870212196, -0.08587759181011179, -0.010117346955634298, -0.1079158439016371, 0.07923299391602623, -0.1417093915167612, 0.03927684297075069, 0.0050777636993920945], [0.08809509380878426, -0.07125070958707443, -0.027623266918372396, -0.08179430711142668, -0.09798530499893199, 0.047843240264741405, -0.02040528051415459, 0.05539903323514237, 0.13742691139835644, -0.015207724953888165, -0.05407183623887449, 0.00036215834406786313, -0.0776334676220627, -0.06405575253250735, 0.06571450617582512, 0.04883264010165331, -0.0043870208173759076, -0.0375944379449595, -0.17435857588701142, -0.12179601952128015, -0.34275612423301194, -0.1211818514591779, -0.25990526955690163, -0.12733827624876456, -0.0923660257507164, -0.07178831453042141, -0.07587178930251971, 0.04588900267442436, -0.014971337644396846, -0.13752812059339398, 0.13090983037689882, -0.029968590386444716, 0.17124514147993264, 0.27258514299674547, 0.2265893011362883, 0.5036572036630812, 0.4149469865624509, 0.2635274113260513, 0.24354882612228998, 0.25804681106133737, 0.12492407812260144, -0.06059060495046534, -0.04102524885577981, -0.025433902059108917, -0.020543872822197263, 0.1674917723151806, 0.1130537843959662, -0.06536834381294403, -0.12508535299078366, -0.41410150386957223, -0.20412337088648472, 0.14014677818621643, 0.25512275725128786, 0.5342122443299131, 0.2911495010863283, -0.08849733448665448, -0.054336258848396046, 0.007543969116935583, 0.12898243917102944, 0.0634927492005066, 0.07961423175198344, -0.08698501041937577, -0.406208045382784, -0.39943652279451064, -0.10909855725994123, 0.21727164231566318, 0.19925260653330942, 0.39411365938610554, 0.3918221347375508, 0.08776059214943724, -0.10832038869700082, -0.16732157946689163, -0.007001026102879974, -0.06702291463161278, -0.22820597989692462, -0.16318095074937974, -0.10897933604048807, -0.2458721738059273, 0.19218615803360828, -0.09055683046250823, -0.27666691943843086, -0.1081387267513384, 0.21782320332493219, 0.12141354785340425, 0.04549460456375319, -0.1767113465660919, -0.1497476929871511, -0.19702525152952732, -0.16380600064434073, 0.21438654465063783, 0.47268088794855, -0.20270591333032842, -0.10634937861873195, -0.17536240198438974, -0.27200696381568423, -0.39793831097462345, -0.05244760818275024, 0.015757160208937217, 0.01027840751379404, -0.025616616548286973, -0.12141971848554865, 0.01970474970528975, 0.0419034364396902, 0.2632167271549012, 0.4171123377746741, -0.04108227172210163, -0.018363947510926074, -0.024142261108197817, -0.0957555636739248, -0.16859186113897087, -0.10076046817762681, 0.02615496697992644, -0.044259134516467936, -0.10041102518609901, 0.13742762249742102, 0.022423000957389194, -0.021834408310450894, -0.03198596418746039, 0.41175535952197173, 0.25895519663940825, 0.0967878766289904, 0.03412105509310991, -0.02764944433469619, -0.02249876874763388, 0.1434710725876607, 0.07103746736502098, -0.05860736454200363, 0.020346773933673117, 0.18180088393579327, 0.2510958733746189, -0.07613817618205707, -0.07163645959090245, -0.03977031728976323, -0.0997670984052996, -0.06885538611689179, -0.031152440883845525, 0.08627585631125925, 0.12428488460938117, 0.2684842781067349, 0.0674338057050032, 0.02075557124433098, 0.0627308872886951, 0.0889487926700613, 0.39738708951424706, 0.23512728616148343, 0.07855895879422994, -0.35750505907645147, -0.3806458066580777, 0.047164918643815244, 0.11590457909260149, 0.1105822672428708, 0.29311135363533397, 0.11551091063028684, -0.12211826976592177, 0.06851455290051865, 0.014692045870758294, -0.05400802104877524, 0.11709925740418053, 0.14802047655974665, 0.18155003707194797, 0.1696519336316873, 0.2617102028050446, 0.34855013922835637, 0.30730943078181344, 0.15928262711536895, 0.019962092843442778, -0.0376496613790029, -0.08442191231478445, -0.055242366140462934, -0.08386912921019536, -0.051291670492724206, -0.06645611201260103, -0.039169739848626185, 0.09772826767417205, 0.035822888857769915, 0.19530176526223203, 0.06275758612102368, -0.21735359606438068, -0.22612083233066296, 0.04022784733156727, -0.13842746332440997, -0.06087064056746666, 0.040036777857858204, 0.030212088689186765, 0.01670589472428331, -0.11949813716618016, -0.14140568725711772, -0.12804670996938322, -0.18971118504944984, -0.22124252504458056, -0.2488193368946843, -0.12442899274350043, -0.07945345879567309, 0.04035727759596795, 0.03863395119608738, 0.009731180145668606], [0.0159646644272053, -0.014780138859444857, 0.05393246542420944, -0.08133721860258546, -0.137390205522458, -0.009664227897613476, 0.017743350881673583, -0.09828566467300608, 0.048609123212656084, 0.04452048245640004, -0.04632772701506388, 0.10998588587389753, -0.030161291925152173, 0.060302007766062884, 0.0850987913200551, -0.06583266278627091, -0.029508718231846188, 0.009930010439202521, 0.14347949063514856, -0.001091939906145029, 0.2729257925013599, 0.0892480091588217, 0.2762967955545148, 0.059041459803711005, 0.03581336137809013, -0.017429228139394487, 0.011761334941605542, 0.014241690553609033, 0.021975642460091645, 0.17931869106858128, -0.006783201718395017, 0.07791734915862474, -0.22825055262577515, 0.10058562624459617, 0.007095689525707497, 0.021630920692934093, 0.13787823701944396, 0.05789743958738497, 0.12195847021565774, -0.07082722869713842, 0.1348992917780361, -0.02292930433649814, -0.10423767917656818, -0.056052458867585295, 0.0655581865224627, 0.06890131728697735, -0.035613235696101204, -0.2091384057257515, -0.3870908707124955, -0.3358274065978922, -0.30038693449473536, -0.027749129036258688, 0.019317295712802912, -0.030324278922246227, 0.10419332537265, -0.043054532011021246, -0.13040717496021997, 0.139366061951697, 0.32368792804775076, 0.16807987562002788, 0.020790824280965115, -0.038184122546199815, -0.1844320348660089, 0.042252567006932515, -0.1147932650455761, -0.022097945204251384, 0.01026499775909523, -0.06772471872916402, 0.19270444990593433, -0.09407618472935685, 0.06467217088732831, -0.015090885973881574, 0.17090895088884528, 0.041442500281694036, 0.07015291916571467, 0.02219443215268094, 0.1874924966824719, 0.2158518703346932, -0.06406307157802661, -0.23938149150736077, -0.09899534446447344, -0.10867940033626852, 0.12833561073559968, -0.02005926665050738, -0.11149824128187469, 0.032967398452030706, 0.04402668315074882, 0.05992092085846448, 0.22268812257685447, -0.12414589135235342, 0.013444306568495998, -0.09545672060148591, -0.21700303264564813, -0.13186880613339988, -0.10332344840651574, -0.032718837152436536, 0.06824026031471418, -0.05366202790270976, 0.06377254216918753, -0.0829384462721032, 0.05037034501694369, 0.02866610703071003, 0.039673934720545694, -0.32011147449134797, -0.34635518706345136, -0.3821494866895792, -0.3405016842738491, 0.029701858720330754, 0.08175587335105987, 0.14111735014427165, 0.14563162023894705, -0.02209765037426434, -0.04456357384168079, -0.046142757064110106, 0.0052195588480955235, 0.0021910464421427815, -0.31522646627536255, -0.34063467891252197, -0.2245245246596401, -0.21299036893326304, -0.27780260109090477, 0.004200988446704048, 0.13916887340619866, 0.20868140374345745, 0.08367322307388711, 0.03134775201312424, -0.01756311309142301, 0.029434032252939044, 0.11524870900037189, -0.027538104137120867, 0.06654963110677087, -0.05265477465675523, -0.19169114046474114, -0.09579936668356277, -0.01208281204255922, 0.053904151718737296, 0.06544158567465427, -0.008750479299568351, -0.21485026514914118, 0.0004606569109136769, -0.04138402204620585, -0.09566832983911276, 0.01873154694083906, 0.17665486137536693, 0.24364860060519158, 0.2615052349339735, 0.22948012100092421, 0.10711097603661064, 0.07528050878395139, 0.01061797865385562, 0.011204437672522586, -0.07005409444690415, -0.06665714899293489, -0.025680933367258265, 0.08846408034373554, 0.007221739895338158, 0.11587625926228778, 0.061121818302240526, 0.04195937974070171, 0.015113866755674412, 0.08429440108439566, 0.05095235049967257, 0.10039840027095359, -0.08288250868747116, -0.11725358560144426, -0.20431644258345108, 0.06331146798195093, -0.030827656703684706, 0.08467589445750234, 0.19545836504983252, -0.08660275749753366, -0.021683025075602082, 0.029746088227829, 0.006729981291443452, 0.06093153313014922, 0.16951942853215177, 0.048648181144712074, -0.1984038213713739, -0.08257283185604584, -0.05224247068631566, 0.05761552604714068, -0.1706391285082773, -0.09531501443891856, 0.011706378027000206, 0.01997866135355667, 0.10215233296084616, -0.01082691073536325, 0.09229613397819067, -0.05933381740641323, 0.04786368351116092, -0.029862230541811027, -0.0006875694806469227, 0.04653417388830061, -0.09226360539944513, 0.005168523226364751, 0.05337084308963727], [-0.04764417398609775, 0.07938360705531161, 0.07586303227416284, -0.04281834784802588, 0.20296227747557488, -0.01968608704723414, -0.02497818835649307, -0.11658905674651639, 0.09052255821666676, -0.1440446584318675, 0.06444544618253072, -0.03173838686542649, 0.01629316038940713, 0.0863608823894394, -0.04439155891131865, -0.06607299954028717, 0.14851470132782324, 0.11661958697035255, 0.006931918841331116, 0.05110200235930326, 0.15344635081321978, 0.10975263297388115, 0.2733307777198112, 0.12027093206748686, -0.06758213748907027, -0.020521167107669262, -0.055405341770624374, 0.031604680217853925, 0.030113276496305203, 0.07906564307462996, 0.09788827740554268, 0.15688038380300462, 0.12449634166277337, 0.023796242427113447, 0.25069648967647695, 0.13487182625260163, 0.09657529853962006, -0.0907409725741607, -0.13814639996958017, -0.19338535378418986, 0.009231345159577485, -0.04668489186697833, 0.08696919668928618, 0.11122314763685553, 0.05595465426977885, 0.1643845006132598, 0.14908444148858252, 0.23203006284176617, 0.23498709186452674, 0.22858714967008095, 0.006500917388778737, 0.20526538209767733, -0.11718359666267684, -0.164444726845829, 0.010882126553723835, 0.01381907967512764, -0.0407935966292088, 0.13414274168123327, 0.02841051655352285, 0.06257846914113004, -0.0725718698059805, -0.021757118083937127, -0.013573356592626751, 0.2595128458769357, 0.19544099530775624, 0.028186840173416876, -0.005346237327823162, -0.21184096277155157, -0.21842879849958527, 0.06520820718110572, 0.0309965763848375, 0.015720750577969164, -0.006730971745129979, -0.4507052400107553, -0.5232390981672431, -0.5937787645511483, -0.7305811803597405, 0.021961759863854326, 0.04919467379293482, -0.020158788206237243, -0.07748183505634414, -0.18437474003837984, -0.016708300977954473, 0.1646111121540044, -0.05451576517323237, -0.036431910821912813, -0.16231649637304954, -0.7090685405602214, -0.5369828270551429, -0.4615133337020106, -0.3486999534321791, -0.031589858443350265, -0.03390197841569255, -0.019355017895412246, -0.34414377102466936, -0.3481302999832827, -0.13330971821672874, -0.10389746906189713, -0.06478836694358102, -0.09342204656895278, -0.017132757062338008, -0.20407786167151287, -0.0984272795872548, -0.04355487263463511, -0.024861960948114856, 0.11851532646082888, -0.101599365770836, -0.07676306036917546, -0.009095664957102213, 